first -1.0597952829947146 -0.3702198226146705 -0.5846630583070077 0.27184418774558505 -0.26223319243284476 -0.5098260967064671 0.3192468594505464 0.6604048727507539 -0.43101648169878903 0.4785680126783352 -0.1028336969696723 0.4532959596365847 0.4279086573874202 -0.01093236132481574 0.30634793006781996 -0.3728653790678148 -0.6594783846293539 -0.2711726821736411 0.4744824751704802 0.4449435338294741 0.04768088237582831 -0.1456979924313484 0.540626712029621 0.6260017131409786 0.6636147339381319 -0.29922884821559376 0.4140202771432803 0.18551215937382196 -0.0839055782048352 -0.1775811900916657 0.5054056942525644 0.959023466498353 0.06529258635230646 -0.48659028719611114 -0.1302943359792834 0.19794493098967242 0.6331339470190835 0.0723456774488932 0.37533346241946014 0.33055332039415625 0.6715917586863696 -0.38506626699588914 0.5358049011549355 0.3065464100510493 0.17654188551139727 0.20284499222917923 0.37809753242036204 -0.4579200590085257 0.6128475558689566 0.4280958190082914 -0.1415827892834371 -0.37957591840835747 -0.07597099059579995 0.10495422359886893 -0.27854518225549374 -0.24676169298629144 -0.28409789449053 0.39282895230239795 0.16074220959591928 -0.2827510970466195 -0.3053002841172321 0.4473659315935227 0.40776599795562185 -0.40024272675293004 -0.3641077604949456 0.44571609494131764 0.07455761199076354 0.03638031351634899 -0.4567592785748994 0.24272840754551112 0.07155624155557755 -0.11674276512136306 0.44015915823039947 0.4071498618549168 0.10667807892072442 0.32164045521672796 -0.10692941653388412 0.011967777994562428 0.13027413032893914 0.4071763084785067 0.38646064316357176 -0.11629016218805069 -0.38186110726345684 -0.6421361671633067 -0.2475348058783559 0.5666828994635409 0.6136493644009671 -0.013785324332538158 -0.20986708741048152 -0.08873982672623563 -0.018086069909179374 0.06712544656268217 0.02723037074944195 0.2173087879085007 0.03082845411327652 -0.127733611056272 0.08111158077534947 -0.5050751483388274 0.3891973220395439 0.06797486132031455 -0.11116358393417325 0.0009474243220582174 0.44911214632903074 0.37463836228334796 0.8899398114966732 0.24816576713025662 -0.6094844923226932 0.09752805015094455 0.3097424204062777 -0.29332156828672856 -0.5486564738496825 -0.34945640039753156 -0.31575345707174896 0.13218600632389768 -0.3395950783420494 -0.20789736408489642 0.3185085714892073 -0.18918435067838918 0.265262710341483 0.5901958337528636 0.32850264167138454 -0.2724100594342174 -0.6673622145931265 -0.37057897311409227 -0.20784097219894315 -0.29755222646106294 0.2850421673916667 -0.28975685152067077 0.24869774533186714 -0.3482092498370155 0.019350274984085487 -0.31132184462486534 -0.31591504729680736 0.14307574408378673 -0.03171921107558413 -0.2023212919815213 0.3571535319155125 0.15528818619545953 -0.4074194980525974 -0.23254300237794517 0.02924761966931654 -0.0408150241958249 -0.33129667274658764 0.08132277988700472 -0.20246196514191728 -0.46973454720423785 0.04052900505649035 0.2718252866271178 -0.033531615674105036 -0.462578885767279 0.47968498371570545 0.1934978563184 0.3435457318299689 0.34825296313639176 -0.08467977443394974 0.40874835686644523 0.10291921572451725 0.042405050069375054 1.242165671114207 0.20447952934330305 -0.06525089181283983 0.6266445130818192 0.018592790305273096 0.052983859129618435 0.01293530404693704 0.281263722122061 -0.04619137289231281 0.3293017953613301 0.45323980734312935 0.18481149527804822 -0.25389491672827597 -0.22082431568053643 0.09111484002039794 0.05309851649052222 0.13022942847627533 0.1919404985407093 0.46333921755206325 -0.05528042192639988 -0.2162807164183303 0.314431431459261 -0.5312747936504337 0.21816795234817807 -0.4659835811664926 -0.4694305823050309 -0.0337846202342969 -0.028304224744869093 0.33534541005839574 0.33633060293039724 -0.4880739443552019 -0.1923139143610806 0.20793712037820594 0.211626184881812 -0.07914310526560564 0.06979749216911821 0.45009026945298936 -0.8194183803782935 -0.3920416352677962 -0.11856795538277734 0.0955009663237854 0.26345130546756423 
c -0.42069661566817557 0.07777969414283255 -0.03873263587923752 -0.014741516498629616 0.47334301508692794 0.6633410953029707 0.5574501483026114 0.09129528569339446 0.059645671061276065 0.17643393132760368 -0.002086665912715883 0.3520043377762885 0.214977476739712 -0.40386773853367675 -0.07858427783092747 -0.20232475962370272 0.18189800692599753 -0.258231775477785 -0.23035878129071333 0.12939884117582892 -0.19316749233995031 -0.25173585000178 -0.05644549078469224 0.10608365097353659 -0.30807592151990126 0.12009918352612206 -0.05376224538070294 -0.2095150309206896 -0.3183736173171741 0.05107075189799146 0.4989333093032228 0.23086125095568572 -0.14541961129339123 -0.23687061129837694 0.22324878842670576 0.05571712395498175 -0.08703209829774909 -0.3957564442726872 0.20731485659867505 0.01404690967260268 0.12991266506681082 0.0770851474071212 0.5701248235528172 -0.11562435178042449 0.30715073652644614 -0.1863440912709683 0.3021573780307165 -0.2697349592410046 -0.020665670584556033 -0.09807597177696031 0.5203762518421026 0.211062805535096 -0.31008939272480585 0.013483368071455216 -0.2843935647498501 -0.09995204821422789 -0.004500660098134832 -0.12390900581829456 -0.03649015403696993 -0.0625985672044244 -0.30771465948433024 0.32153862241402614 0.2330858227007812 0.4429915447639689 0.0034536846427050604 -0.20038486284402782 -0.06014919427996452 0.28836355013328796 -0.38747740629726046 0.32491631173978003 0.43195577987079004 -0.18058467617056315 0.5303455205923083 -0.067073091138258 0.1536458937973755 0.034148450448824495 -0.43024506617980285 -0.2598403890981927 -0.08336208608593706 -0.18546697184569338 -0.14121437946912074 -0.16215383846703077 0.13721021874272088 -0.08048814195031492 0.2942531609703397 0.0007168950789195605 -0.4142555550507395 -0.0011580766267319936 0.18387331466263418 0.7777279932124446 -0.0539745409381664 -0.2596259309995583 -0.025486819362108993 0.025330005819542527 0.593626910450663 0.40467206930697514 0.2348294970313682 -0.2628675668412889 0.057461389719688005 0.12243787425480444 -0.18703605454023692 0.12266204263344209 -0.19093352057707325 0.12795274823338074 0.0866790735975448 -0.08900625954628089 0.6145436842117769 -0.07542798074093766 0.0006369806887125717 -0.0285773410347328 0.04484156623062194 -0.27472738642173183 -0.07550969877060675 0.013462030392153424 -0.23925870646559416 -0.1929329962695491 0.5238664975842499 -0.2159646150088736 0.4045731147015837 0.07145111052574937 -0.14665797428202615 0.47225889273155647 0.08887056106278539 0.29124659939079195 0.2212234439848227 -0.122814610313095 0.1364350495641284 -0.3097199020767889 -0.005610356158881098 -0.17287364259481608 -0.06575533099194081 0.3606233741967405 0.3575694925056797 0.08834844436512367 -0.42279688308764557 0.17363907359862793 -0.13683821293095294 0.41671802794639246 -0.062172852555655474 -0.25864301380584565 0.1508740005626537 -0.29237291279729144 -0.04917086787159599 0.1779257088152162 0.6559660594261485 0.3511707823333671 0.14775883842439091 0.08651187850714674 -0.16680467478119365 0.14276025306510312 0.19262326690194856 0.2515838319109144 -0.17558685430560642 -0.0008677151718347815 -0.11596843799896056 0.16133108259984735 0.148840330972761 -0.03793892091046738 -0.0540518796882219 -0.3447005573909847 0.5956872849390107 0.2297358124638961 0.13358339635330388 0.06011116129769164 -0.08073630330285597 -0.07734613383473352 -0.39483214903969666 -0.10637109593304321 -0.16596973853775923 0.38149704831629266 -0.11388914075690887 -0.05225548589191363 0.173872902606101 -0.34718662852453125 0.20182390740253145 0.2808453661823646 -1.2484220718973174 0.18911304756828554 0.3728697159807963 -0.08762318771345383 -0.0035355384119696853 -0.18138316383371572 0.5581258527475915 0.1621669758901475 0.33741259513059496 0.27282826348774397 0.5684378102529483 -0.27975941092572026 0.016268533340446544 -0.2692861310595431 0.37594636772555245 -0.03218397971885821 -0.14602731636843505 -0.3114561940252254 -0.08360769142936375 0.11261910212611265 -0.5674514237525334 0.21937301730666112 0.06789343290791086 0.41723834556637507 
it 0.7189058484402376 0.4171021250532588 -0.15564290917992624 0.14415471666966573 -0.22068915724857488 0.021282191570632634 0.5564354031127124 -0.34937793650767734 -0.22121599902199643 -0.5714339127345551 0.08110663287007988 -0.22398487683142776 0.3051124765553791 -0.24984599209050154 -0.06700857495552334 -0.08731138947306391 -0.4372078415370126 -0.1017014058866463 0.007011007403280081 0.1551619162543511 -0.023391020895111938 -0.2634173506762688 -0.058527603821716415 0.24188583996987104 -0.3292482665682597 0.09635227937983463 -0.16701969879903603 -0.35471081861289816 0.10181711925984092 -0.5446733311525361 0.2552108021798755 -0.10720241275260436 0.5244055697437702 0.674297803056633 -0.12245994329792473 0.43973066163096397 -0.08661580137977476 -0.2718146185663046 -0.15780384303957504 0.1851485946656888 0.19005702034867883 -0.2638825905940079 0.2710420627268399 -0.2454147345677905 -0.2906519203384171 0.10600213151579663 0.18597753093043792 0.1509896686307053 -0.4747137018833637 0.11138495267837711 0.1800823086926766 -0.37681348093313205 0.2575132104237801 -0.014053101895819826 0.19129920428914288 0.01563614551358867 -0.27015347049649685 0.287005853032276 -0.22853896900148452 0.06327690301416643 -0.44909477178629387 0.11423906931466558 -0.007349566150145443 0.10739949546133588 0.179219592013645 -0.06972609746412145 -0.11149708690606382 -0.5039122001454365 -0.31445814412114603 0.014844775555849607 0.6917461492524037 0.03500257152670135 -0.015079806326701455 0.15501551514307121 0.34932397109097435 -0.3932433021205881 0.12416727660224727 0.14913245669878294 0.16957477433936716 -0.49856770218036145 -0.28090732001441593 0.12290237614911582 -0.2877005617047502 -0.2488696258169498 0.29931993749472346 -0.00927882801527579 -0.1697808781073853 0.10939787835166599 -0.015354127254474131 0.1703730139733225 -0.40854558018645204 -0.0037767725517477944 -0.12324670514650686 0.1719312534039602 0.28448584437919666 0.25736321740491636 -0.4657395646703884 0.17037624163493306 0.29843645366078747 0.08144582214462787 0.37691676385763423 0.10639372495346858 -0.01933262043462091 -0.18396254766222073 -0.18927296546104952 0.7347482143227865 0.24272952392015254 -0.5039151192524298 0.0697287678529796 -0.010027971777485094 0.04636845704629111 0.37094018021028874 0.23395886298088886 -0.1663418239092612 -0.3943835648006501 -0.09648269414163363 -0.27051709795827716 0.12551394439185348 0.2174780808063415 0.18981587258289428 -0.08181404436134457 -0.056364616296367256 -0.17940980780782756 0.005577854504217099 -0.09018643975601998 0.09723588723196448 0.40282707310088334 0.21210475965582587 0.12839728610684778 0.26882934774939166 -0.7433674162411664 -0.3374853440297649 -0.1834220897244608 0.31989316874279305 -0.03005972996452258 0.4827811050161127 -0.13642214746057316 -0.22707652394868363 -0.20834238669233796 0.4343118082523826 0.016809787073364637 0.16769713797747887 -0.3699798633777921 0.25009920089862514 0.44046517678758745 0.1917010256957037 0.00426335014674066 0.21915370023427158 -0.17395005838548844 0.23038495682291188 0.04439508336792125 0.19294927917316262 0.07176905852645374 0.06219897665850875 -0.18112575995996036 -0.2426191057008322 -0.1376768832258179 -0.6609112507362012 -0.7172824152379598 0.2676228601970544 0.015446022561041564 0.12434082440319078 0.2633772559673674 -0.043410661111161236 0.22224494255303998 0.8171342367345128 0.08491527251152334 -0.41841306169700326 -0.14764595776079742 0.1114542570686864 0.2085888014933772 0.49082069762390285 0.2741822160366079 0.02959117877268157 -0.23989043615713562 0.16483776104883718 0.027157729097931654 -0.014040283640934712 -0.3636796971773372 -0.10505080496550526 0.3681451566084799 0.09803274602394425 0.13934628081944755 -0.44383421434212217 -0.35557727678312256 0.14789165833002713 0.10551170310520239 0.027312886123657856 -0.11799365992277416 0.19103134208746478 0.24487309488648504 0.06118547670983723 0.6383918837307496 0.09643681599315998 -0.053253310296761766 0.35322423405998843 -0.2072718804813616 0.5601941525328001 -0.11256709291863287 -0.028922646981938232 
i -0.18526025206831961 0.6887989075301508 -0.23754923009794165 -0.13938214730595963 0.006158945027305039 0.10011675368902835 0.42822512497438797 0.12843764758346943 0.19274138411938713 0.2823131126209658 -0.37091080135993215 0.10301625401964346 -0.17185557698942233 -0.5211295454029699 -0.6154840794796207 0.12328292006195671 0.21054995302414797 -0.08244636619939213 -0.2001180398636344 -0.256772681919591 -0.19959427818365894 -0.03647574591622092 0.4049108703256575 0.12937289556314677 0.2789749486610564 0.4166740771640874 -0.5223802971612155 0.7948118429015791 -0.12097731362170686 0.41893640183047404 -0.02866740869943389 0.47795009085300755 0.2659513545303973 -0.5670740691990319 -0.005946367711940133 0.11423120536107217 -0.12224944435954406 0.47513599284788965 -0.3821415821587216 -0.23851420730078984 0.26682307954032225 0.010152911225313227 -0.07891784493956842 -0.014842970588425236 0.3263331758514609 -0.2286252521846271 -0.17832766397891006 -0.5740922351363162 0.5274790048257455 -0.6182444039334115 0.9831114876943348 0.6049600363735359 -0.3986874090459222 0.5229537622780396 0.6441552659562456 0.29822311809438656 -0.5055232907369436 -0.9376202061618621 0.14682277540077618 -0.4986695382051906 -0.38714336388286485 0.3328473399314654 -0.7289227918835874 0.04047504340009117 -1.2329076794048242 -0.016367703814433476 -0.6976332991833311 0.4389381006272747 -0.3659186386289749 0.3155189735712848 -0.587845191257892 0.07633582571390986 0.5329781411167583 0.1901155122813614 -0.3479370073368193 0.22111794827814063 -0.5097914797271419 -0.4882011025859393 0.4291865139628763 -0.14242824899644996 -0.1467746573492977 -0.16379322346158257 0.04553332474857462 -0.27129279503973586 0.44793693654159056 -0.14257493214909545 0.017659018610525462 0.6407003121038993 0.34097884074639395 0.1651850220555054 0.39370801704179603 -0.029841913342144966 -0.013716178955538609 -0.5295681736657369 0.300489515808356 -0.3149974978207042 -0.13190597333168036 -0.1276085648317359 -0.4467194748183002 0.31228856238920477 0.14286822604124208 0.4022787238091705 0.15409639169212608 0.1292689980668747 -0.012707512380493554 -0.7453181599396265 -0.09735560821384001 -0.03624921537905998 -0.1840138064213103 -0.39603354997936796 0.23863112434822187 -0.08909683001176648 0.14458674969955393 0.4793708213224297 0.1941269999131335 0.48818962457944903 -0.2882189968440845 -0.1066768107020548 0.2196317883638245 0.38717671114725266 -0.6621224679411173 -0.17050338817700794 -0.2070836811639427 -0.6547646206742168 -0.1476905505053061 -0.20409015682503265 0.32850461739992065 -0.10770207921444888 -0.12570530959782136 -1.0931775167635647 0.3486980194435352 0.6093031464650845 -0.06206791680878376 -0.014681718814335526 -0.3568528375520784 -0.06480808993154842 0.27142923293521415 0.36426641443114205 -0.38547465715051443 -0.2836230075265608 -0.20200818299399467 -0.10129899739202393 0.0713740328287592 0.6053674536464007 0.17828473760878255 0.18491752336909426 -0.4147325220442997 -0.2596073308754395 -0.02517752770362204 -0.45442518823592 0.19444195648546067 -0.41293516059308333 -0.2205468868987062 0.054824481330790695 0.24686221722992727 -0.04217738179436944 0.1911275488738674 0.47196356441047577 -0.10046539244842842 -0.38479377809467086 -0.31092616799781514 -0.34752273461496264 0.22604609602468684 -0.47489831405134286 0.3245189086636001 -0.4940419273998743 -0.06078338678146579 1.1309632936110767 -0.4887337029134413 -0.02949586246717048 0.2395333038676623 0.13404191591831965 -0.3066776132346062 0.024521429662982264 0.2954420809925141 -0.3254319816179002 -0.42862903303659544 0.7806031422100232 -0.08868296951564172 0.2995115803842609 -0.15850400426550532 -0.1558510669453717 -0.19838207995092422 0.3482152797603368 0.10253148687955532 -0.6280044923872747 -0.27607897263687997 0.052898823118910365 0.9958301571221667 -0.6341381951315098 0.36458672266897185 -0.5036861537200236 -0.0897818939980676 -0.5577362569510262 0.29286052496083603 -0.3562579052217091 -0.5181022181756154 0.6267237768248665 0.3294866765688489 0.32281686124438225 
z 0.10462191200018363 -0.1607620617229731 -0.24306835621869632 -0.06634826462072548 0.5515658854411895 -0.21342766210761582 -0.22717378176235864 -0.0683697524987086 -0.7599739437250528 -1.2690010868664006 0.23520176841473908 -1.0657914650724518 0.04955436511346094 -0.3159623502962592 0.5890751237423314 -0.5462650703717523 -0.19041167774354575 0.04137253288151185 0.5355326439338627 -0.12096154845866447 -0.5478261139740712 0.4256225237936684 0.33606378449494095 0.22594973650104838 0.11209770138512465 -0.212092792676438 -0.895138434104976 0.313232995947343 0.03036269324186725 -0.1857296223558962 -0.46614353657528607 -0.14894420104180073 -0.8563396899022973 -0.7078040240221778 -0.07547759575239958 0.35940451833178844 1.4252948652667938 -0.40967083494011136 -0.2615231032343141 0.40212434424008353 -0.12369376093556073 -0.296906918977862 0.10996325695473333 0.38340028392572634 -0.8168890645721938 -0.6705023703391764 -0.29880653378327016 -0.2840581881941778 -0.2051918261504069 0.4885278687555766 -0.24819461019975908 -0.9066526017152567 -0.7151761519192926 0.17393103745748892 0.34377396401714694 -0.03792318574851687 0.28977303042448405 0.019393000461893274 0.30241974036473046 0.7480302067193013 0.6150259144879595 0.5147000694209637 0.14228656357946676 -0.15376506911700247 -0.05288122265421654 -0.47706485502060536 0.05090574609003666 0.26839136375845535 -0.3638622516820752 -0.2927904261013265 -0.23229385885584186 -0.16503154796662875 -0.6772127755534283 -0.49618871075708343 0.1977546859714514 0.25970813249351643 0.2977158577300089 0.7390804837896686 -0.711367777818447 0.6329278638832846 -1.2219299693539452 -0.301835715158391 -0.19556884571410266 1.3022327028564986 0.48867514324145744 -0.47030088529763037 -0.18236530171837131 0.24357679083791547 0.03978731700615931 0.22051965289421654 0.6984275977675299 0.3817617780737157 -0.6079322614721949 -0.5345267980138931 -0.3498257983401807 -0.7588840250745849 0.040709388708899216 0.7350809142501491 0.02541687093176855 0.6359638376128304 0.3725088949323229 0.45072691244383517 0.43874514400344355 -0.1196273378958774 0.3169714359454781 0.6038399663811465 0.18633863082880123 0.7406800447350592 -0.1752483149384797 -0.44586331467683155 0.673274546323679 -0.11121161516298388 0.09788571715961752 -0.8027879235434888 -0.2960046124691216 0.048220417992932446 0.070994582756359 0.28744370584855566 0.9895579018166244 -0.10642659651843293 0.20951652300489587 -0.35076200875657154 -0.05396719965384613 -0.325785180877455 -0.7665282668047952 0.3682800777782426 -0.41378592074160764 0.12451194028030428 0.13777140634581447 -0.06945482074801904 0.19116643508695125 0.17488619979093795 0.2320166432497466 0.49108126107053507 -0.022220729845127664 -0.18811522242586515 0.16533535670261584 -0.21536073279771822 0.8995108483312623 -0.3646023840156036 0.3960581183217052 0.4055958294718449 0.8432266182965126 -0.7286771697542798 0.3888677724671296 -0.1619851442753549 -0.1466784489087747 0.5797385211117638 0.24424350165447084 0.48190924978455635 -0.5031414333961381 0.702286051335376 -0.13429787117557526 -0.5689025145491867 0.12029006248520081 0.16386531982436076 -0.6067120113102921 -0.09379819329730411 -0.41450061670141414 0.5275600088133106 -0.044241876571690146 -0.8033710101084561 -0.36918028005418485 0.5334693026515414 0.20860705695312007 0.3582086912291103 -0.8764747498099908 0.051902571025412556 0.08492939806232193 0.09506797631670286 0.2834337605102341 -0.41137646783957565 -0.1579443299204637 -0.18712447054037024 0.2962576540176611 -0.7268947560180783 0.5226118027658734 -0.046214910496177576 0.418324108284211 -0.8915340263408089 -0.1884876849840308 -0.015765077126220325 0.5944378145711068 -0.2802699847235201 0.15432677068415962 -0.3718938111027382 -0.15857915752793947 -0.18407339091543282 0.08780934623299624 0.49043328297524513 -0.13854749493134658 0.46543665212971563 0.17124355517858397 0.3448274592919121 -0.9144966092498258 -1.002487022855731 0.2993372882626277 -0.19634841266057174 -0.06961658531800767 -0.4167417802557194 
<space> 0.2724292195428986 -0.41071405732765454 -0.10479951351098962 -0.527051663161385 0.1313340286777685 -0.12858438771660802 0.04476507817868304 -0.3945531053397192 -0.3486472381818363 0.26180120313559513 0.2127983499761244 0.33819719212626825 0.6299517030395952 -0.05871846082767802 0.18554265025303324 0.07253789510826032 0.1316319579998077 -0.10503763590310353 0.704498699581755 -0.30233810862127153 0.11610145343889829 -0.03720118891404608 -0.5177290065307619 0.2227639269483282 -0.27047348805769383 0.11925220346809162 0.10579286764845246 -0.10370661372518535 0.2580475208494729 -0.04801984844939293 0.10995911256411883 0.03125723350522839 0.48644602608164145 0.16131075573023418 -0.09895334758408258 -0.3453833496302106 0.06237219885567163 -0.38636482469163 0.08603979401566958 -0.6062445545871045 -0.160519680876462 -0.0018428995204723964 0.20000420489144696 -0.913473850272125 -0.10709773956447946 -0.025562185339435065 0.18000217944828392 -0.6199314019329434 0.1095268581254584 0.2726815397819283 -0.1819248668769535 0.07699892948098004 -0.4134571777061241 0.5324825124555548 -0.14334907877469272 -0.23202498135341915 -0.20707797377082893 0.0639633144951488 -0.32651335220037825 -0.3661247467678976 0.03271771454097672 -0.13575126818321143 -0.09133299207190662 0.1822607955107565 0.6915502454942187 0.166141217842758 0.14720312785043457 0.37965766618049474 0.12484361543638062 -0.046557008744695004 0.2569464695806996 0.29693305061185854 0.4787167538138749 -0.17132403310974795 0.4321150493672104 -0.19995470357459258 0.16112485772451057 0.15599673899246105 -0.6077757797108533 -0.9771600077480956 -0.4963481093378278 -0.19159233868225414 -0.6865330564777136 0.15574770162187473 -0.10629672926574385 -0.06275414410039759 -0.2559768360224814 0.6529388739433607 0.46854803946628526 0.07656650881374015 0.20535459646816595 0.504444886204194 0.3339965228603582 -0.08461763025439673 0.108226607055225 -0.27109765670251973 -0.35444867535816155 -0.3344602447820544 -0.32803439534483325 0.2963985382508257 0.06233577718761511 -0.10962989148589791 0.1448718572866917 -0.19600257152068729 -0.23867185495502494 0.3463189566225012 -0.43765472559123736 -0.5293421162776192 -0.0453622669015024 -0.005197086068789651 0.26760336464410495 -0.1254994044261057 0.2357925447009206 0.22318287630759517 -0.028327360689372097 0.49509290659767363 -0.6394922901035951 -0.5142598019449637 -0.10780361345991302 0.208786454406596 -0.3450415956961381 0.29850296201159165 -0.14579024451658257 0.30169616066859706 -0.3327211149896447 -0.26916707828096353 0.3432112374121032 -0.06880873465755913 -0.5939708092829932 -0.5766868365751153 -0.6254032267547897 -0.01740834643256379 -0.6601699059161165 0.4344705320765204 -0.7611899879624437 -0.04232950241962612 0.5307771240859049 0.1290288984365578 0.6373906674409897 -0.07145855378118568 -0.685173807365064 0.10036877747960697 -0.14892578976679158 0.4167281644691773 -0.44295024440735375 0.11571826115868217 -0.18528214962479506 -0.15513440361394115 0.5959456755503145 -0.41668574776312634 -0.3502296410783753 -0.21050244402333707 -0.9471724866928857 0.031755085760775265 0.17551565419117574 0.16284833227032436 0.4284368596809853 0.4102840992959847 -0.032454180981803867 0.614514694189943 0.062319544054598656 0.2898514546715724 0.057997690463692 0.25468833919704353 0.4052864554454674 -0.10714924824963773 -0.3595435070531683 -0.10439100437552054 -0.055389978241211626 0.0924356667353218 -0.2706582457798982 -0.09656768002760496 -0.6495341630075263 0.007550143560106824 -0.05081284564149677 -0.7284991794146695 -0.3774516653061457 -0.11650914525224337 -0.09572808665661853 0.16624400420889704 0.4681763492467419 -0.320795983107829 0.10490434532818702 0.23274794888306904 -0.06303418227859098 -0.10397989872623443 0.1439475587392054 0.5011747368034166 -0.009907701958678329 0.4166337763251801 0.6061487733281957 -0.48114747332734503 0.017044267131434303 -0.07088375073834094 -0.34310176356862093 -0.5391364902533958 -0.08263722555857916 0.5261835269786084 -0.051760013219653594 0.057278517923251095 
en -0.21293747522086928 0.1851293151830018 0.22765689100363684 0.07620514196004223 -0.1982705288646388 0.6392218882472429 -0.3175879556231892 -0.016676979869016666 0.469966130438274 0.24586391391392387 -0.19132697700864082 -0.5920623014683541 0.36328425061768765 -0.23593380804311923 -0.4384495112095864 0.47693859615759393 -0.41159775270862736 -0.4745962623785075 0.5455980125940547 0.6355988030739536 -0.057224239989435904 -0.06124785609485939 -0.11647242918642908 0.3971574808399869 -0.09817133011040145 -0.8058485354558489 -0.014161006008862241 0.6810628751371691 0.44916347610765517 0.5455943338504734 0.3801027502282469 -0.17829945305443023 0.17378091193124878 -0.5577074812514944 -0.5301321160313095 -0.08990227598052912 0.02039618314620175 -0.391167763699515 0.022908294544141145 0.10139207814805909 -0.2766843725126776 -0.22766222333395922 -0.2759321415077002 0.915184689707074 0.865224919536985 0.41608295147715757 0.4863348738729937 -0.029622694458221244 0.042912048518541246 -0.24086746775639722 0.31880133841240177 -0.679239644447358 -0.14875765963189885 -0.2255578297307085 0.05437959686650724 -0.09763803861477194 0.6265616075245952 -0.029273144849526866 -0.06151293046056178 -0.4976662537876726 -0.7763332053609586 0.5408308504372398 -0.04997218685106019 0.381064134049846 0.6561483880560135 0.35818226246809853 0.07796853853715059 0.277082767995474 -0.3772900455502985 0.13925920209356382 -0.021702418322796527 0.18077326453505851 0.1831109244258978 0.3568551771467005 0.08516153258369617 0.21153570545750155 -0.010431408887370902 0.016230195582349515 0.32740459168716773 -0.41157121004462865 0.15126753206007565 0.38283982241158127 0.2156010970220981 0.16324424214743444 0.31057778544401987 1.0112281081473573 -0.19874398328616608 0.24058365565919787 0.2603892127825864 0.21238703567898626 -0.34210987354089184 0.33444968213269183 -0.27052291150189484 0.4135092586008076 0.3532423658074999 0.4350597595807473 -0.11534888269988562 0.10073511225196138 -0.041087292096858685 0.5729850195799839 0.46035913645978416 0.06130786028581045 0.07298821889153857 0.0026616448683993623 -0.2751271731469045 0.04226287987293377 -0.0972352735395287 0.10090884046844358 0.42349949911407575 0.020609343180971764 0.09950027383628739 0.2957845923293104 0.30083305456325454 0.5615079905610729 -0.148204013745697 -0.001983667823356395 0.5778218948031465 0.05009366057775025 -0.25346414520995547 -0.02837397698612853 -0.03952471352301249 0.2977840220845574 -0.9391439413357072 0.3774872471949572 0.1981357063074619 0.019562462692291338 0.5997818177234158 0.3586562022030241 -0.16498612957208195 -0.1328957059395128 -0.006732425105300765 -0.10849811975424084 0.5919817151643807 -0.23965246266286697 -0.01499889251552718 -0.42233761571791756 -0.40324799232324304 0.41666020336216203 0.014501971137927876 -0.9455193287340377 0.21638623466311357 0.11346072979806505 0.005516154536565652 0.21524376959839311 -0.2022146501833151 -0.10608449722568081 0.7250988221652549 0.1216758787398442 -0.04763324503964092 -0.06459776392520311 0.004320372460436511 -0.008953623791971982 0.28067642539453774 -0.16554460821396488 0.5965758302750407 0.606876580542634 0.022428940640593704 -0.29249063126618147 0.27855971077707575 0.5882877227324704 -0.22307544444213873 -0.18082520384346776 0.07558755834634234 -0.048627270332259526 -0.14101952328470752 0.0501695566694932 0.07058099135668959 -0.4288872428478175 0.13969147917408822 0.1012568894915801 0.005794536300939507 0.8359579869639484 -0.2143886578014605 0.4712167143806706 0.4574614115452706 0.3592975817653035 -0.07931837397195887 -0.1247465498961841 -0.025599047677442158 0.1836793573751177 0.5600531721586972 -0.7714384187889772 0.7427447311237543 0.10588614010577566 -0.5803261357927797 0.6471329134736703 -0.1109417927302088 0.05701396451837301 0.00764512681116318 -0.29146130136227155 0.35742575257905285 -0.3948659925215895 0.12071650044757745 0.5944523473676009 -1.0237124415014498 -0.6486625077170793 -0.025628500368946455 0.1980146321449017 -0.8432409096224959 0.2192453473603874 
: 0.3121525297771577 0.43666273794202803 1.1455448907182113 0.0927539101021437 0.6114501056531365 -0.7303170691247968 -0.17796027160177857 -0.1961362854036922 0.5629090992571475 0.1354743171784462 0.37623521380741254 0.005061595932779975 0.3449545264727192 0.22103238489330884 -0.30145415995506997 -0.42395075303412005 -0.16187220647655914 -0.06850377245329364 -0.10014866867456508 0.07292807163441718 -0.4431655308671958 -0.08906232258893187 0.12598028732386946 -0.15610422381211525 0.7303106209143758 -0.06251345819722137 -0.3468677180127711 -0.5067745360309921 0.14270894660587757 -0.1167364042420596 -0.047364760777674084 -0.045677468058716315 0.9596898024654662 0.20941531400290964 -0.1865768279465635 0.05959412046199095 0.007708145962130299 -0.05785497530316354 0.038993378222371755 0.5335746333483629 0.4763580764443682 0.23854099977644277 -0.18730600858060212 -0.19356249168502698 -0.2841968983753195 0.033803584574571485 -0.238290702999723 0.10908229057551062 0.5134375652570194 0.7233610744328259 0.22434874959306517 -0.06158886610313127 -0.28589863100985685 -0.14669033176551796 -0.13610135666653164 0.4259610484732253 0.2727386181215703 -0.13316711291725525 0.15506737517744526 -0.7260517712271644 0.5714454938588296 -0.059525887138426964 0.2250668119374377 0.5293180049702095 0.15879843858038475 0.3997893201839868 -0.35800472724659926 0.44766538252778576 -0.1646175088223593 0.5997636891171779 -0.08764313115419914 -1.1699918434079675 0.02417028936164741 0.5685593849796786 0.26266073903410836 0.5401498001781264 0.20994191484638602 -0.04699925795058904 0.08705391263405406 0.25135316696842197 -0.4074870473017149 -0.3937676755047107 0.49827558746386896 0.3901641056721481 -0.275997033755683 -0.34380838328588564 -0.3751386394119778 0.9409532932755779 -0.35759862028624995 -0.41180439891238946 -0.16112165209419171 0.11881361244703274 -0.6314800928136954 0.11895413776661196 0.529409225508643 -0.11435552996578224 -1.1135293074456076 -0.6761113846157675 -0.03399697692979716 -0.1150762425617962 0.3244405594618002 -0.11328889891686392 -0.33140060179444697 -0.6175617620761361 -0.2228728323362989 -0.5720831727766712 0.5000355325640153 -0.0592572635981965 -0.026646937092032946 -0.39643465116992804 -0.18514183807125886 -0.18998063023612122 -0.009137473893121067 0.11138989291637973 0.05626117436716523 -0.11355090860144851 -0.8759668957503131 0.24030344613988583 -0.42548874039370727 -0.3874572351012071 -0.2073218473340968 -0.33454264051575155 0.04037927515688876 -0.005346296469351211 0.9768938224590523 -0.7901820674694224 -0.2373390466613178 0.3639038512947434 0.2913951021190799 0.252457695809198 -0.05061992078717768 0.5329701642979756 -0.37712665702734866 -0.14836616221985854 -0.2876737861492958 -0.7194349241787399 0.07443558904260138 -0.6406860289650734 0.359127511636204 0.271251085821355 -0.3664521525242379 -0.5902103111559801 -0.14485007909020875 -0.06695083091028836 0.17041816223779074 0.4685826748634287 0.7985215222276469 1.0386368121904914 -0.2939600251368864 -0.016836676098229506 -0.4277078371410072 -0.2478983830903143 0.26189984363941865 -0.8291067951845603 -0.7260355220734909 -0.07903281341980634 -0.06976316095038788 0.3396721704064682 -0.49777458996803914 -0.1846320144055803 -0.4703745777919515 -0.8738742524181692 0.18720188967927132 -0.6994985988587402 -0.2709525722846038 -0.161751915709911 0.16334405320352574 0.12681360107470493 -0.04101178644802575 0.029893969506219545 0.8122038695562991 -0.5040836429564856 0.20995331604263073 -0.14274711345207525 -0.37945548271744967 -0.6811798877672727 0.1616313676296629 0.10202679707242811 0.17720060453465067 -0.5480317161787412 0.23044905705363972 0.16328421723447842 -0.08757081985463785 0.46663170987880703 -0.5761295731453225 -0.32513072192581016 0.08050020771694441 0.18157258443433996 -0.5168740086859669 0.08423502517715478 0.21711103169384918 -0.05397664481237084 0.3130496048066642 -0.20905866493207748 0.29879140334543897 -0.05646640022089733 0.12482125518889184 -0.006021357704855117 -0.05645706517979292 0.12497519666834699 
be 0.19827538907812756 0.5337731357350918 -0.4521720886655693 0.056883196741560296 -0.5495056166587426 0.3188271378840657 0.3000713974850403 -0.4274094209392274 -0.8437042633688401 0.03356023801190126 0.32278926924912577 -0.14048386635382923 0.1410649009862077 -0.10257663137476095 0.27450834633174565 -0.19005739165699348 -0.30864559009421105 0.3884873366841249 -0.3996406400274937 0.25305681804546576 -0.2194909907123047 0.2069266187652752 -0.7223324280437845 -0.258473504943855 -0.38151172165615554 -0.13861386285604982 -0.07172417096447434 -0.3108947006366532 -0.40968925071524476 -0.1121147577171224 0.5256739229056681 -0.33621767262432734 -0.3515368749655243 -0.17349350637901212 -0.4988987368678277 -0.22127981653569093 0.27834761619684856 -0.14502403286485224 0.009065137969686388 -0.0013025013281761574 0.19229666127187373 0.3443839992750827 0.03386112562662817 -0.19356975977111612 -0.4583069398676503 0.4024276943988882 -0.07451784540122927 -0.012785400496417763 -0.1747799843582138 0.09067959815960122 -0.32502056623724457 -0.1389452368194559 0.44272820175322053 -0.7194625771226086 -0.15579162627436594 -0.03961646175867564 -0.24664158599184452 0.1921563898948144 -0.13136755895579136 -0.24356200960142751 0.029706504953796387 -0.5305235686701387 -0.020160062697021575 -0.1790948444956578 -0.10799911032752688 -0.2555994518397147 0.35720532504057184 0.387293452783691 0.16239619111069947 -0.013745805589366646 0.43756817518465774 0.0787906275071314 0.2020332137995136 -0.26843608656465556 -0.29481316727138845 -0.20912031663859046 0.216335623279792 -0.24269681943798316 0.6332766512242789 0.2615929608860461 -0.08006772266967598 0.29557611672468675 -0.45305134969957606 -0.15523309719636927 0.21972946674660135 0.5867156680991819 -0.07883364217554072 -0.24215615299071386 -0.5301773525055987 0.14153385979479513 -0.1576773023568271 -0.5338026584063646 -0.08428839230517556 -0.5028617145717137 0.1334933008460748 0.07360715611311223 -0.0924974318224333 -0.26633036778792396 0.3483557145364922 -0.06460783515910694 0.6007570066054836 0.14478474811758998 0.18474783782592105 -0.4484820580829329 -0.2774664058895885 -0.13821446411099403 -0.020486368869318122 -0.0016449548995992117 -0.016818305297023765 0.20133429857860494 0.07461500462789064 0.25603786455955385 0.08707219560334609 -0.18281383044031088 -0.5329798887925726 0.19038203828895622 0.1073571864640113 0.5583161002953525 0.07290673449871768 0.3235881187208777 0.006850881909148725 0.46846920432142386 -0.3569818102904663 -0.25695529129482475 -0.12317654194997185 -0.36380091815765375 -0.26385944316950216 -0.2896679348501361 -0.16157863440157316 0.15686828078229317 -0.32874997588707905 -0.26569822554632744 -0.29877104381858344 -0.025948405287046353 0.04128383251767429 -0.11839418690282622 -0.39781891570615324 -0.08896809195488327 0.24494698609054133 -0.20553414270880305 0.22119777279371292 0.0428488126887512 -0.42575116256550166 0.4273926451908678 0.019575780141903983 -0.5479593777729148 -0.18711513716594902 0.07764522957771437 -0.16452742725064948 0.23979068310895008 -0.05959460128534348 0.3238496639231559 -0.5022368746051945 -0.349365888707879 -0.1334059703296063 0.22459625662260302 -0.153074630785567 0.07520652997920856 -0.5350049910631749 -0.24122571266044016 0.2189506199875881 0.13518963045900914 -0.1796100499270917 -0.2123186123896657 0.07870738002073598 0.0378562862692725 -0.07066669879944575 -0.6726258985188049 0.15474516798179622 0.3943160587590692 0.1694407834741644 -0.25486374953941054 0.4907124979768714 -0.06394609312917109 -0.4263045850186867 0.0810347901093424 0.27011920360046904 -0.08704039012934017 -0.5205830935273011 -0.3751547148945296 0.23410998402186337 -0.15357765095570636 -0.08574317424249739 -0.41985182495538326 -0.05224206649927632 0.060384590591470305 0.41225877246863457 0.3080986948709022 -0.08624398375972561 0.04827791261615701 0.13059302547343563 -0.20028498532586983 0.33518249720301035 -0.04053128295291097 -0.19036391779360223 -0.18912410249839673 0.519993272122188 0.003965893745035608 -0.2355880502094463 0.3353252374077936 
fore 0.20660916232924287 0.8713276190418809 0.04468784914013468 -0.1580502018358757 0.24068756550646392 0.23369822021438427 0.8724335940103924 0.7065450019564433 -0.12632621965309632 -0.6436683205024802 0.20130353021589645 0.3102063806287379 0.02934768906828642 -0.09797129417358247 0.13354437854510465 0.5625902424059636 0.40478790114306823 -0.3137520638945622 0.3068390662464013 0.30994957350952484 -0.6941825500899566 0.31836581378573503 -0.18441091025782994 0.12055198391274945 -0.3625502971332682 0.3383038740036084 0.6156791715394212 -0.3665098557036306 0.23633711298390242 -0.06803647635531512 0.16655633791971713 -0.03925935595051268 -0.5983813239530275 0.3466634659480595 -0.34310199544160125 0.12264735378484029 0.8486545784516722 -0.15892258668396597 0.10732891423708693 -0.7253059110493244 -0.5163534619634079 0.29149704419594935 0.6071876748317863 -0.19393042928087093 -0.04634612630949609 0.8807832612437568 0.35114253590728733 0.19244167526526415 -0.5272843684701651 -0.17385061577027017 0.1982425626638508 -0.1943224575628948 0.46372836370037746 0.12462308356375452 0.5213931698560459 -0.15838153948161734 0.0401730925250343 0.8208159460693227 -0.3113914310145566 0.3656038010104635 0.7274266284066427 -0.1184348781657649 -0.10792909240151585 -0.08997951159101986 0.21508786367296495 0.03788486419522995 0.48762616852420193 0.061724602065289506 0.3385800757497756 0.21039231939139585 0.11857187955805654 0.1451252725040247 -0.2207152267597042 0.6464400480138852 -0.7616723715512876 0.07060339025113276 -0.030081341709645618 0.38578430411393616 0.6703170316751028 0.09099068631426213 0.0482441064853872 0.0737433753171775 0.05280141838470015 0.20737490128520553 -0.5411521517449349 0.5541888846153692 0.014550849803454745 0.047505193920310995 0.29831755692155465 0.40199273249069445 -0.08490940827250257 0.0816986079256458 -0.22594582611940212 -0.19793094946754733 -0.1542250324320313 -0.36387113150362044 0.47954891447080433 -0.2300335233152393 0.11529463772051293 -0.7863182635287217 -0.603947825299653 -0.0037325856392087936 0.310919294969699 0.4126789229475093 -0.2224586109927948 -0.3787493931166898 -0.5329818458353562 0.3417263170709902 0.5986976340981426 0.09578743218515676 0.21622055416461958 0.36477705343919253 -0.332582127173796 0.3914541006556218 -0.639992227998422 0.02168646852723407 -0.33107596743544476 0.42827065095602673 -0.04541336359391198 -0.07733841085094251 0.11580658073992439 0.875497160422791 0.46339355559168516 -0.12509457147083597 -0.22331945084906082 0.3324990470311334 -0.7373676998071341 -1.045554824758625 -0.07711963047551357 0.7952270603612842 -0.570774667944027 -0.585848854409072 -0.3864039572298501 0.19509108187754576 0.32836897919993413 0.04529947461012258 -0.14313903953652007 -0.5925256262886036 0.23474396831729757 0.1355604254791363 0.2692106734573515 0.4256997276769399 0.12873511995468997 -0.4194285399831545 0.08838682742863799 -0.027803785413534482 0.09967396110209793 -0.7534917929943887 -0.13157512263796012 0.007513552354336664 0.3175193375938482 0.8176373893946094 -0.1715032222406203 -0.22892946112605322 0.5399223796057365 -0.019227512223519955 0.36581284119818736 0.11497033580679206 0.2033279757485611 0.2065694274015994 -0.19072531175369034 0.07349048586483814 -0.42000176939174033 0.49348462398827087 -0.22287341126283797 0.15276922091838244 0.506224355874194 -0.3776124679967894 0.3933126797663167 0.41630857256923787 0.08295138417647786 -0.11258677742394407 0.24897228037186678 -0.1715421335977751 0.17151616152958338 -0.6448840961413297 0.4634858131737837 0.3216710561796236 0.24500132625909363 -0.5130950393891753 0.45887573969611617 -0.1218526645565776 -0.22680436730394193 -0.3458774940518011 -0.34164127565968366 -0.002042432690130852 -0.13585528359395518 -0.27387255402243305 -0.6560260757740018 0.3958955996550926 0.003469487262712026 -0.6925267149357114 0.18324441395388685 -0.200163709646691 -0.18354328845421547 0.34237896515344957 0.20035790859635713 -0.006040015374481247 0.5969146258837453 0.1110621043778487 
we -0.3427370487536671 -0.2810719741994958 -0.26185090425396274 -0.14316360919352877 -0.5109636091115433 0.23372794610318215 0.3176342149286501 -0.4843784283452308 -0.5130838587903045 -0.3102286381560791 -0.04604689872558605 0.1384785490301769 0.1513983976774328 -0.030900981364019798 -0.20329951483925748 0.31948327639245017 0.19464237282513108 -0.02745430861341662 -0.4140612402955104 0.08318978011047772 -0.009841691910247696 -0.057948153022100754 -0.03797738995089197 0.24793528828213285 -0.13375881222965427 -0.050494973586927915 0.08978481012068024 0.5684929553661869 -0.2084787610892293 0.3493902191036594 0.6031530553864599 0.1690453305714452 -0.5977579375005801 0.48140742466517467 0.12041744494316552 -0.6038493108398212 0.3477371142323727 0.09364853080182274 -0.1719823270606253 -0.07488736406597124 -0.36719342293974433 0.16699105938787243 -0.21959417196327108 -0.16247557087293885 0.04329634823436071 -0.14287840217964418 0.08042418937531574 -0.12365255071781314 0.3865598164063362 -0.25572948827505554 -0.30419817690892614 -0.07555626962637468 0.06219620201917818 -0.2685529032440924 0.07733771291526695 0.25173411988826 0.07441693324802512 -0.24329871409438036 -0.19132813002342822 0.00975446711815208 0.3104678251201526 0.2661643232041115 0.1694395924659899 0.08968289860402703 0.02936282272887472 -0.4759941825750524 0.3350876334084999 -0.289225034188031 -0.2898190337735901 -0.321876853145946 0.3326149782664775 -0.3728796695120295 -0.08968985948031867 -0.47870509028398794 -0.44042160053637536 -0.09621540499261658 0.16125633544265197 -0.02449437023478418 -0.054432551185605305 -0.18932096654544778 0.07805553047236538 -0.24293504652526687 -0.27565905489994386 -0.10961443239197427 0.1324357941089535 0.5995645074688793 0.13367962006739537 0.3221855564293075 0.11990640524645597 0.02095918471077286 -0.3524980050436508 -0.12554659980317157 0.14786660909245083 -0.2877050969864457 -0.05038531706877663 -0.10944169404105475 0.12112718148681151 0.0885619012481879 0.033685264843265214 0.2712056766195409 0.014906817865821856 0.2124603491061306 0.13253261995052837 0.19008741339706042 -0.13490944596382992 -0.2916823694902242 0.052550236121840524 0.48071941815558644 0.19993755180560147 0.3153873473549283 0.07658816336693604 -0.10861525240375083 -0.2368052491382748 0.0859710639349899 0.08557818863806789 -0.07275523776482358 -0.17775099861781715 -0.1318600712371546 0.09784268314025256 -0.022803674416101753 -0.16260779244992585 0.3278561800110023 -0.009899742980053758 -0.280466683963086 -0.2795693537037351 0.09876062610291236 -0.17800432955597753 -0.41831917340439817 -0.06255357542494605 -0.23340349946975347 -0.02071070231913481 -0.23216386391780713 -0.18691085165596769 -0.09397569672379434 -0.06831060360122429 0.020240456971792924 0.05112498459798938 -0.09459917119284714 0.24446130672970728 0.16061984958273703 -0.30678727181699517 -0.12918740931937525 -0.26527769742427865 0.14731675014357165 -0.05619123957328634 0.25223948429659426 0.04539752158116294 -0.11896698486911483 -0.327163525581941 0.0005066370371096598 -0.18559503086817014 -0.16219672021767229 -0.05422918570019162 0.366282116942898 0.12177700280631264 -0.0024271056923574376 0.14975575956028178 0.08450784636932342 -0.5325424805611677 -0.49661779084731006 0.21124689033183577 -0.04922029113947485 -0.06736977330761532 -0.09574689732387565 0.2198352479472386 -0.2758862677474768 0.2768702769924507 -0.606709169398233 0.13562678974264097 0.24334690561302597 -0.2924833670525932 -0.11421506898335132 0.11085138622877021 0.2685822104027695 0.01160339690617432 0.08320820001227719 0.056015160973468626 0.10926418458318186 -0.09310810187039611 0.2753534700517242 0.34105066534626743 -0.2758885705515113 -0.27843780911644284 0.03234801775357575 0.45373676660577006 -0.020028055794077612 -0.036085284497530026 -0.01762587212685733 -0.005615394811221079 0.2170335505480579 0.11797938122905079 -0.2038084223563019 0.030598002454694805 0.1217248647228638 -0.13431723852159988 -0.20045350996943997 0.18112355248626583 0.40674148723382136 -0.46459852108307764 0.3305184465184378 
pro 0.21134658329514935 -0.07382528587240758 0.006794473075706018 0.12345630505354244 -0.0711271908461133 0.32650934906888746 -0.003105351891423004 -0.8283935750284482 0.22613571720051884 -0.14863621753004094 0.23287981302788746 -0.09231075100149652 -0.5003653337978385 0.02522364044060773 0.4238056554490691 0.30510119381569323 -0.16646046177095342 0.3035478896628927 0.07503241523420652 0.22563099109020748 0.22642957485988513 0.0894404448111787 -0.1620471607414034 -0.21555516585424925 -0.14695947252872033 0.2145794761308092 0.20365337698144192 -0.8873842482738848 -0.08462601113453487 0.20727488378949976 -0.08828819650290406 0.27838402891446906 -0.7555874968217172 0.1550657480718423 -0.5381065280959348 -0.32062911206385597 0.09598803097319042 0.1971608140833296 0.10943685445963042 -0.2108095477407296 -0.400618842227879 -0.20071217702212682 0.34769985147962157 -0.09316262961706037 -0.3966190911161375 0.5038211327450804 -0.14998573698515663 0.2229023705261907 -0.40289515534321646 0.32502934632989383 0.2937729440778835 -0.12025929251531113 0.1593332406515341 -0.43304923437972703 -0.28799642607261144 -0.14962147252278757 -0.07657587753018474 0.4735624905578104 0.1682189629593089 0.34968440479886886 0.08505772797488045 -0.10228186420056377 0.16132831127121555 -0.2926799230898256 -0.2652004612415032 0.0996410476727698 0.32159024834435423 -0.1814859894007572 0.3600245335916612 -0.25225202939434155 -0.35436464841594445 0.0999890350228438 -0.20662488400342655 -0.09036051269662987 -0.3354262395707857 -0.06591661465162843 -0.002008847434383808 0.2681227346572761 -0.22959044746022098 0.2444189895581724 -0.5115744884417401 0.08229170646540783 -0.5936512755651214 0.2429857927947336 -0.19895677732569594 -0.10460043092637769 -0.10253948405845431 -0.9226196905810989 0.08777822064017038 0.04156808775043158 -0.256759725713673 -0.27174113680181655 -0.10819921351013655 0.43097259693805606 0.08187051152047503 -0.25153752557900405 -0.2047604588099528 0.06282451159983748 -0.2012830779423245 -0.566026007427196 -0.06056574660306469 -0.2014919592921041 0.16631038741337567 0.31465181718682117 -0.0713360137821226 -0.21923948496442627 -0.32108220041064706 0.11077000852572909 -0.16624060873154917 -0.14932510623312514 -0.2847685827307254 0.07595734906006545 -0.44912357336382874 -0.06351701092148433 -0.42399178980868407 -0.4438713316155314 -0.36030484608220675 0.35362513342231117 0.1585551385491516 0.30607342449849306 0.4669057153547075 0.3675484833391141 0.19028204056035075 0.06778706951250824 0.13430405864042078 0.04604356154704985 -0.41577526199317505 -0.024139199547102967 -0.21514890262587724 0.46048789842983634 -0.019096922203558186 0.09479431676182425 -0.0798476759969497 0.2751649654004631 0.2697539851597987 0.3562386264881342 -0.30542476835065624 -0.31864245711900663 0.40236627927801444 -0.00877045107701055 0.11987530201544619 0.236208150955287 0.2638709833119231 -0.4532281113745722 -0.0011137264796428348 -0.26701643989373314 -0.16579105913120765 0.0775044839629985 -0.36125371117804933 0.1991828284616457 -0.1248240869077761 0.5066024046930115 -0.30290029993277684 -0.16974439673177266 -0.036212480714283485 0.022059658155013102 0.07172813478931335 0.37422923164841543 -0.16413992367064614 0.3746955778640605 -0.004733476907638451 0.17156155570725468 0.32243190688744156 0.1762817636680596 -0.30882609448609977 0.21642828375351705 0.3597343725588016 -0.37661956167830063 0.11099584960574864 -0.05143114447984038 0.4591124191203711 -0.0005833349208245195 0.0006541277646228572 -0.1123663526185456 -0.28844264561138083 0.4677119401225549 0.06038562928049648 -0.07547059659128597 -0.2201999759694126 -0.14555454152111685 0.08851228711747766 0.35083393289006226 -0.29614906432368915 -0.1489180333663322 -0.09354281983582138 -0.12112637268154033 0.10056397713189844 -0.4394542600901133 -0.2537319440191064 0.3994789388500323 0.046189604050634145 -0.03865638841624951 0.06590540506345989 -0.3796880469979944 0.09166357942329621 -0.36917312650345424 0.03596964968271078 0.1447251241481045 0.46628159915925593 0.2269388246944502 
ce 0.5442029808870594 -0.04749339180178229 -0.5020116316048784 0.37057292555436355 0.4623555481795701 0.23443982832559676 -0.13085653084182805 0.09666350706506444 0.6775403815950289 0.536996138958467 -0.280968248798812 -0.604632244202139 0.04886237950301897 -0.27610964894704576 0.6312652986854091 -0.12881143917428964 -0.3812767131188264 -0.049300252820081256 -0.4274458189086767 -0.1955304438760684 0.7511675345836502 0.15425005093637836 -0.5682817147594935 -0.21717975517588128 -0.009205493155589488 0.4265179520634652 -0.4729675957821181 -0.3500652832078985 0.23133213078279005 -0.5098318401745223 -0.9743291393276811 0.11764731636708037 0.4162436888845185 -0.1303187048501911 -0.2753858624766156 0.07202992635961927 0.6644705048310477 -0.2501080971007206 -0.21355384114389483 0.6661348769577983 0.6709272846824066 -0.02148912231703473 -0.5437447878332049 0.15474550155972797 0.19501543046400635 0.21747902961677232 -0.14883132860280143 0.2841679709301331 -0.8966381237004434 0.0397755088105565 0.2037360630907222 -0.5709257894933515 0.23766698679794307 -0.4652995075765897 0.07450234425074186 -0.3229697702517756 -0.3355618899557089 0.5425118499581705 -0.2248411978390073 -0.30305426054166434 -0.10833976367472178 0.13554621921742632 0.1452597115129117 0.02182708118655972 -0.33665130468334087 -0.4983451093730821 0.036598690752245866 -0.16846325229270537 0.3712784770969944 0.07936487988770062 -0.009897486118650059 0.1217606171529054 0.4695123846099998 0.5241504947198686 -0.9447009544955918 0.2907236994179999 -0.020043302204693525 0.8217429309419557 0.21426147312742375 -0.19391658911634108 -0.1746891963352527 -0.5185705817589487 0.0953758707569771 -0.21112719214519898 -0.2472096615127889 -0.002010708212341304 -0.19821361683963465 0.11277395077889382 0.3308123612590586 -0.6024611985666875 -0.18719318844056348 0.4766938380165179 -0.3683421932419103 -0.4921424081477601 -0.3860004241941693 -0.15743412255181174 -0.6187082597429684 -0.06628456249985125 0.587590534235528 -0.1068394463228031 -0.6720593332619842 -0.5575340158634029 0.12469851750092073 -0.1493394477704529 -0.1465702479859307 -0.31749732595105223 0.25093150800428343 -0.07316438212208129 -0.6538511464369605 -0.028252627143696016 0.34840188016894635 -0.05424341689468486 0.29630239453937396 -0.19912698523343106 -0.02423558886161426 0.17555332212824343 -0.1475146322695765 0.0587192028706892 -0.015259799821554645 -1.011344932768538 -0.6594192817363878 -0.4664309651029804 0.514053078052018 0.8259153056229916 0.5619723288544645 -0.6737601553088111 -0.7049675531834739 -0.15413289139558878 0.19466251167005433 -0.1572472706282118 0.1123188094167783 0.04082413334658662 0.030524707036345213 0.19512276910679976 -0.09015772196668154 0.6938844070400412 -0.5179168945466578 -0.20545134274757246 0.479121188080399 0.3492467563176515 0.29699026235257353 -0.28906963073655695 -0.17858310569752772 -0.5467721011926282 0.42545011811181327 0.26530830940571587 -0.11614068266472383 0.6110022209885024 -0.347994938330643 0.8722424959028435 -0.740889426637196 0.448519888861541 -0.27997024344728666 -0.18308743971345226 -0.34718562368775574 0.3800752269139815 0.47593620472335846 -0.07531892042853841 -0.14199367626840131 0.28596478315606644 0.25803139114735035 -0.6773311302984447 -0.2054492753354099 0.027762184658627186 -0.4877187039002623 0.4710621281429972 0.2808346727997817 -0.03959212842314134 0.038547958702035624 0.02798985991302876 0.1572205330480516 -0.4882652684668244 0.23472648697889367 -0.4662292283135348 -0.2217894657916778 0.1133080894231641 -0.2817291553871085 0.17121870785803117 0.1915155836790716 -0.24697437107241074 -0.5083917091056537 0.12455464389380187 -0.33468990983955427 0.5054422610609822 0.032480192761446966 -0.6210578450358476 0.569699353015127 0.1307176710594704 -0.727543477403461 -0.17127032323551666 0.1842900876196617 0.43931358435069723 -0.1829055927130178 0.19428366846935025 0.3233687183642946 0.18873120344814856 0.09887404517029368 -0.671347438043046 0.08024276188994779 -0.03184651635511128 

 -0.1308677871922316 -0.1762142523768286 0.4831551624459752 0.13554381874726742 0.5004422082233052 -0.478614077125303 -0.32555694041949024 0.2737245467510051 0.48499549117653895 0.4347023282535074 0.20531558737141548 -0.09147221234070477 -0.39147762619748827 0.5799260947706273 -0.19881862702874573 0.03278291091251753 0.19697621213897634 0.31380001668602464 0.21453989415925404 0.12647508107081734 0.1756345356741857 0.3891323433581659 0.08689021674712179 0.11714690536214503 0.47158789131218004 0.4436659641422236 -0.12498147632203821 -0.08581236837990569 0.33859833482428797 -0.593389496832126 -0.12884436895761572 0.25856228757030175 0.5020328643534827 -0.43773749615692087 -0.08414641232620211 -0.15656727141003218 0.2586431559422732 -0.1269348154795235 -0.08069161295552883 -0.14667743838426328 0.09396133193235362 -0.052995717928614114 0.0767158830110622 0.09379935798727533 -0.044820143607917654 0.27854869832459056 -0.3565145641111551 -0.15618718497907425 0.33868585822369635 0.19868700461408562 -0.07868643243960458 -0.3370742490282211 -0.6240349049183331 0.5064560482523122 -0.10083192522778162 -0.5055511728472638 -0.03796128690143224 0.1810008843563842 -0.18449170727491615 -0.43692420460875847 -0.1569777231803823 0.14142121568468413 -0.05853617279058208 -0.049662095322559316 -0.23037858302059805 0.4285703400715613 -0.4292780909432426 0.6146190694100363 0.11786774632178389 0.34787191412355645 -0.5152612672309453 0.11466887913918758 0.582601970422816 -0.3667372409175926 0.11838909883904267 0.10951682414158945 0.32032925561805337 -0.11005630030969027 -0.48125124081011733 -0.21836910286441746 -0.23768472010342884 -0.2631672834037704 0.34331172078351546 0.43564465115992596 -0.10241343562774641 0.15583196862694346 0.16525530359817817 0.4913864798555739 0.1737365278559401 -0.4276031849625969 -0.3761065056792004 0.4754516460819281 0.14157286833928817 -0.10153472095659002 0.3304891454407387 0.14811561651993638 -0.6664758045587469 -0.1668038999432582 0.08202052497515908 0.027969456737759246 -0.06060598899052674 0.22649699862540312 0.40092559444938186 0.016446186002942703 0.0016203528217620142 -0.042005394664080146 -0.007693742465072448 0.270336993592099 -0.7380866446250779 0.023292089467780233 -0.09574205199432478 -0.11688823497117083 -0.23540991200279082 0.2836392929743643 0.47694150560936355 0.5114597598721304 -0.3455184151396378 -0.5531385412971571 -0.5164277417323164 -0.15370235404890134 -0.6797031085101364 0.03960491018827451 0.4626327812476531 -0.31273381882789153 0.2800314606142164 -0.504443995049395 0.29747727719043165 0.11023908804437549 -0.05683856185200823 -0.9687243046436032 0.2507347693281483 0.5066435730805802 -0.30947437242025433 -0.0014693269222575064 -0.49475112792258447 0.14386466503151485 0.3645218451090464 0.1090026703610332 0.25893113686703745 0.18385666466195533 -0.6898686514790601 -0.3037461697260992 0.12503844957001242 0.5600230227590101 -0.2260173258105541 0.13458256246928776 -0.32798366326893214 0.23428847926383334 0.42489633036156654 -0.2727560105654543 0.01510347521823241 -0.2813948128686899 -0.5338908797876625 0.16281798400167122 0.24611355053488795 -0.09375074905599082 0.15910472531012357 0.4586970489448216 0.638441975667989 0.5939784243838201 -0.1929091128119674 0.06798957883341004 -0.28370464590162353 -0.15371538106098775 0.2619848607176644 -0.07990497733278266 -0.004247205706537337 0.4231206301976404 -0.17488220072732488 -0.6776139395128715 -0.26964138235160623 -0.43210984897619314 0.09728746786259301 -0.2279841435745866 0.2360265053744569 -0.652372404422317 0.0015915153668689813 0.1712569715733809 -0.27106022235933924 0.1647590659259107 0.21065514831514792 -0.4154265236503377 -0.01713412888892868 1.0153062548204521 -0.19008691981966394 -0.4144545301384045 -0.20871957734089322 0.31339210523288624 0.3196678013444252 0.09716525456664371 0.15129269171505494 0.11555087189882489 -0.004120772888497548 -0.31467667008397 -0.07574420657925442 -0.24347107351301156 0.04452684012570381 0.15658261419659125 -0.6067827900635904 0.15828488809913238 
ed 0.6438522580597209 0.369645417084899 0.2738956592266198 0.5660885855002539 0.08967982707725171 -0.11505456271656572 0.2556753135644463 -0.4095808028356502 0.04204419421015329 0.09927786951070278 0.06306733453520903 -0.1337383232976019 -0.2546589665529695 -0.41398618286116046 0.1382011439332932 0.23072880689856257 -0.7640283789815046 -0.22128562696224288 0.6128326898325246 -0.2356220735925778 0.04649890855666898 -0.04557139596772608 -0.3542451983997356 0.0039783497151065165 0.33660688286308876 -0.37097905814548665 0.2579024986765613 -0.16576056791551544 0.4015214375540421 -0.1522990254262058 0.09773013508979866 -0.64939542333045 -0.21979841025513133 0.4690036841788495 0.23755775670119533 0.3308529683695768 0.1703836124743417 -0.3812172670430859 0.687672182500932 -0.33934520930277967 -0.25820792140813176 0.024690311618831264 0.5058418989090057 -0.06107417399015124 -0.350381241171212 -0.2024240589754831 -0.07094868237840722 0.21634150805569727 -0.23316243484037125 0.6872659856922411 0.1280175488365808 0.1672512723918855 0.24489471451035277 0.03936129796701325 0.17633708421882502 -0.25546806860439486 -0.95446536620838 0.032294335097849 -0.07553779341287166 -0.23001585460204163 -0.01582421527756559 -0.49937937352092565 0.2757742350385692 -0.5031689356989003 -0.14643202274005754 -0.5146250876226129 0.11405359055705584 -0.08285863612056457 -0.2541331520068077 -0.6415104333973869 -0.06056488673710976 0.10503782759723666 -0.4408702781251468 0.3389734137022438 0.5448103488594406 0.14724251240702746 0.0492418133632371 0.40904054251936256 -0.2754203169398451 0.4546107664754757 -0.12368844618867281 -0.10089689818892135 0.04938677189381331 0.15535541397848912 -0.11288152898025337 0.1380917289519782 -0.3828391101433828 -0.0064912050441058786 0.2191676260462448 0.05604649077345797 -0.0755139183687234 -0.17486890140725075 0.03620323702345658 -0.47364675019449654 -0.20593784914593943 -0.3340499611246234 -0.5312322370379613 0.724044888695644 0.7552877669829345 -0.4679911847243105 0.2944562316449594 -0.4551336406776824 0.595101446855046 0.126300906303154 0.23966515839125452 -0.7531260478961085 -0.32621884677560253 -0.39904339890913265 -0.2318843317642145 -0.17524524441613634 0.03303836287099393 -0.008448150025029647 -0.2195255463231145 -0.25179214646490816 0.1383734299391089 -0.4695841800517512 -0.1938609020795949 0.03184010488077763 0.6217794564984339 -0.47400876000930187 0.28623051031473634 0.052982388660142175 0.627156985777474 0.22524921683634475 0.018472861320942825 -0.18636968709320553 -0.56112146086261 0.12788562919699403 0.5843226922341026 0.8271287285747717 0.2332750473530507 -0.21126103591325948 -0.0646978787267985 0.35409500936243277 -0.0822681050399289 -0.3024942907951627 -0.025172477324051704 0.060565596522944964 -0.295987690659179 0.5220899494563899 -0.08028516864535422 -0.43374171525910415 0.19403829405394563 -0.0183157303888294 -0.2398941736462792 -0.005195066000018025 0.7483785211702043 -0.25529383222140223 0.16517108200559003 -0.19365741756908453 -0.22197756724660372 0.6934508868363465 0.036250476258882836 0.013244669903978115 0.3598260630243296 0.04090045238264859 -0.24187197748524972 -0.29245918856839936 0.41969289135619786 0.8748649504703446 -0.06457621061789501 0.27306107308477456 0.23354394156139271 -0.29507936506856697 -0.12187349309664063 0.3898848987995332 0.6652204576090149 0.438054460650893 -0.19198702085277852 0.5551357772186273 0.0028517824629769907 0.2849756254444518 -0.5360664610624465 -0.2567218082831566 -0.6835929383001744 0.07075034938660449 -0.056262979895881075 -0.11008900675936426 0.2064034590293355 -0.5669452615749434 0.16912341638743533 0.442161164191854 0.3378528283031395 0.03307732113378648 -0.48583034033520034 -0.6640202897448513 0.26743620827451653 -0.07977897339567394 -0.4193626867846802 0.17904990558434572 0.23939381520216452 -0.5665461962591045 0.5478144524294793 -0.41607050877720936 0.13433878607514727 0.4330767798875288 -0.2034892362323429 -0.21650718875631897 0.07932034952461106 -0.1101125003729071 
an -0.1401886554399157 0.8147911133792051 -0.016329018596922228 0.4821497892993413 0.6327497157289809 -0.6962519494278141 0.08370753550535157 0.31756621652377925 0.043787515562662374 -0.2522716648796157 -0.6798693451222482 0.6774808534747696 0.3758097159143368 -0.1472594678321698 -0.9441449507765656 -0.3541720868941066 -0.0023605351996765778 -0.2757815176011946 -0.40326944856032526 -0.6346080342395527 0.02065334096134304 0.3551879043816396 0.005273444711075062 -0.5187367482819271 0.3993321605124962 0.3334688981916877 -0.12003023366614023 0.13809481794435105 0.16544114336500299 0.1335167050417521 -0.5310001218515512 0.05046451098195763 0.4568667179101745 -1.3693413271094488 -0.8591352329466941 0.37331743967452413 -0.4465021138403491 0.6712422785120226 0.17642170523781409 0.1928663187537856 0.5678463545738923 0.5559848218523341 -0.70251244756631 0.2781659225715559 0.642839910450075 0.15813931601648729 -0.9545774259914195 -0.4463692750969481 0.5512812602995323 -0.28166475583230466 0.3619917641499733 0.1938733045951873 -0.7764222101231846 0.22835355190610745 0.1659789748628609 -0.02438644690272007 -0.4686465478624757 -0.46205090720382336 0.10260036150301384 -0.1924297006060544 0.3691394059624762 0.46211226093317875 -0.6824196698401888 -0.09418277535719934 -0.5725140141349809 0.09555855608038988 0.17079007143521865 0.8535644846945176 0.20494230360746718 0.4363319871503277 -0.4707143236372908 -0.45104888503393037 0.5632136851276488 0.23644736359806068 0.12163279815462405 0.13187106402332188 0.5889688925363281 -0.3932441075191812 0.6564328846124425 -0.1877319167496829 -0.16915438108198963 0.4110883417788702 0.1464222182684876 0.293471958079937 0.5039807874101657 -0.2725124799341084 0.23429024472408524 -0.09985963718352839 -0.5065524617854267 -0.3888047859430923 0.8587150761983278 0.7970239720305956 0.02575722774549527 -0.5635819027511678 -0.253399257288279 0.1641151940308265 -0.4805238619801943 -0.3237675834646494 -0.482626093934615 -0.15336413943360522 -0.12022598299908899 0.08351674443571493 0.2802633870656878 0.008454321626699637 -0.48074382635825164 -0.23686711284543566 -0.06213537997250043 0.617731145261758 -0.5383677459238682 -0.5761678795777662 0.3072124576726373 0.04761680437415314 -0.10069662842280983 0.6079799899436918 0.5758615278964087 0.1870734379991554 -0.05249291579501355 0.08788215581923386 -0.38242157776676927 -0.16496496505389685 -1.0556590736963738 0.21456575907344844 -0.38138421440822246 -0.29400971562645517 -0.25207316264169743 -0.3496030311159195 1.2517433279297259 -0.465169834141948 -0.009009132474705403 -0.6468175537976472 0.1672792705812448 0.5528388649720796 0.2703771003412545 0.6023863606382706 -0.24197817501060437 0.46718543235623466 0.28106877990226714 0.1439186740029797 0.4384279384389378 -0.5220262972687298 -0.6802276444227969 -0.35738775847218474 -0.24374345978523873 0.5280409451755131 0.05596838486167501 -0.1610825426753301 -0.15872367937739124 0.3560873860925455 -0.1823790204828035 -0.13661934267621342 0.25534874828129167 -0.13021514937669632 -0.42516964153240266 -0.1719826363045415 0.6266640007290482 0.17420099384156573 0.2946317821668703 0.08713091464482327 0.04665636610271514 -0.3738764283931811 0.7144007845314083 -0.10526014057774022 0.4436704208898508 -0.20803499878431 0.6060820922332897 -0.007000761890985641 -0.1977763071291238 0.6826962625265425 -0.5516795152728639 -0.260962336084191 0.19128825014343234 -0.08310532909986193 0.40510483570766154 -0.1341934509431965 0.6341926409201796 0.004519595381676317 -0.5621178361996875 0.0975446844745499 0.222357840931641 -0.1734937165958058 -0.4818115872448143 0.2807101315872799 -0.30405347953362116 0.2372399205394709 0.62859339583884 -0.4872323083757445 -0.38086604230307103 0.1216697816925501 0.567828826956627 -0.5529232682985636 0.6117801119529874 0.3483253434998486 -0.8064137753757121 -0.46763919366278084 0.16942659795606682 0.29809583425169645 -0.05246298455736849 0.06241770620918152 0.032160893597915324 -0.095208146617734 
y -0.7093778137604491 -0.1332148262577444 0.16751664671838168 0.276596231260405 -0.26085754672139394 -0.3131589540826203 -0.298703177029147 0.2369963015609865 0.5334285377678696 0.21825238467903962 -0.050526024939372347 0.005062098349233754 0.5144729187580223 -0.5068702027656397 0.10372759161055786 0.32164963315434847 0.633006276896341 -0.032840738800924835 0.05263430410169338 0.8465985770066653 -0.7411300135447387 -0.09012612592734559 -0.32847491461823514 -0.3022399170933929 -0.10776197202097361 -0.006704582759876534 -0.6586743317422377 0.37290797845277623 -0.17690470343256465 0.1500615367605212 0.30392164926705134 0.27827198217976185 -0.004596525722506663 -0.34811748762026384 -0.3197562146119515 -0.05536526634986725 -0.1599379960083589 0.29017968499336677 0.21584937226146753 -0.1945508469849638 0.19379998575473212 0.04329062558305795 -0.25008975434629677 -0.4444809012663342 0.4687738175583972 -0.07549724095088699 -0.14073238313398465 0.35326838479483463 -0.03880182430960284 -0.2110250830250031 0.006385049587100788 -0.3741886693790773 -0.4536393045968201 -0.11584568024585871 0.37536165510684527 -0.25734823945456364 -0.3385710036168112 -0.5231940578125208 0.059136827013444165 0.1289950238243171 -0.37132137196552234 0.470957110323771 0.11829863543181701 0.26016707108542103 -0.31547790131222203 0.23891332531871087 -0.24886684012205817 0.007392213168946428 -0.06963281968727447 0.5004093766443577 -0.6044738078917334 0.4580774166349676 -0.37170558378566276 -0.012503118879735112 0.37418477937949995 0.4001827692028442 -0.22438750929374643 0.08474476894965371 -0.32085747043519475 -0.41255691313686504 0.35917633570937374 -0.5008898756430407 0.1277808734677739 0.046614087175894436 0.01356139445765829 -0.2439154272598657 -0.06739226615296179 0.5413231980488266 0.2967768550709259 0.01474256838393831 -0.08887899539856005 -0.7473853925375268 0.06774151110367888 -0.0007419361119721142 0.17683488494468244 0.6638989947621968 -0.040972054031680395 0.11297525281659818 0.6348527360834638 -0.2717553535962135 -0.260105103629387 0.03742711910158113 0.14698628708040634 0.17965255959160634 -0.33601232457622837 -0.15761784339582155 -0.2338810755608705 -0.13160493073341797 -0.05703745794234078 -0.8058720340741047 -0.05558948912671999 0.20669364460524162 -0.14360367021224438 -0.3084486443298998 -0.18388958778708656 0.06839449050406199 0.2900565989308917 -0.6124897116427025 -0.2993227205441213 -0.12771160222235556 -0.3799552424872107 -0.08541259487695389 -0.6228606403222678 0.47911089270966495 -0.21821961358394823 -0.26344498375487657 0.5140109433110774 -0.7245426978921545 0.24789878471989932 -0.6173194960036488 -0.7199228869121723 0.6569610501671111 0.024544616290544122 -0.6864383708817896 -0.436765515164159 0.171742033454722 -0.5146118933632199 0.3861020619785625 -0.025832759427713334 0.13648323589434538 -0.018839331803336395 -0.45655347586800993 -0.1239620827430112 0.28577392594673345 0.20399792828024407 0.02063805438073331 0.5686223196649567 0.5302392946152639 0.16524800174744578 0.2987937089850724 0.025296643593195806 -0.214017280756237 -0.24749044767262518 0.023761467561510263 0.15153889447220265 0.31078742860792913 0.007554232759566695 0.21239076137240998 0.5629076736111066 -0.060416828778290105 -0.11068347030419637 -0.21480065460634243 0.14513830122290547 0.06581728359661862 0.2117766228563732 -0.040873786807518034 -0.41823358438903413 -0.18961871366919986 0.6676543739299187 0.10039433842354006 -0.0074494770118283225 0.45183474481266855 0.17657008710037556 0.024105718958237696 -0.0233981988503517 0.5002345425892116 -0.5570297036642093 0.006360847292544887 0.7774877824721307 0.024825862481083365 -0.3117628021289309 0.18508228580803682 0.10462392397881468 0.4663126132266245 -0.016172263505209374 0.027766857027768845 0.5218829137494279 0.09665063034500276 -0.2780129864940187 0.02954341336341882 -0.44955327713402493 -0.7712610767152809 -0.018545607922349015 0.04808479113047029 -0.2935418643677841 0.24234823836538646 -0.9126763314292903 0.08498405788031844 0.28329752433544786 -0.4001738812146533 
f 0.10983402331154231 -0.1414367305970666 -0.17934924515213096 -0.15055258653070205 -0.2346347408432441 0.2209218947355814 -0.06733728620212115 -0.3555400878777748 -0.06129113448343139 -0.046863485982814465 0.09866012701624557 -0.039805389320327324 -0.0610913110994091 -0.22610103064508466 0.04722205702455704 -0.330870259710426 0.08895208032746954 0.01907213702123242 0.0595968215480594 0.29571290364654473 -0.19165421651842873 0.3143685698219892 0.016972848279823684 0.2777434049153289 0.027922737926447214 0.04828648775380054 3.053497258453334e-05 0.1501421498522365 -0.057753009541963496 0.29927357247963615 0.21743824539291073 0.14584239877144362 -0.05024648805895149 0.05820202098688531 -0.1536537148598903 0.028253987397834385 -0.25429338202591917 0.027249966528177044 0.07417685092146192 -0.24768345632697242 0.34853094373453414 0.1488890385202124 0.07923323367146647 0.055135052081714854 0.18363413856942273 -0.2607546979745679 -0.2106044759318949 -0.25534854980265886 -0.06938704531143786 -0.13234023831201572 0.17465072641489465 0.22889690662307105 0.19736648787395053 0.2220373901009845 0.05933427222513523 -0.17438001670460473 -0.2152134598255299 -0.24093101133632205 0.22665766816320695 -0.07846978034000575 -0.8045217336707986 0.06886194823040279 -0.11028698995867484 0.2070895471658456 0.11957360560205069 -0.24348113922560988 0.48112198617644575 0.19755485093754693 0.02269561379167806 0.13394916394816705 0.2834368625435373 -0.24331462834822237 -0.2577499225756543 -0.012950159981983279 0.07399171011345895 -0.1009774326828817 -0.039928657233132006 -0.004920406651057184 -0.16002194704535766 0.007867989399379067 -0.3619415275303493 -0.07018077340354631 0.05955127533811838 -0.4336862343678269 0.12172098580156562 -0.4579483999114049 0.031840506273978 -0.6669769561340382 -0.2729872765247775 0.2727779250463694 -0.6161456177275296 -0.07251340569597658 0.6042249142094628 -0.019436712474670926 -0.0215160535661709 0.5386792640607034 0.01122800029059254 -0.027503192469692187 0.21164726950360846 0.0570538107130637 0.4041896494578843 0.016174261638185257 -0.17143468955436705 0.4604808579613551 0.2210890483039321 0.0058711003346533465 -0.08321819448661133 0.20147036305013805 0.2803668387756118 0.1898424148433706 0.4659852938048906 -0.3267381149192339 -0.18263740145888402 -0.05935528744248573 -0.3333570926493154 0.5939102546872006 0.2710409789369807 0.05748811731157713 -0.13116089047847093 0.07260085609560449 -0.12689245076726122 0.5681009944573544 -0.007748468430443032 -0.5004823129903034 -0.07434274165770317 -0.03443637632149514 -0.10894300715347927 -0.024454957231483325 0.5169002493588544 0.08620713424627849 -0.15413025189497756 -0.4870517261106704 -0.5747689468007078 -0.16917073614435477 -0.026510698953231014 -0.042488568321459544 -0.13274696306438594 0.22521432518704493 -0.22751944940949959 -0.07477445964259719 -0.11612378250113882 0.49839678774102575 -0.20035542959948946 -0.2483860231583306 0.20399673699889437 0.35224548330799865 -0.3944824713506635 -0.12543320074364936 0.020604098702479322 0.2247664016402348 -0.4587247667678213 0.20843379264181916 -0.19055693706819585 0.7276697151235122 -0.1981638790793277 0.24073701007868464 0.12862451362401883 0.04405375764516964 -0.27469993420709515 -0.3536920800936022 0.13710952390716605 -0.0679221163326545 -0.24556759082028182 0.057507303028023024 0.23546624155953763 -0.257462244613752 0.3384162724974357 -0.39586887318935915 -0.09396861888283578 0.24454986510219123 0.020452187886618938 -0.5500908671152741 -0.12602670288433465 -0.06215519699111158 -0.23692332275481348 -0.016279506776207323 -0.40491182169008527 -0.11121095251329331 -0.18391500287739335 -0.29123047941710456 0.24597875883617024 -0.17626155861352008 0.40765520353410273 0.1100540859010189 0.1348679920104064 0.09411294167160153 0.1622972010556611 -0.033629552281331965 -0.04644287185650754 0.3773168507987523 -0.11081807017599984 -0.1856196401328821 0.07830016115819155 -0.057504491579606215 0.0752085328276946 -0.005905666104180732 -0.19177651354835348 0.26771756717096196 0.01230585687351006 -0.05512156506278661 
ur 0.5109094632549226 -0.1843245219715013 -0.622278048886318 -0.3271518425073499 0.13745079469231605 -0.02372846953796081 0.26519474847317626 -0.07717128579277271 -0.1516713361740732 0.1679896936837526 -0.09656203643592061 0.021258602663261832 -0.06319687539624703 0.30921166862956656 -0.16320975760429543 -0.30810087217756416 -0.056007499515803624 -0.4007066314646064 0.035118332568451475 0.15703114425564854 -0.17391288551367856 -0.6561362361548704 -0.0800740840802498 0.09706869235237026 -0.19304779879900597 0.06315500523405798 -0.40414315511001153 -0.21334269883087306 -0.06574670374108708 -0.27011753638284186 -0.039042960874566796 -0.1586598172978202 -0.12515384616082478 -0.1943777789504698 0.06921587380115882 0.5861672898785317 -0.07507264183864931 0.6908551671878812 0.2943363423647815 0.44544792324595356 -0.25539308058978266 -0.06643947361610794 0.08035646172327487 -0.21502401348168965 0.5921569785885961 0.12345689494593935 0.48818639280113535 0.21170312746490974 -0.3507543449030138 0.7690387167986874 0.23161552419272566 -0.14634984410243307 0.38894703049888324 -0.19646213346609948 0.357176609952974 0.5123909058837225 -0.3218020050415974 0.01933852342182948 0.33465381784370185 0.225933613346665 -0.06843902362159966 0.7596483642835085 0.10484418929890085 0.1498572228522684 0.16532568534150086 -0.4309089653605804 -0.4708567587955126 -0.5379183511659852 -0.171185067908543 0.1271513276513523 -0.24226340974793117 0.4654485910839976 0.04421129766109261 0.3849907587334368 0.24581848539802317 0.009928063874975395 0.0658431788675104 0.48955102092485436 -0.22578705976181995 0.2382620896590153 -0.23784867363101583 -0.13324215545559936 0.23667382943566756 -0.2390286885702916 0.22079775772794635 0.07323181048789308 -0.11901044162325897 0.36227798404189715 0.36967460765105875 0.046274292318891144 0.19389348483780713 -0.1792498711494831 -0.1227698446350244 0.5491831784154961 0.34996606056464463 0.09918806615605309 -0.15069655379177951 0.15325764226550445 0.1718656843075549 -0.07856168312663353 -0.14828236757562857 -0.6306455756375133 0.21011903425843811 -0.47406405123223516 0.24776182857052037 0.3321430241648791 0.0117974820305614 0.3072312626090677 -0.18788529890813516 0.10179804166861603 -0.5080785790759409 -0.25242327960762057 -0.3657044168986926 -0.24226609482453265 0.10662684360502647 -0.07692517945762534 -0.1333599602702207 -0.28927223415087744 0.10596374258873091 0.035080423205193174 -0.007291273207475121 0.2645888408413516 -0.17314340043989818 -0.3163655796046108 -0.3608638100908747 -0.09800603865988006 0.39698690995237595 0.2773837596594465 0.19683000703325823 0.1705669868671728 -0.3953911340263516 -0.2574290653705251 -0.2545794606600102 0.11904847061404514 0.5382306296453969 -0.05248627675362309 -0.11732146977433139 -0.04014262704791071 -0.02710380139958312 -0.33983778584779756 -0.4395185089775138 -0.29892801683427095 -0.000212766407270042 -0.5503526748908465 -0.1441144544827756 -0.6381401193070216 0.6069766233469568 -0.09524362500726816 -0.03271543847447057 0.1513587047690225 -0.17693806593213934 0.3566199129599774 0.11835603092300509 -0.38108018676876976 0.3981574973810822 0.040238514789136134 -0.08328338008152508 -0.5356990816156518 0.2401988912889634 0.7621799597517213 0.44821657069508064 0.31229794164748803 0.35702680468719306 -0.33775812002326033 -0.10514818491932022 0.3546487019287842 -0.3791293229914505 -0.04765794989454107 -0.11721703312666334 -0.030950452725142966 0.7774721913097994 0.2477448499702388 -0.12996039558893063 -0.6076074340052089 -0.4932532034754729 -0.05744814499328199 -0.24427900754863113 -0.019460076367492578 0.07522227071194923 -0.40776744581273533 -0.3283436566670944 0.277169439301314 0.06627827917713422 -0.339654743177634 -0.45938822320034367 -0.15801154975677342 0.14248814566002824 -0.16122063365510533 -0.5961575493863478 -0.005050618699854823 -0.06371299319596946 0.23384577750395757 0.3171397940640248 -0.22501354667988974 -0.07044076299029134 -0.048861724246407744 -0.45540701323612537 -0.3062695228117962 0.09972422262280606 0.30767462538576884 
ther 0.34638276017592495 -0.6091711276048419 0.18439879365612197 0.4898198567442739 -0.5387376186382363 -0.2945899583746597 -0.3552559394829264 -0.7484834448206892 -0.2234696305570985 0.16292122536287643 -0.3007721686373917 0.0224920256023311 0.3846791430598256 -0.20202382997506138 1.3278401130691007 -0.23334373140417003 -0.1357595947129322 0.16750533611121182 0.08395428438521037 -0.3431547289821559 0.20353650100820528 -0.3071960562720094 -0.36999460673121454 -0.373547031144082 0.18027144736305897 0.012377935124001595 0.08613527512699108 -0.6584620936833174 0.010824851434000152 -0.09336183133057549 0.08997054073250862 0.32388953135373966 0.39007467148904384 0.39656345678431454 0.5185410726025139 0.2756230347204288 0.3320130712783945 0.09578053579381224 0.523676839568841 -0.18254307688202007 1.0826605557516409 0.40471898596108213 0.03708784810093449 0.3224263123636624 -0.6342777907916397 0.06257484242672964 -0.2713315847284474 -0.17684707707862046 -0.6562024077532529 0.13496127335575192 -0.15708547802839565 -0.8348176701494178 0.25174620660983393 0.293451324019954 -0.17771556066714028 -0.14456316715327128 -0.21205044585545463 0.219150773397522 0.24764354834914915 0.6693526334358328 0.04476532631260716 -0.4892665169701806 0.24988988982717691 -0.07573452811962486 0.1468027013225662 -0.17491670497269568 0.08052181161714456 0.027165214547895354 -0.042016836695559154 -0.37108020631460575 -0.08925932955524947 -0.25831998460920463 0.1935003045104442 0.18719285264508906 0.3528716321610804 -0.2995214572690028 0.6106628406639917 0.3256939465254494 0.19224960700439697 0.4619683986872155 0.1572968562736109 -0.16176275019230624 0.12847872134387534 -0.01857218497509401 -0.8608893977266138 0.1548483389977462 0.40548346780547573 -0.823202172621253 -0.5483189382853514 -0.8588531519036114 -0.3240753523423741 -0.23060402358436674 -0.8639914923309373 0.4367676257200171 -0.6017529579626031 -0.3927016230080834 -0.20567872784701424 0.11601540179251633 0.25188840861501144 0.5340925021087065 0.3861717750000563 -0.2680241408125984 -0.007430422954815732 0.09884180987271378 -0.17697932154320384 -0.14471304238360008 -0.0727786970986059 0.5197398433680842 1.117430305634266 -0.24687538036108764 -0.4034068997167323 -0.9583053090379586 -0.04939246996794399 -0.556959496586534 -0.01370362858557539 -0.34822441331079435 -1.1443460773668686 0.448054429240687 -0.14240453963252955 0.10462108913323048 -0.2365459266932116 -0.23867058510083627 -0.15596669453351103 -0.04654025433999516 -0.06098947021720743 0.5707834102896057 -0.27733185928451115 0.04945424832882146 -0.36148342231849345 0.2074607453407937 -0.2297019423790701 -0.2899316976757079 0.6153206344123785 0.6166155779507557 0.4436640926088264 -0.2591580259552648 -0.2696000879891368 -0.21939669347256285 0.5445204879678202 -0.30685473904539223 0.6359264390948718 -0.09911413352541057 0.40310880363067175 -0.2232143405504845 -0.6600498549686522 -0.024887993661396095 -0.3813760570800067 0.3112215019892994 -0.35216742380416594 0.682721345774246 0.13476135606177 0.41494756573444985 -1.030127514774221 0.1811094888805267 -0.0451425594318845 0.2591735912320665 -0.0995203151118518 0.3897584040763844 0.2547386928912217 -0.2535222900311031 0.6856851221818112 0.6067024986737874 -0.31318069567393353 -0.3053809073233936 -0.367905230192374 0.4254680609925412 0.22990973356855632 0.16798198968661224 -0.2781528746921775 -0.1451715233963755 -0.2609363206820795 -0.25288008023285696 -0.1843498895427078 0.1494565939677498 -0.18189116766725869 0.24879201529945577 0.14723866701036217 -0.8688550903050596 -0.10331739252282937 0.0482283107434809 -0.3732098098447839 0.44573676607940216 0.049930257711247844 -0.2982118622590599 0.10866562843087085 -0.4894740931129585 0.19129434398434034 -0.7256503948315136 0.22203409354841616 0.6344299764520904 -0.09114783024125368 0.016697298975645494 0.23243588860954456 -0.4100084641902136 -0.2342298336771261 0.3363168318212912 -0.26335653568841255 -0.009414705646915572 -0.21846504910191736 -0.5115680423076917 
, 0.2862719141578698 0.16976853750693371 -0.08769026745867897 -0.42117662950901275 -0.007868003048682605 0.07510596581547578 0.0589852029340488 -0.26458586098077785 -0.1454455935567393 0.04481498893083828 0.003688758302632519 0.05264642261876879 0.3691078726836512 0.06460046602163674 0.18180445981916293 0.24198290415071314 -0.036128883847491036 -0.2658222918321237 0.47039540338689556 -0.3529296249614861 -0.33918379040528096 -0.5377287215743506 0.15724303817340762 -0.09299779684449935 -0.16806808616823224 -0.08647454241007857 0.02712573869585514 -0.05749604203850492 -0.1470835006602311 0.22061481456454665 -0.0853741495696909 0.07553410279287451 0.29897291915601437 0.12393666367219637 -0.11359606756486901 -0.0664254208925208 0.04535327826401764 0.19406889221610693 0.3306833508848558 0.1313153790142376 -0.02156120442050603 0.1255137454788063 0.0985316725826986 -0.37288694868158834 -0.24157309908613891 0.024221778182115742 -0.06842626810607547 -0.07085033080148519 -0.08802241441689063 -0.008675022053809234 0.45653328742859417 -0.13719405796642095 -0.3328042477855882 0.07493165272728793 -0.2780144694794103 -0.1680277118641649 0.24479227481668156 -0.008928480460818917 -0.23290344129215163 0.3244226679444011 -0.07350970194555767 -0.07830486653888397 0.05636060721980858 0.26860332542644333 0.6258098413450024 0.07473570478496042 -0.12117549758854938 -0.12395299243075485 -0.15507727184135212 -0.03760189683893801 0.15351421663159553 0.1883619131639719 -0.024835377156270523 0.33401689793637196 0.01039149292301357 0.17400771429379672 0.18779637005565294 -0.13101326720951956 -0.06527301239950947 -0.18745889153915737 0.15457434390955405 -0.0674950118144036 0.15016925574549272 -0.0066877498709781505 -0.1333765400074925 0.011882989562504845 0.075838144546308 -0.20481445484458205 0.01267272141254697 0.060790679293444894 0.1431654959767501 -0.22754913500458307 0.15742639700201355 0.07610749955465862 0.19141545345965816 -0.2744285061898146 0.1674335167912772 -0.05931083219202391 -0.005215080627702581 0.15144999161695002 -0.023388903365259197 0.17224589227712966 -0.25542681715232146 -0.12312850768483087 -0.004961197630498874 0.03472571488819037 -0.2934806125994114 -0.5011259905547666 0.1539672587692005 -0.24215763296270776 -0.24067387949282643 -0.07808992335577579 0.09104530276351651 0.02915517345711749 0.013094427863406153 -0.16455414614241615 0.13426157592397575 -0.3187220808303738 0.16643271951214136 0.07128722084421837 -0.17286555442118315 0.019288662550691546 0.18409230628738593 0.3711246274485675 -0.23259688626570987 -0.09019562991163502 -0.02507167782877133 0.20258158161804302 -0.07369076619020351 0.2071073694874632 0.09447836981590732 -0.28736639852612156 0.024434277210312223 0.048894300869214896 -0.08846968435734616 0.059786411453888945 0.1973589563623409 -0.16021326510467715 -0.1173560676993428 0.07427707358777436 -0.061135917344557186 0.0665207668853581 -0.059777858236329466 -0.19534822951180836 -0.07915870409866424 0.061587587855392464 0.0684995386885599 0.15328951420731124 -0.1299021817436987 0.14820420963997485 0.18658392755367179 -0.2832886717181949 0.06642481580321465 -0.028802299787689566 -0.1648177759644171 -0.11569491717687595 0.04102202965701209 0.02170608740631787 -0.0854702042906194 0.24034850876383732 0.02832756190028777 -0.15194173682740209 0.3057487962409835 0.13316355935108384 0.014778129620475939 0.05608919105378559 0.2594917998883532 0.07798410163039177 0.05652788051317942 -0.08427343592123848 -0.10151029758136905 -0.05011934599365187 -0.25931135221128404 0.09907183476691275 -0.12319241758186811 0.17035352076897617 0.1943015281850196 0.08415631011949316 -0.1889873962839778 -0.08220968399545486 -0.1620789259750352 0.05037444487718275 0.06841798736737356 0.051662684061312386 0.08064938865659867 0.0642443139624776 0.40263193557845145 -0.18511278561847133 0.03898504741763024 0.33203562532244146 -0.333324530620723 -0.20553514575443302 -0.06199447083879129 -0.09766946547821531 -0.04406353831395391 0.18749304319348672 0.29893133175989517 0.3075973771928174 0.07195638817329204 0.188686710414277 
hear 0.26309650994764 0.3825314802596089 -0.3056089663996703 -0.17575048717025954 0.06885891139315128 -0.4340068867295721 -0.053121867440331066 -0.3847428266387869 -0.3285997345536984 -0.4731721766193852 0.28222808260117926 -0.28776177012339876 -0.39664223322016395 0.45737075841782865 0.04045433129873849 0.008417881080117767 -0.2004537172484398 -0.10595192523951732 0.18292559110607573 -0.38465001387259445 0.4656176548607864 0.19181590645850627 0.15120560068441571 -0.15506092408515385 -0.05441084624384569 -0.2562982127353646 -0.03477364611360569 -0.16249253028655478 0.015882429610499366 -0.15190511293977868 0.0022346906322691373 0.23567506010083283 -0.2914324543562256 0.1263244567948469 -0.2553299577153234 0.03572638949840345 0.5905396278610109 -0.050568394822301334 0.19668195978653805 0.08020551793128136 0.08991689198123139 0.3473025315620133 0.14943725699608018 -0.1057813748279791 -0.6789705735261042 0.6038297546110055 -0.5031058243942645 0.5017140712483001 -0.2256562175709631 0.4291296673201466 -0.06884014267821134 -0.30021637243552807 0.056173470044283656 -0.4945170632797866 0.08959058685834105 -0.07363528201234316 -0.016159941905256776 0.6471984185255263 -0.16572233179356943 0.01551636826221902 0.29507281747708924 -0.09955239219429199 0.1356711498457938 -0.1108528347224185 -0.2551066857342537 -0.030349660238580874 0.3913301029188333 -0.028577049769479824 0.22352477618703634 0.27353950449435693 -0.7418969303610944 0.1467124804704825 -0.10705018536764088 0.4216374019585098 0.12086822648844399 -0.26942294292758817 0.23846427469627 0.3020312066637182 -0.5118589272708822 -0.07877565032008939 -0.19503345065546415 0.3000382637388604 0.18623042131891607 -0.08207997068173353 -0.17701406413807907 -0.13364041763136486 -0.04564156638094671 -0.3843136544206518 -0.02384937243624368 -0.45448236071908504 -0.0034990020561475764 -0.16784125856526202 -0.5350005499959266 -0.11777469058183958 -0.5586262792524503 -0.30738603923067004 -0.13364000899374812 0.08411708606745535 0.04514267265533465 -0.016866472309545064 -0.5719904183358772 -0.04608801098823427 0.38059239273879003 -0.1269253501964653 0.14454307694061708 -0.2828814756714218 -0.3081394451669695 0.43051293299760907 -0.2909026474432216 0.45711993523601446 -0.033373628340234135 0.20025773687898593 -0.2971325820784485 -0.45472353624386325 -0.6071472511080335 -0.5665733601354932 -0.20387450505978164 0.48500697240302704 -0.008678101281999636 0.33512836065719687 0.7719189814113043 0.7251190203023506 -0.30773047121673286 -0.160811390883984 0.2594552612333378 0.25222131563848554 -0.4781059607968545 -0.29397638450314245 -0.6753238248875105 0.6243739877555731 -0.03989060999569688 0.042691337842898275 0.1547882381903815 0.36481270851456404 -0.052149836508884106 0.1494539355874858 -0.12942759185039804 -0.2134012788930048 0.2670046474690954 0.23253739976457918 0.2240335095001819 -0.1259318180903211 0.28651654816872146 -0.07549705514470217 0.030109431058337945 -0.1767598224170394 -0.11009310490032728 -0.2239708988170794 -0.2453478412365216 0.2122605589879754 -0.1209711481335003 0.37314774805509676 -0.8155790573459866 -0.3349955232498798 0.0847807860350507 -0.21125968062297779 0.3713476862522293 0.270868089953069 -0.41481342248778624 -0.24929697585117527 0.11713301845057955 0.21986147058293026 -0.04067121710059413 0.16524994204851068 -0.1014515773771532 -0.017684663336876537 0.23838313733508243 -0.005675662786766479 -0.34017800449299923 0.02847293271727495 0.37691633618226317 0.31372845733605664 -0.1769852094384673 0.26194563682209165 -0.2117160951130917 -0.13574600305450962 0.1825331827219192 0.220800497957325 0.09857411000891896 -0.28628292053555404 -0.27546406826577646 0.3346057518834253 -0.41264448534270204 0.10240048709951223 -0.21224699859031865 -0.17854975389541441 0.23000442441894048 -0.5178073287652594 0.16220802731384987 0.08896013301932934 0.2159283068260372 0.20995012958931775 -0.24400941068031284 0.23950112577873384 0.04023824284641761 -0.08681280015778226 0.5055850993967071 -0.16729129742972346 -0.18800516468147166 -0.3726174485640186 
me 0.07401034327588114 0.47633754239516124 -0.13337848696546523 0.41053426493170103 -0.15893212385160652 0.1460451117776998 -0.0770144435577557 -0.5500521327593806 -0.8023978611171684 -0.0993599013491262 0.29136623814484996 -0.24000520701013797 -0.07607702258789818 0.5080485731085889 -0.03190260049612191 0.5075100190881795 -0.2629801498438009 0.11874167338178407 -0.03017420726981488 0.07593851050536567 -0.02242982509638805 0.44469001189837 -0.2222537207862364 -0.6217587791924111 -0.19826956117618125 0.04492029634961844 -0.44338491171177574 -0.5394027429606802 0.11290697400918209 0.004432929211481362 0.6297081544512872 -0.2695737862540894 0.06305872824091482 0.1460121830514343 0.14379641472613922 0.3550298183539222 -0.5070293562541849 -0.11018923125459404 0.3286717352782879 0.37227191259993864 0.11778379016041962 0.4730723892595143 -0.4479065763147162 -0.4744997230603532 -0.0019203428923556887 -0.08869467621260606 -0.7755738587616677 0.48895971141414335 0.4402947092203551 0.6652321254009127 8.802850740347035e-05 -0.27946748858095033 0.33665855315613497 -0.7302110271202594 0.23930446208330924 -0.27077735392562285 -0.05459702815573391 0.13337374384317727 0.384043988004628 0.6839687616547788 0.04227636165533159 -0.2446825136129827 0.3482511298796126 0.06243229621851687 0.2637417518660585 0.09587726554482003 0.43057232198310125 -0.17934523030762933 0.2243036578277256 0.0816446328970365 0.28177116210885 -0.5260770983635761 -0.21359188005306573 0.2840909282378336 0.042161146310349396 -0.3176100877003369 0.06822057913298632 0.12188055821260045 0.5850436071764785 -0.1538456177128089 -0.37388423020452305 0.4599975157573906 -0.1856982014172385 -0.2749144997977664 -0.2542324108876649 0.2422735888309389 -0.19627184489226612 -0.09757616703077025 -0.18859020043259395 -0.03189445992236605 -0.8711593355901576 -0.16398451841395312 -0.6239563146729523 0.06689565424657135 -0.3462045873568945 0.30806610766301706 -0.04045883879810921 -0.14425635759291106 0.06358158979505335 -0.1942391124912048 -0.0732648866900932 -0.07089551251071889 0.38398334307979126 0.04633243299124053 -0.301975050251381 0.2701069506538834 -0.4900737113856374 0.07155736299456752 0.20946384520996714 0.3633765967924737 -0.28486370357200047 0.42820893524879106 -0.003819987055106838 -0.27267142872789907 -0.18413274623259693 -0.6508851029024564 0.029357534997031132 0.16726050598245779 -0.02461033785742006 0.10854131594562388 -0.11804518199892597 0.2373661719296381 0.204633000795861 0.19017463761914458 0.09535627124163425 -0.2839883996012238 0.09130635667079093 -0.3695189323567529 0.0072235378415586035 0.20067945441900914 -0.21179600557596903 -0.08245399184803759 0.1836132770551825 0.4484936233764502 0.08439494291876405 0.1437508398577429 -0.05252710597190553 -0.27497680863502055 -0.18123149141116435 0.28876240566882244 0.20612871959748216 0.3231876300089313 0.07322539532459661 -0.2199551514076977 0.01988267907604084 -0.16632090086585496 -0.21228580344633982 -0.15227766134508514 -0.14037808380123357 0.4435262818903465 -0.5736778886616407 0.3483573867591899 -0.6657910538769971 0.14842889988836522 -0.4993573037604417 -0.26736046856477197 -0.001627514908358503 -0.3246511213746438 -0.3586400648825714 0.2601968550902274 0.39459050657359696 0.2408160998799681 -0.14978056645355223 -0.014829383593888575 0.33538750210815854 -0.3351160021072523 0.13669224285069123 -0.7368984467216331 0.4142293255662267 0.24921838812763175 -0.4351356548769602 -0.23151577536337598 0.12434055750521875 0.4507765092602536 -0.11189604030934443 -0.003439481295646144 0.26942688039748636 -0.17029792108010763 -0.15206349095638916 0.00020114352989987483 1.00416898257419 0.24175802413373002 -0.4516793323369329 -0.4377764732605918 -0.03256594087051609 0.20928578021027944 0.21473262913574484 -0.3558091976170516 -0.24562508925601167 0.21770278943586144 -0.29099881435091207 0.10533063410011353 0.2814799604102963 0.13892472363075478 0.26260770090205143 -0.035498300968772226 0.01865048154914861 -0.09127875958330053 0.29188148296640054 -0.23541869235203902 
speak 0.46403652265036327 0.5864673459513905 -0.46272782717387023 0.2927068724110606 -0.24914114718718527 -0.10347809252343718 -0.5608406925279831 -0.8210388596542784 -0.2636686134374207 0.17106116950553127 -0.2882841473511881 -0.6531650625963843 -0.10756642540438567 0.645259302498161 0.07651390676935754 0.3411231787677903 -0.1636908703754609 -0.18568669951532918 0.07506376282218387 0.013591968683547324 0.2848958755439095 0.39322384218134987 -0.19455252456244296 -0.1759182571712091 0.0818562053145986 0.09524596930632831 -0.10540862848106433 -0.21385862079144927 -0.1483795700842048 -0.5414379328524519 0.12370782560957166 0.05112957853613827 -0.6781462767809692 0.0757527959680111 -0.09448108020395637 -0.24988158445706826 0.13624107236882138 0.06310242818455145 -0.15390860867295322 -0.48238196038040015 0.05259467404234787 0.27113832806384025 0.3090604177388379 -0.5079934714437432 -0.9750531562064665 -0.15620357406014956 -0.35311802922622976 0.1256737766207188 -0.22226716430712137 0.1636375047464304 0.3185984569415092 -0.5892925851747767 0.09091586734439716 -0.9096418679557249 -0.35274932584690116 -0.2673550581016605 0.36927334562603686 0.5853879294106347 -0.16978781394488748 0.1327591642124134 -0.24412941982402672 -0.40310875775943966 -0.03231442001037096 -0.22337351991213134 -0.16258392796427562 -0.23638407413246593 0.4575373882708601 -0.10296364094241646 0.3099211558476252 -0.03237573564242017 -0.16945534795915823 -0.06354999695883198 -0.6436300416356663 0.11085254124241666 -0.4027494311902117 -0.03946048634007065 0.18332780805410415 0.1857711015300956 0.013926883688795185 -0.38038315741739065 0.042395196334703636 0.04699655836114094 -0.0151544407220347 -0.11865488078481493 -0.07870475025629703 0.014439966068431585 0.25016914402622364 -0.2959070253391385 0.1312951398604599 -0.2110231465298691 -0.09610101036380128 -0.6129925332795471 -0.20102522691190444 -0.1454859277684629 -0.661632240648711 -0.30469382761731983 -0.19971942051664365 0.008421409572030152 0.28092101511914946 -0.682186659415939 -0.08729605017821251 -0.09629830277222 0.360034234088486 -0.10621474726918792 0.20268558308577525 -0.5410522124942274 0.11775294695620951 0.09501583041352588 0.0013643485826527676 0.3983895946500442 -0.3580259855367168 0.18044910286527774 -0.509829760838268 0.3042295341352481 -0.54939709612572 -0.3177974883114966 0.4462117149721433 0.9804895980207874 0.07448270787428969 -0.0880447678759075 0.20842142555260987 -0.1798952413691383 -0.16723197699993125 -0.43670241603781945 0.2538654599704662 0.0116363683662455 -0.5534057656097017 -0.33392392682739963 -0.37213095307719884 0.43484521427246936 0.4792252064171394 -0.1950226541914153 -0.08282749690856149 0.41197212422600993 -0.040998164508346244 -0.13550815810682587 -0.4993642658658042 -0.10739614859615021 0.15871378833478256 0.04567243626259933 0.19928984261901117 -0.16145013403967237 0.15163061029793576 -0.4592209980112536 -0.536281442167404 -0.21663707185225178 -0.14264051285338708 -0.11256112362196763 0.18787573882500372 0.45901607510419873 -0.0032959293850077093 0.3406513859255192 -0.839385464715663 -0.007122773194691949 -0.15875782152612977 0.28566750670439717 0.01706714555420006 0.7019455684573431 -0.11615548026613451 0.38074778142243515 0.03608742854828266 0.10868021938033265 0.6209038009172485 0.2622728686708631 0.2098038252254541 -0.0950842843700422 0.026290624074800296 -0.5165314948236563 -0.2450257320792817 -0.16018698196665263 0.4219647811285842 -0.05435868617439199 0.2270465368220213 0.7694832420391686 0.2461581837437579 0.02294620103287254 0.15378573455781092 -0.322786419336893 -0.21193803673742884 -0.18678973227797388 0.3984397815403408 0.01873086817859319 -0.12936469454830468 0.1285392232408412 -0.05914486431146661 -0.24418290785256336 0.36916432258956894 -0.7424915384700264 -0.2934886705172323 0.12630719454666547 -0.48560653884925636 -0.0013957254608642014 0.2078059333371084 0.4032723610052976 0.22620156357012694 -0.36232138303523403 0.01962711913337257 -0.4287554464162123 0.04828692136146751 0.10986226804332211 
