first -0.39766102937239606 -0.2274641349588354 -0.21933420757003227 0.4384878352165321 -0.3790327131453834 0.22131658044583621 0.12940852420868393 0.5032721037118058 -0.5208640834301652 -0.21556695240507817 0.17220188430170386 -0.2392613057645134 -0.18515294223038023 0.39112770251716383 0.1470075477137939 -0.4227774121952902 0.21399573223591153 0.3030875838252768 0.02619256679218275 0.08924202620676372 -0.3621493376512173 0.082963535125202 0.361049930848727 0.18485526279554595 -0.2531439804144974 0.0911960299150194 0.40608011266322064 0.08099489093561514 0.4334568709667089 0.055452150282645 0.2636643853452942 -0.4210816726370471 0.36444496288989137 -0.06887952770115963 0.17140021724436588 0.1508600074326171 0.12467066441167353 0.13204279668256944 -0.12809838678622065 0.047477126098419316 -0.0024316850416751298 0.28550445893659365 -0.18985441088180371 -0.13810982476670136 0.1660607103949277 0.3423316628731434 0.5205907952234786 -0.07725899908908812 -0.17347834325261838 -0.156937846129217 -0.049285418660284956 -0.22743762771393336 0.2427079039896837 0.37379828104797735 0.3964704357827354 -0.3438054632309247 0.45339479247712555 -0.1373663179118615 0.2363782254204822 0.0577245250877851 -0.4953950940503523 -0.39906812158201266 -0.002275959683804743 -0.3428915954922611 -0.03683227294162827 -0.10323896081047489 0.006574811808195372 0.268796738243027 0.41328478491652276 -0.09680864219077186 0.22792277164952374 -0.09835871957819574 -0.12295477563931916 0.34134148445558327 0.2457291390400268 0.25635021456562623 0.5609786915770293 0.1949623258286296 -0.25073476158272706 -0.3920170385603689 0.262934007972664 0.23419740501092373 0.013393231658637695 -0.5255838207337471 0.16916808383169346 0.33506501847234227 -0.07119274633058875 -0.3111043658122679 0.32405305182242394 -0.011934672156544727 0.12529724221137806 0.2638502886754068 0.28426165366750594 -0.22736189947742336 -0.06559871379567017 0.22306118039891973 0.025656647747507644 -0.15655663895710775 0.15992184035423446 0.28466053278134684 
c 0.02976127858361156 0.09018457472989297 -0.5760645833249413 -0.06695442925973663 0.24074541631019555 -0.48394673294262086 0.11151013631399717 -0.163743793736137 -0.020980571549700927 -0.13810219162238277 0.007705498088000889 -0.309314622362456 -0.37889600059125494 -0.006341604145935052 0.037821568699825746 0.4951051763075176 0.2081683345360041 0.3945586961792717 0.3574904324875624 -0.08804771564241878 -0.06516053331117455 0.029078218175184356 0.09154664032837614 0.6580441307583555 0.3249503503332547 -0.12121197867450104 -0.12515753095805351 0.11303498190307751 0.36549872561789726 -0.3683394121391432 0.04507821257624591 -0.08837953383587711 -0.029214171289410923 -0.32492807491600595 -0.7077385310804436 0.13453166275518721 0.06435110513782902 0.6819089057751341 0.7002093252039849 -0.1611850723915785 -0.4907762140331197 0.12346408780308571 0.6473619938815096 0.03890563868620219 0.5060003713801766 0.7836063183567076 -0.003564806066588485 -0.8241525682181529 0.027690847927005185 -0.09116242057054015 -0.20460262275140365 -0.2873230144933575 0.17501271369039464 -0.6852828356519518 -0.24341520887634668 -0.002215397969223796 0.07461721073584396 -0.037253778743723605 -0.07031261367148704 0.2368600246228774 0.0891343101271993 -0.43334352830393413 -0.3127334685043622 -0.24094735215018792 0.026923042844501213 -0.3259020533510449 -0.12432589658337298 0.6439133409216702 0.00016354203415746508 0.09731724427813843 0.1277921919347711 0.3304055509607336 -0.13733415419368455 -0.3794046483995169 0.07862349348476029 -0.02518229938898386 -0.09887387513584772 -0.24198982371353045 0.16581515543212313 -0.17141357248527506 0.43582060718751175 -0.1765283504216443 -0.0012641542948278982 -0.6766116816916419 -0.07611363828013536 -0.37885853996380175 0.13365368558651736 -0.07659465390373407 -0.03521140302726433 0.07155590095037528 -0.048189937003550475 -0.7730145229034718 0.03558990158859613 -0.021463043463024162 0.4676122596888738 -0.41627628625215984 -0.33021559111268484 -0.7653147889722699 -0.250812482449595 0.23579154510527078 
it -0.10967665805485659 -0.26847331735157415 0.5697124764396696 -0.4025032261741766 0.07427078523393608 0.3687064084046533 0.0010809284018645088 -0.29815214613697605 0.02803266916470993 -0.47961762185446305 0.11693281113174092 -0.5598697527279106 0.9465222967921465 -0.0173216076722688 0.07882246725823344 -0.4127385709151613 0.18885912980685537 -0.23627246520126696 0.11245357284926795 -0.07219159256648432 -0.121138160695249 0.6345617122034043 -0.006338604302223924 -0.5705753761687827 -0.03149276780075215 -0.24279181674788064 -0.4291541193041729 -0.12966056194467282 0.19034424007039466 -0.04907943941688753 0.19400290525475508 -0.413179903230095 -0.24772914924062556 0.5234379832549335 -0.27572853525015883 0.511678490177745 0.11067975569134189 -0.3685445263314179 0.7556423229748236 0.13354223755473438 0.6355513549579502 -0.02902738915065333 0.1760089531827887 0.08557674475664657 -0.37520487647191464 -0.1633528279561561 0.0023247963069970914 -0.012025695031357607 0.5811545033797402 0.25772345169896377 0.358932888945853 -0.9214690940972221 0.08652420790551967 0.43485520436802877 -0.2622579462355209 -0.0928456130496167 -0.030737382220555963 -0.38780846369543226 -0.15533365772520946 0.21002023176729678 -0.5546432013625759 -0.06091984011609991 -0.1204008006120532 -0.09543228317549106 -0.18590402163285494 -0.14055482048018478 -0.4390173497336952 -0.7099927311127403 -0.8647989359223787 0.24402942206350653 0.14727150051610383 0.010996594236471438 -0.16273394732555374 -0.02296477543558409 0.6135102082614207 -0.34934784629009746 0.2434587289032448 0.3836793579882657 0.4443050161780417 -0.014473090987460673 -0.031064641213399996 -1.1035758584033561 -0.06930820329105325 0.0857265534756405 -0.1406496124308193 0.6393755745801571 0.3603207904655049 0.43029410809968427 0.46069520292645577 0.1888081078065759 0.2491438653399072 -0.15089939544381797 -0.1649240950312588 -0.32900529367115405 -0.6051063293873761 -0.3255675835027201 0.05340684488436408 -0.23282150434764748 0.4899681911533014 -0.08593819084514105 
i 0.2079847167912081 0.18376658977942223 -0.3051303194045002 0.6346295069247053 -0.5994607931172566 0.5814349549649177 0.04220613425328208 -0.3503536646831341 0.3889719004447815 -0.17691561562086633 -0.22109495396779177 -0.12478370378452844 0.7848726435767535 0.5864327759159418 0.17584009110342624 -0.1258811882652511 0.0022234716339049436 0.17034283574730558 0.7529547748299319 0.09717110747028324 0.19580769947170268 -0.4576968601819062 -0.3098989645596416 0.14527636130211266 0.12310079004948192 -0.2665352382091326 0.08736484905529293 -0.2756655666840261 -0.23893756329711996 -0.1936605906271099 0.4775131628724573 -0.6954205159533853 -0.45398833141426265 0.36106871364816706 -0.4719659303379828 0.07442679833464899 -0.2177345924620266 -0.0005952497416875507 0.28295034256836993 -0.20699851202548966 -0.08378379065102184 -0.46863202752642624 -0.09532100664495341 0.07018166447712883 -0.2182727694975078 -0.14939124701385534 0.05208665478316931 -0.6659314984515164 -0.15987445025865116 0.15168466596252672 0.06985957657262423 -0.00706666048625592 -0.35189722343310015 -0.09041416509945943 -0.2491234882361003 -0.47103734494296057 0.1941430002221134 -0.3607616170901759 0.13374918853618284 0.6187757741643639 0.7008770973968302 0.1789029700603324 -0.18256125021915157 -0.5520058072206402 0.4269858618272032 -0.7859175429295537 -0.28680088318658015 -0.1805612181958535 0.22023108674715103 -0.08096621403859217 -0.558819403368197 -0.36844752312331064 0.6649160258011089 -0.26407623483665266 0.8630151789736413 -0.2386491648626075 -0.21509434466254895 -0.11395890885785641 0.37173657853628195 -0.21913277644361634 0.7825715745064559 0.5677677212837895 -0.585124341266034 -0.4111869226504752 -0.5900118241919836 0.2307035858868834 -0.27501138874532405 -0.5548967607656299 0.524800882587658 -0.43948536208297484 -0.0972869545432348 7.005839587254092e-05 0.7806874644291807 0.21267517681358789 0.9602356989956384 -0.19988463705507373 -0.37798157993567316 -0.12575321887282337 -0.02793634270806742 0.08513680683628694 
z 0.1629461951187132 0.4665749286770897 -0.35148745931034314 0.43549851434887793 0.6819543639231991 -0.17982794973155103 0.27928964206115775 1.0518890420907756 0.34438846958429264 -0.04089813101608771 0.3015786536417746 -0.23354732560589203 0.16874949958319316 0.3373000174713906 -0.634709695583935 -0.08461673108946538 -0.573466341409698 -0.03764413863216918 0.32238495488694396 0.06288303773433247 0.44980171362356297 0.14612547176968146 0.4767120369051761 -0.11693764596361023 -0.6802843381370396 0.015119692755713857 -0.9140501717535553 0.16007182773283013 -0.6691501222117714 -0.472710306179743 0.03323943069080592 -0.47783192077240594 -0.6984988934833436 0.061770422511672196 0.023012393643317877 -1.7922480082315262 0.6817588356732375 -0.8062001063365556 -0.06201618837351974 -0.04888074937015159 0.2561265841445065 -0.4892838960207063 -0.5547184646363993 0.44971142730948266 -0.15335573945889944 0.22402711978574993 -1.3423442625980282 0.32487034876741355 -0.24047327538283866 0.47131781864900374 -0.3347604238302319 0.16113635995067396 -0.643967920471699 -0.7743986854404861 -0.3864713164574061 0.207683782303377 -0.3738332125809779 -0.1664469302915755 -0.6021575771300264 -0.29833411652628766 0.23163420541342392 0.4166256785438807 -0.2309074749975677 -1.0080365411852334 -0.5126761478409246 0.8290904982881814 -0.48070609279730836 0.035751356899362284 -0.5168472900798059 0.12168424826959638 -0.570672030432976 -0.06186117416090371 0.7738681685959979 -0.5471554570849442 0.04917568642875574 0.1449050526180637 -0.3111147083219859 -0.19964715124057056 0.12085011150277669 -0.9136921759842371 -0.48810761106881806 0.8446181608274536 -0.09023233072379097 0.8416547556306403 -0.16727956830057192 -1.071168061820409 0.8417701285763394 0.21159202007701616 0.3506970348276253 0.131386784677641 -0.20317665106461452 0.33738720148239765 -0.695378613598571 0.352737480545931 0.33804033933629074 0.07482241876312558 -0.2555760032301245 -0.19735205346110393 -0.490129133125908 -0.004939590367863801 
en -0.08941525227328775 0.1097620235048743 -0.29782168447347457 0.04271437672977245 0.5117744219411627 0.07693185547441844 -0.4061412458213866 -0.2898284216165739 -0.07146727235114197 0.5299361252011888 -0.32676458223584626 0.11338441593588808 0.04183604784425125 -0.06586834768691424 -0.7501835782104991 -0.0027572566462930326 -0.12524457340403164 0.1933205015898719 0.4581001152764902 0.5609898966123972 0.5871171979931376 -0.3668487458734316 0.27932912453945297 -0.42860376589350224 0.832539572981064 0.49018546001294816 -0.07184785833296058 -0.556611663936819 0.602266355947252 0.08208854234357921 -0.4418827691315356 -0.3203232976397106 -0.5709445906364318 -0.008883859663395971 -0.13547007167288067 -0.5522611982986078 -0.31792801346169874 0.24649946719888108 -0.16596169465169655 0.25285100120727666 -0.6516871246213338 0.15959772855861132 0.30647386252609465 0.11287238032057742 -0.3031521455660925 -0.21321510290172965 0.21395606857873287 -0.32545727390640466 -0.44041139235329363 -0.6428582402868104 0.22457970392639232 0.6603613223923688 0.11950066074965894 -0.10169346119783482 -0.23839960889947137 -0.2350322130460122 0.7124039704129764 -0.13101536779574804 -0.19610543862900842 -0.07489727179859756 0.3660163105754866 0.6122439326435571 -0.14883151467038463 -0.0038671931024079793 -0.10946380154951332 0.7990901847745031 -0.390287432690052 -0.3811973540386604 -0.20728046152215204 0.005114047419689641 0.13795679720460596 -0.6846721069983429 0.30906377591143863 0.001749715059464023 0.48009331745602635 -0.3538279018395878 -0.12736124249743036 -0.5048782385607742 -0.03683263276842391 0.28899120758013214 0.012763662784611954 -0.0510995559524465 0.5230558114427044 0.2954976309944669 -0.358862984733723 0.19841434087611493 0.394997898844592 -0.03361930195534195 0.3572454644003431 0.2724285176166377 0.38846362674965007 0.40289320322124295 -0.3395512529739821 0.09587086202656808 -0.2144060700348738 0.0602152823795952 -0.36844028156455555 -0.30405914926292016 0.4363734331178101 0.23982574641644216 
: -0.3873273559233026 -0.36192181831349823 -0.20800417393502396 0.003985647749560754 0.17030293285919612 -0.20713762611428543 -0.23229489864133832 0.18820278523582154 0.08016638834803716 0.2653122990264145 0.15992986038190957 0.0794353109888568 -0.16697433381856452 -0.4635189836961699 -0.2836044334097766 0.08537184394729752 -0.37180111094612317 -0.2693680828147198 0.019304059906279702 -0.08315696106647563 -0.05298288426917139 0.18360319326104607 -0.06408633070090779 -0.014097312191617688 -0.0115045844511494 -0.20804021530034691 0.40687361342224326 0.1299886056771958 0.042226872561036743 0.09326208071167588 0.3019354873287932 -0.09346330556114367 0.16243473349787388 -0.09730787437975676 0.35259190050431916 -0.2066762365251817 -0.027043736355939492 -0.34679233982304924 -0.14274617390166106 0.10482811511706912 -0.11425233428763988 -0.4452160992359119 0.4990631062811948 -0.21932316411231031 -0.13953072184493046 0.593675346214864 -0.09457801237656567 0.6401239494071864 0.15259572795379212 0.0472621100734077 0.04705423733676603 0.03573382208834523 -0.4205223828474355 -0.07324968977472228 -0.406039662774346 0.033660974234876226 -0.6036754866360835 -0.10889736706636689 -0.4507232703840709 0.072531763957072 -0.3086234702291245 0.22644785370931292 0.5555778587947233 0.23083452755473105 0.19852206470453215 0.32926243229057495 -0.3589353114120959 0.6869724017697344 0.3327784405501074 -0.4051582492291016 -0.48906690586850854 -0.05793673523434252 -0.24325861158547152 -0.27311868427197256 0.19472611518722482 0.14530965530517456 -0.15981314389764367 0.33523890018090574 -0.23869921309465283 0.6344777082271366 0.03165633955093991 0.2969942964857274 0.09213056672128907 -0.11573526485886416 -0.013039071787065919 0.1743516680488377 -0.00525625203472925 -0.031423312740966235 -0.005686212350722322 -0.16135937815390936 -0.0954963628615936 0.19567459845183033 0.040966747362389914 -0.573293064293915 -0.14464868423085098 -0.0834591800775476 -0.2555151423132134 0.23937479353092347 0.4656134562326422 0.48132990192944797 
be 0.5181874256247072 0.5395761333006363 -0.3406026760197165 0.5739328234221169 -0.07580642235062118 -0.752280880457324 -0.2862633591182146 0.3744633207538779 0.1188943603927819 -0.05520004709344095 0.25824778435002793 0.6430921487292129 0.6077233719994923 0.21198293953844666 -0.1978785235354274 -0.09760223790329142 -0.12262251296272272 -0.48268844988592463 0.30697911044354 -0.06692837713436947 0.3567204221900669 -0.29192723367528894 -0.5513911033706783 0.0040736233250987346 -0.29629746617874564 -0.017288641105776145 0.4646705286115225 0.18902266804509663 0.018440013311798675 0.3173796231309263 -0.5696967111062514 -0.6012614269616756 0.5112053551283563 0.6153238800211741 0.7146538634178394 0.25515241171141967 -0.8272677028277121 -0.5244594793997366 0.028663412061502767 -0.049334510488509536 -0.715170471814414 -0.1639906882807044 -0.442224722433324 -0.29193078735684486 0.050801023976860635 -0.48574668824158934 0.08259276763588494 0.4536932334766049 -0.09300199952528167 0.6947332714528485 0.16650296878879983 -0.01037749536122988 0.003136729372046723 -0.4265187356630017 -0.8362981409990679 0.5529294440294963 0.650792107803136 0.5603579111087806 -0.29744915383661424 -0.3521380573927415 0.41638536878377225 1.1331877976270897 0.07606677622504629 -0.4272057404832768 0.020221435719982413 -0.4514121293707992 -0.06886138081703704 0.15957012085997407 0.6689369826600831 -0.4833103245824515 0.3899675080564226 0.36518094469434464 0.7387921668511099 0.3287098547304844 -0.1414462627015826 -0.21945695474540258 0.6822180030029525 -0.20739867495852018 -0.11927150075079491 0.13049566612433056 -0.23447528578734272 -0.08077269803926232 0.13967844298616736 -0.27731390650166204 0.4807842309137133 -0.29066222543888703 -0.4000330310105648 0.18504222849505175 -0.730368997702115 -0.10206457730690177 0.2307693094869705 0.41939798769065384 -0.7109267697635151 -0.09179549116814464 -0.21928221491253275 -0.003514522701394158 0.1413583011773619 0.21544442609150932 0.044166634669941085 -0.27152766512461973 
fore -0.39510742414477407 -0.0965842833325242 0.14146309185121117 -0.40042671623900805 -1.0518588344114572 0.5032324394339278 0.5168743853615055 -0.22885940229963983 -0.11524768032087306 -0.32215165053700523 0.18685841079701754 0.6106433107518332 -0.40932415303694375 -0.16001772698193834 0.03783438341421573 -0.4399773732481673 -0.29408024869248445 0.10647578075611153 0.48892361049817434 -0.36774848008161026 -0.2465889573127063 0.4469035519811387 -0.4924604882583541 0.0938247935229917 0.020657713632137094 0.00463322415421542 -0.24154900559380177 0.12072211474971428 -0.18613166411002663 0.4087439149377939 -0.10511434970947861 -0.7647136724653194 0.34258671389260364 0.5536166365434381 -0.05879093071978429 0.14715999817531594 -0.22136425080387415 -0.4551104589972945 0.15858492837072286 -0.4871367691636511 -0.4613332207608535 0.3526444795381012 -0.2010846544016765 -0.6299376106572033 0.23302948330758372 -0.3429995589015645 0.6551974424509827 0.09839274744599251 0.3759577239245909 0.4619686764617867 -0.23683330714783818 0.4405050599527497 0.27715247618080413 0.4849052846954658 -0.0758845014789532 0.6868806994318443 0.9282625227382496 0.04530115848175527 -0.30596755539759013 0.11318735123429205 -0.08254927225763965 0.20589768938038802 -0.0846570762146091 -0.07863987591235716 -0.07741285060096614 0.05252383542511918 0.038013082835596866 -0.10830858769343699 0.3526997345479093 -0.12446504778772469 0.09684605747138661 -0.40908620016940334 0.6175322113912194 -0.08282758099737395 -0.14043822587946805 -0.03453996048165983 -0.019027489719007702 -0.374146840670157 -0.6572955201810011 0.006115492043449865 -0.3672711539782899 0.1585366485829967 -0.23067616439210684 -0.38513590324710345 0.34395653115254593 0.051957539025342295 -0.24047797218217234 0.34114604405262156 0.2103817578021232 0.13195180652855057 -0.05276791024334105 0.15343020566736812 -0.05262091102653621 -0.5800743370354688 -0.28546253013435435 0.08083117588056946 -0.29711111783608757 -0.41144817480235407 0.06751886590212834 0.19175631580798794 
we 0.7084027398322172 0.0822617986651659 -0.5968026027451913 0.5357570163606786 -0.3728501720958841 -0.638765642833641 0.03836412894703564 -0.08429692238568005 -0.39516431435836674 0.30555201311302654 0.41690648665195945 0.3667656845111395 0.29523253246455783 0.2624012473508114 0.5582123317283514 0.44526810869206795 0.620966368541554 -0.7737303659920494 0.2860561423006642 0.3250953529104947 -0.3146052550107234 0.22222589196683923 0.4045887634092218 -0.2880863480831595 0.3888788051515417 0.11110422882401322 1.4657168648729497 0.6516311091690801 -0.41110738656461976 -0.18083973568992823 -0.49791109706109554 -0.43492270983598597 -0.46339742737399214 -0.4671218973465508 0.5592332710560891 0.015458679968475103 0.03201458738395956 0.06126536645540744 -0.426414992814717 0.16786492231809313 -0.43989305780523424 0.04202062357566064 -0.04006902341776166 -0.9382228150195697 -0.6639017375985597 0.1465120028192851 -0.0052000806851117826 0.9838218584515763 -0.023433723527432736 0.06192288114131014 -0.46922782818427516 -0.7102343475452313 -0.6683970425926524 0.38391762625116976 -0.3571823767909664 0.1427880825865892 0.6041999472649177 0.24425911314306592 -0.3345120497648725 -0.9296399915083218 0.6457370483440437 0.08771990282967465 0.35400252811850413 -0.12022132687965856 -0.7379937413411523 0.3256960732283406 -0.5366066521974397 -0.7693416741909277 -0.15488942934370423 0.13934302814866323 -0.020543598270039615 0.6904580115650809 0.9826074504886145 0.21382093072360345 0.0916306956584106 0.2436012615503893 0.8351821466499662 0.12756679423417844 0.23928604875758927 0.9605489327808503 -0.36063429862849217 0.1919532756718787 -0.026567838240952057 -0.700314134598544 -0.021911527175295927 0.09989869167653746 -0.3116897382309677 0.03215974328781198 0.1663943949006949 0.1996017140515467 -0.21190085541033996 -0.5957420569571542 0.1553246681385859 0.767123847375199 -0.7575018967800229 -0.32998890745981596 -0.02962292822816207 0.25292169963238176 -0.8305463463560772 -0.4465583760591585 
pro -0.47862226002351116 0.056935125226833985 -0.7924089304265106 0.3452172286177883 0.098308320810269 -0.2575223758893742 -0.09025384911409119 0.7058134775468332 0.38425290855043126 -0.2016137164071185 0.383822566525136 0.09996686730510367 -0.20865291536275218 -0.2619383856759183 -0.20421550182516507 0.14401185850544063 0.014277077410727531 -0.22090536463379715 -0.09669038843050945 -0.3948416462039707 -0.5237360104917386 0.09649988543780236 0.02734085874093308 0.34966045917899313 0.48210675841558837 -0.243379342665993 -0.6064695307184499 -0.4111762331946047 0.2664990027824482 -0.07307175176055236 -0.9724385842151757 0.47308496812798917 -0.16299145162530956 0.5290850268974718 -0.3959462418642495 -0.8992500941059636 0.04640516031351363 0.7565270390149835 0.031288806140715796 1.035579899049159 -0.3694904437835469 0.08052486189534153 0.048295657438923334 -0.1928211553148116 1.1280337486692136 0.014705458447427742 0.10105718634666265 -0.2405909715785229 -0.47143275302388693 -0.4368311695396904 0.19437135199945482 -0.10357859682839533 -0.40731356870076446 0.4398000713613723 0.1678223694728421 0.24815773761768817 -0.4281357172403784 0.4177923206699683 0.44319061201622534 0.18341790240436673 0.8262077190059288 0.09219604375214394 -0.19617877061978617 -0.9273118942348393 0.3522656566957204 -0.14536079573111252 0.32467082793501656 -0.19789449295618497 0.3789084921786516 -0.7811987757246003 -0.04788537578056165 1.6183645756598721 0.16780845196307553 -0.9937416507617368 -0.6043067493375688 -0.8935437287651854 0.46267683053654385 0.05550806866673614 0.263517150907244 0.13050732471969448 -0.1535643581220265 0.04655261376051341 0.13248397123507993 0.41591976224263644 -0.2675334162395841 0.6206815493028872 0.14458800375264833 0.16215433995233658 0.7993288008395256 0.5690858934375969 -0.14082974403370993 -0.0344746029252732 0.233907718382315 -0.31931179991405517 0.18922023854732903 0.14470783943499546 -0.10347575472667983 0.17769659854194214 0.6572095987480859 -0.4559424994154628 
ce -0.6729678241567771 -0.4246801893185935 -0.0004490223711036134 0.23754652737508827 -0.19684498689839297 -0.6456672212549291 -0.8633923120722875 0.03982278532834965 0.652989141140433 0.5471934547794703 0.060993897559142446 -0.26376720804540565 0.342894307623762 0.3236253145111125 -0.785352019402471 0.8570829277364165 0.5108265912061135 -1.253630275953079 1.1590816206199057 -0.4466709304827991 -0.04970691497770402 -0.21963769731541333 -0.3681231276135719 0.04686249109710112 -0.44548556502202385 0.5336220113694643 -0.2048205900917197 -0.5026601934391794 -1.1656120545762358 -0.11013855155163976 0.12719677499544463 0.2475127049371064 -0.009757944779903258 0.9611226583840101 0.20915982839108155 -0.2779584471538858 1.2695510664838294 0.07038522238454195 0.16768562776492127 0.5947409247795631 -0.42986239470651866 0.34335369815032074 -0.053743074853631535 -0.41841617959730903 -0.1634757343599736 -0.27421710245156405 0.48259588517868446 -0.4453784963840636 -1.2566618030899412 -1.15148623278772 0.599366061386322 0.4221666934126319 -0.6145884702076375 0.8313468163133089 0.34192320869150183 0.6287261567827577 0.11194754741204922 -0.6427083519383849 1.0411253292489935 -0.15671058903278742 -0.34739266663133334 0.495123062564342 0.24680550230256573 -0.2559992301286872 0.8387349618277767 0.18044847938185937 -0.3147681635182014 -0.18953462334593746 0.1030535514811119 -0.6528886363723839 -0.288243619497225 -0.7076905875996659 -0.13871545298396748 -0.9750737871692479 0.8895995687337732 0.10115312274226713 -0.1461349657229265 0.36834894935968876 -0.1242810416782826 -0.964207946417206 -0.18706161894523857 0.3095846371268932 -0.5700154138957122 -0.1500894167880627 0.1659077387743843 0.1583429631720962 -0.44369774682365587 -0.32743006606563074 -0.019677303500873516 0.05883843043420888 -0.501224531945882 0.17378880557137935 1.306107410867845 -0.6971690900132823 0.2268804962225332 -0.0774539142185002 -0.1455709482278184 0.8364624683550345 0.10741585589173121 -0.14544753880137104 
ed -0.6679960070827973 -0.6610034215192423 0.195340822656137 -0.5611515787708458 0.25336374068569223 0.10615687910357088 0.05139440371082017 0.5082929594100675 -0.01662404642277903 -0.22721408525749803 -0.7894375522006998 0.02331433001225583 0.02353310766311912 -0.6542072454590642 -1.0639536731852526 -0.13375298495615962 -0.16043862618263716 0.3096289521353091 -0.15170919751678025 -0.5853280536914964 0.277640735759661 0.03333923256375717 -0.5505677806993702 -0.2982346068732433 -0.4872780527274976 -0.3074349625840249 -0.5293607098732186 -0.21900622293740796 -0.014891767927939082 -0.5849727431358043 -0.14082529499680363 -0.06634437329307469 0.34621367097484007 0.11457746453597419 0.05123826575416979 -0.48501052160386837 0.011629450240305657 0.3744175488952959 -0.5886886648239484 0.09777689071533428 -0.29324498592038095 -0.3985541037474015 0.18661402260303517 -0.3364775933091716 -0.35840856790454956 0.11543409422217894 0.07632902428075153 -0.05290569176679577 0.31537565142013646 0.16504851480867422 0.6753529086281811 0.11507184397968494 -0.14497917380018216 0.22876382341916562 0.36547091555592476 0.17777535105578707 -0.2973917982379132 -0.2718034120910947 -0.5623440150005128 0.4458522302381468 -0.3534673113933935 -0.09020916974007914 0.5111915753668086 -0.713567388215168 -0.049678228120289145 -0.3796823891513664 -0.2704707862126186 -0.025237672298829478 -0.6818755485202099 -0.9331020137295459 -0.1777467497329351 -0.05799786486656537 0.16445072407036176 -0.042824728194929974 -0.7073282906904205 0.10441524041856892 0.09674393853979729 -0.01505038484170984 -0.22421161757340533 -0.46676781900697084 -0.5552097135884863 0.46939675908885115 -0.4065401427979156 -0.06826789174763209 0.2952378710222848 0.32346428493051615 0.10574170970052116 -0.038902555965312835 0.09658225223909428 0.5741170670120023 -0.0021844219105743024 -0.03766194413766975 0.31672842332865386 0.03949576355709286 -0.1245322455360954 0.12869658296332567 -0.1843874244983319 0.575546240341453 0.3750925934898687 -0.2692429119984327 
an -0.24031296304614796 -0.24020340487563374 0.2487719623479322 -0.15567430317181008 0.3835006133577864 0.6691282320771916 -0.14233089175976363 -1.0363778605867844 0.5034157368063452 0.4519292761269684 -0.13456070281671934 0.17107302405830738 0.17024012637122043 -0.07453739548848534 -0.21460086214389162 0.7448060711278287 0.2617215153807732 -0.7661973890524996 0.9564013446804217 -0.212180357256618 -0.26449260006723874 -0.4899152769379327 -0.6497373798548234 0.9247012016454088 -0.0674364063393003 -0.06147768950174487 -0.4765141222209479 -0.9416842097452216 -0.3993002283859076 0.7698111742186046 0.3579382448873065 0.5086270749447748 -0.758641315747598 0.9913108947249732 0.3356779105966906 0.7652640571092412 0.45877696673941815 0.39210706131363865 0.6899319642818642 -0.11806522750704335 0.24814468116820237 0.040784916115848835 0.08750814047692691 -1.4064644490827163 -0.3498250500319998 -0.5496489332526213 -0.07018805614705835 -1.0278917328517116 -0.7759577179333303 -0.971117805680127 -0.09733350484933136 -0.5912558674574617 -0.6199499813212234 0.6812569226281944 0.1742266345229662 0.4057928561114944 -0.01611729427487773 -0.15517094692220612 0.5354200595193211 -0.015174283211767253 -0.23291398897373222 0.079082933111702 0.35396286728283827 -0.480947686375132 1.0868839102151664 -0.40413161010885346 -0.19445454968055004 0.26992733331374086 0.16843180474474914 -0.4876955945732907 0.04813380576948999 -0.44155475827967405 0.4012369929812885 -0.27671169570729515 0.5007254796468628 0.0369832784934959 -1.310373097850686 -0.2172913406879612 -0.38940104643083673 0.19124137499708554 0.3411277591634928 -0.2905720924948967 -0.6621096541938463 0.40361850216865336 -0.4718903952973485 0.23461011062700884 -0.14414480235642568 0.11023115522161278 0.44827872315525147 -0.4907844272974989 -0.6366343571328216 0.33403342235567823 -0.3095976735797964 -0.6755084226635198 0.40233645700267334 0.23499049845161374 -0.17526490623108779 0.11535720722981802 0.38861333782500224 -0.5412358579845011 
y 7.891666974540329e-05 0.12618501340595523 -0.007469537145258744 0.4173693190619517 0.27740048102013576 0.5230662768030981 0.17556184828488408 0.2867790523069358 0.3000103921328692 0.44976328270939603 0.2669689399198534 0.04461595274492044 -0.33003785170610905 -0.2613337495324578 -0.4664270547243775 0.41256651482182777 -0.20740372997215228 0.02950355718667872 0.02453041830917868 0.37335628218307965 0.7108494547237654 0.2293395717263308 -0.2888974597670648 0.1824093920041476 0.33899974786407755 -0.023474551350881667 0.3079990357073189 -0.10482866640920993 0.06249260033854355 0.1775309223440736 0.1867117385317973 -0.5426791263839145 -0.0006877825965509871 -0.24264404088995084 0.20483908121969785 -0.27846310822206405 0.02511667264987929 -0.05353401777850553 0.5647485544272408 0.06731337118723954 0.1899701126673192 0.08021610693389582 0.0436375776690413 -0.47659653541278196 -0.3982241539868075 0.3686729997219518 0.08821522525209104 0.09347130495343725 -0.569801331027374 -0.379955977845491 0.33556903680686195 0.34289460198596317 0.0040639476454546845 -0.4363554390137517 -0.1555277043973265 -0.276048207702171 0.5354510051585522 0.10121621310548677 0.1548810072153358 0.42039398939993133 -0.19264673229219184 0.0017827835459472002 0.5571634268883279 0.017405652227775684 -0.6563879950415445 -0.2722528942731694 0.19532879454236562 0.06944406503465753 0.31205976765988264 -0.012080739473382764 -0.12604209210431103 0.09404263383791593 0.11584802633771475 -0.28908128868726696 -0.1782719905737006 0.9056011152218738 0.2888264510690046 0.20196226218406496 -0.5317357146672611 0.31806052592407796 0.34701108301902156 -0.3261440333203953 0.2985877746328798 -0.5191925863818219 0.05053257282714801 -0.0910697284205764 -0.09929927022488791 -0.07478468122215456 -0.11337503410623431 -0.30451929172280046 -0.3622786417668302 -0.4732864451616293 -0.5527940091106968 -0.6393029362315467 0.025347634134868402 0.624584716168612 0.26769359645318336 0.19000981327186062 -0.20203727369438515 0.45685113212219086 
f -0.1903159290935168 0.46356754137692585 -0.08339393156804636 -0.21814939334929007 0.09881026277419847 -0.5284333729609029 0.3702437193055537 0.33104332460667707 -0.030359770009514387 -0.09944993921726247 -0.4061734806634905 -0.6311624061324232 -0.483535927338841 -0.538818500406849 0.07499287830239199 0.1666359191285151 0.9133350274832592 -0.3555669229544717 0.4904940597703572 -0.4999878348311227 0.05881590735469595 -0.043334391652703794 -0.07416549371309428 -0.172306310500414 -0.14087023454346095 -0.6449415440850891 -0.44525234936980185 0.04041734149985035 -0.2872500591479906 -0.12415138232653769 0.5223465351172146 0.462416146210922 -0.10592771712828092 -1.0618912494030925 -0.019660585943287734 -0.1836782267009207 -0.19447971926009375 -0.5567614336158127 0.23923808526286694 -0.328298799928376 -0.10617242296244017 -0.2109980122601888 0.20361759428266005 0.4877419583401353 0.2972890051722559 0.11885336600477381 0.0893581243020241 0.2256540571147057 0.3476704656069204 0.6187465460506841 0.020051986024918773 0.10758420284100341 0.6261844532086372 0.4005882729926579 0.11239772652773715 -0.026451197601120694 -0.05506666413130393 0.7868698095468971 -0.18478987489615092 0.15700725597448523 -0.22381211397555387 -0.5194002244438547 0.0779121727408713 0.9799571779596045 0.06077262957673535 0.3024554752308376 -0.16529511297755156 -0.39541106300281137 0.09763760743184999 -0.5031441586088112 0.4478375114100257 0.19683875077673813 0.20989358426249988 -0.3900313720460521 -0.06217516864970145 0.43135379871234436 -0.3454493757634351 -0.03571920866513237 -0.17528818221196724 -0.48792280431190616 -0.1162173475407406 -0.08814951230737184 -0.2522550430683634 -0.5654430481990885 -0.12515614891670077 -0.06254714171877482 0.2005938674810475 0.7085408868844958 -0.35823142758848026 0.21324756264981592 0.8391133907041086 0.2271003151916769 -0.5594502997920963 -0.07492869069869465 -0.9418193457508692 -0.04251378758766207 -0.05037677050878448 0.7447442680381199 -0.6773380162395494 -0.39266382781659415 
ur 0.31562852976858236 -0.17934970078099433 0.37919755577118563 -0.41783830043241826 -0.4807320187116195 0.7888027824561061 0.035103154947667456 -1.128823126753245 0.6612797627967293 -0.41079040310993364 0.22526177113211576 -0.12768342989249232 -0.264268532686422 0.21784185145366378 0.1972988364097695 0.25567457773250823 -0.04395995605609025 0.3026157247941148 0.1848127481047272 1.0762813984382307 -0.7652038533878985 -0.8355522785204508 -0.04707766647303473 -0.5536785129992585 0.6427548440634662 0.0374322112639393 -0.04695985727399502 -0.05140667375141372 0.2966704232421985 0.47259851180970813 0.42495486588355236 -0.27605021135140506 -0.34818699200515363 0.07303456290228054 -0.5957568565910414 -0.09967791663856886 0.9670699592587964 0.5917989956156843 -0.1942700462534794 -0.0910551703336314 -0.036815712595369796 0.4109642557938092 -0.019401715535036182 0.43322025203469033 -0.2858760678474341 0.6043484597974327 0.28032193264533545 -0.044472392928133715 -0.5951044027385115 -0.520655593957932 0.2942445375835185 -0.48694585957535963 0.5898511721412306 -0.044763308039737416 -0.7709299114067528 -0.8130735309002343 -0.8079565906304677 -0.4526734913565505 0.003055719145094695 -0.13264054222586052 0.20562299518478078 -1.028826221823294 0.27671413365266884 0.13518761128497972 -0.19374318383587116 -0.7408470991136574 0.009483673454799793 -0.7962802596309371 0.07894509098256769 0.4288447091713477 0.13748458902276636 0.4683660606263354 0.47266825627146336 0.13516316030278042 -0.19297998534677532 0.03948176802432456 -0.2101435231897947 0.48297080774767986 -0.39667480155777046 0.5080613022483998 -0.13167002183085996 -0.7563205427411207 0.3752896105668725 -0.15419680815179765 -0.2903218283508015 0.4163446571296783 0.3977196675603618 0.016298953871102438 0.15913014678898363 0.2931123553891731 0.18827511397598223 0.02323522475021087 1.053750310260753 -0.5339991241166226 0.15988728445398945 0.45853983349844607 0.2602831719456235 -0.37925606452718397 1.098761189523746 0.7211846567274371 
ther 0.04090829627208561 -0.086245986477991 0.05712746252814791 -0.48138549091852273 0.19982445669477644 -0.16279020515858733 0.33136104044463843 -0.02387818132178239 -0.08139405000532016 0.1557955357392393 0.3835130431479104 0.5591262347710885 -0.2205439449534912 -0.2147157840895712 0.6682844829941144 0.43800261958734654 0.0022503520634074153 -0.0891701337817484 0.1634875311472335 -0.23382574327941585 -0.35610606100596454 -0.02379574838261491 -0.3848098972547923 -0.44312590457934115 -0.5109570213212162 -0.12717096232971148 -0.292373590467872 0.41678957800379285 0.17610834009933485 -0.2837353461404834 -0.40207071870573297 0.016393705540326042 0.8942605501486776 0.07944432038223866 0.6822327101151298 -0.019899455813314294 0.4357329655981029 -0.9090559619761878 -0.3113323789780339 -0.07985738538031055 0.08881797328700082 -0.26982335291558324 -0.4092317531664134 0.06516005470195743 -0.18131140439407772 -0.006173186546830266 -0.02638289174447017 0.432929914813796 -0.5335172944528741 0.6449621259965863 -0.01621977384311213 -0.2789041782028847 0.060525299256047105 0.21815938124025636 0.47334387459344135 0.607653818764635 -0.26949074086034464 0.2639071543555176 -0.4249910929510738 -0.22242055645040193 0.005946365955124329 -0.16155725691372402 -0.28826567870203146 -0.5797587407272752 0.3643820935624782 0.3726889665579846 -0.1808620806208704 0.35285091930043033 -0.3469583558109981 0.540620346644348 -0.20449408851772627 -0.6619000406706099 0.2911592898150379 -0.6736061514759362 -0.0010171971163601967 0.3115528373726932 0.2333428732825165 0.32843474055792654 1.1996289042220707 0.3346288238520711 -0.41537479035410035 0.5122257394287968 0.34449204000207634 0.1880929236110241 -0.09821641403745243 -0.22893024673859214 -0.28859887101746623 0.5040921438525211 -0.2771567967420339 -0.2302948700337041 -0.31464556843186975 -0.6394159205943114 -0.31154358834871015 -0.8481389317659916 0.1450731826346655 -0.29253590344198327 0.6745790355333194 0.7329363377031618 -1.0883598234394471 -0.5511969854086591 
, 0.02114369813602242 0.5453376777498985 0.08198217711198147 0.21962964761358292 0.5565393767835325 -0.1385342384967082 0.21863349961058548 0.05711023182516572 -0.6799149977025257 0.018403565604567868 -0.06997779210423953 -0.11123851342429483 0.4531935414147899 -0.007194566865886952 0.4172790739667504 -0.15613518121064918 -0.38690352453678506 0.38987612742643235 -0.24022425748664017 0.3203555621488594 -0.33633408124050446 0.06775234166570551 0.5339071302358529 0.2796964379928038 0.23293691437094816 -0.16738787936778576 0.3536055532844743 0.0061083230708697395 0.38153671263848327 0.1501129985499547 0.15414028111552475 -0.3249128342835572 0.5033006063044432 0.052232223456353866 0.004054572336313032 0.10893160356698854 0.12186019042267318 -0.5004171875971984 -0.5111155819603935 -0.3551198693948722 0.3416591689108561 0.03826558710266011 -0.22542899679125722 -0.17914055989956082 0.20957514246252876 -0.4459404998647493 -0.6173306077764951 -0.7801459270395671 0.3176924113349305 -0.1261916776611412 -0.27486632068046485 -0.2512673882554971 -0.1463500000701487 0.22655040893560618 0.015898523398137132 0.7848496123052231 -0.29260697484963893 0.47823520877211123 -0.5106106169789404 -0.04503265637032333 -0.16336117079761298 0.2950282856853687 0.036263740110131046 -0.3202016345377493 0.2174805331634755 0.318875423413698 -0.5747279452179286 -0.07071857238403795 0.21565268346977526 0.4703414719915074 0.1414365537971216 -0.26285010821686744 -0.08959538387388828 -0.07187390468984878 -0.2510982914277341 -0.058037265422658635 0.44855954448592156 0.34993602206076946 0.21860449811523622 0.21896393457598232 0.2333434163155501 -0.198913314398869 0.06298891595548055 0.20279320430003428 -0.3087982270188331 0.12018262987796496 -0.06301845697317923 -0.2821421720976498 -0.10113656336892225 0.21492443543087117 0.22153056469535326 0.225021282260276 0.31746043716810757 -0.14865341992439782 -0.10437954818451424 -0.5015846948948166 0.08610107170615965 -0.18174919168919862 -0.10563420494734853 0.6940680207866562 
hear 0.5413515138078585 0.10191542025272735 0.0036065512306671793 0.4090670089370259 -0.20814801967748395 0.5112840883746904 0.28513600234846603 -0.48287591090954274 -0.41781208352164373 -0.2623659346919207 -0.21490811228096202 0.5401377489537906 -0.4142149774570321 0.10118670118791431 0.4303519173279571 0.3547822494937631 0.5061533686199786 0.13743086022656553 0.48504856193610213 0.46744628837175883 -0.5372141239603949 0.12364545723379523 -0.2533451664046126 0.36215097073252 0.22605447101321274 0.34414312669996716 0.23120857112861606 0.22857491013857256 -0.022508216115113912 -0.45536461391483907 -0.6322703596206944 -0.6171559980115054 0.197965803626274 0.33664164164810895 0.19890250246260727 0.11740712891735157 0.26398913875175445 0.19627112754231968 -0.4287957093400527 -0.0013620768044874908 0.03161833249220347 -0.13293078178116796 0.02739661908528014 -0.22045593552309858 0.05155382591001552 -0.4458090764137498 -0.1953400852677017 0.26034230301420724 -0.41330591174592973 0.18768508608171108 0.2147492187181994 -0.09962238173983319 0.6995393195364724 -0.16540942869762626 0.02239049528367475 0.016368290887571694 0.10126891403408081 -0.048326056485131046 -0.3860927492625766 0.1371592969562866 -0.246848899274576 -0.5120423553397389 0.20076872682864752 0.3498524947392229 -0.2667298498883241 0.1987413195819937 -0.4813817303653025 -0.0741297088140733 0.3530283170650872 0.14900563022406518 -0.40082707379729493 0.7297127531181312 0.3529344043417738 0.19150417070516387 -0.14589009581871173 0.0637752129376937 -0.1733944817618654 -0.1500155324935077 0.20341676595758124 0.3055827414044294 -0.05400721077798504 0.3827601147437485 -0.39979589480692357 0.14078124429501787 -0.0799694804588722 0.3350725202875071 -0.586605985566525 -0.41286132811710585 0.34562436310376654 0.08746430294087454 0.23678102299732065 -0.6321072531432889 -0.5272618344986622 0.2034546657698277 -0.3811093931137679 -0.0335755011268927 -0.3777142437220528 -0.38993092015844516 -0.1685521619560877 -0.5558008761024045 
me 0.3078016988550788 0.29454259026850127 0.08681806530467354 -0.1638155457864928 0.2091793918206114 0.3473198114242609 -0.2962620751748452 -0.5870200063784462 0.25406886772680637 -0.1318200564367158 -0.5701744077455594 -0.14698404471206078 0.6958631366986417 0.9744221565812963 -0.10098705415334076 -0.3221867764158365 -0.00420860542909377 -0.7523602863697672 -0.5174715756045007 0.20534937034808454 0.6185515836224964 0.2596618491508832 -0.20102851923009857 -0.03618751672989101 -0.2596972713944919 0.22973829939705573 0.11304080217020221 -0.6543640095795933 -0.7609683463220945 -0.13550023036603664 -0.2228897834632094 0.7161633713255522 -0.0571795880888587 0.020469694487096055 0.42353021657760426 -0.04636432134316355 1.3108571465996885 -0.3036257975068405 0.3880269559459141 -0.4586954200356233 0.09137512581487475 0.22034725683653192 -0.26143424927028336 -0.016184000919547782 -0.1402871115255397 -0.32172635808789785 -0.1072992617142698 0.278399148342132 -0.13311562957894935 -0.40577353088316515 -0.0761933224321557 -0.025942424640889375 0.5536471089757055 0.13995938896035703 -0.09307526411231919 0.30905295595444665 0.2082485357649258 -0.6159312522216798 0.6536369067063342 0.746814485654341 -0.2970311803315245 -0.17453813997659892 0.5170706214322321 0.9008869666437738 0.24162807347708262 0.07419967052795462 0.38876835318987024 -0.10027117977142673 0.7355633742925776 -0.4689730580349913 0.3179419401765759 0.17538430091904098 -0.4037423231259427 0.4709805961068763 0.509030963915908 0.707230436565921 0.15742675899871073 0.3737268991479933 0.581274790192481 -0.018879271100620966 -0.10869438547591932 -0.09854828829227313 0.011397386780483701 -0.8494445100893259 0.009503936745943534 0.7706608806804822 -0.33549296840878834 -0.12383515047077709 -0.04577119917121679 0.2925818791652374 0.15590926610053354 0.7152641031248032 -0.009062404804510864 0.2958059343070258 0.220227941631518 0.14807242452782368 -0.09803811766733997 0.32106049717386276 -0.07517291347998759 -0.5994154705492641 
speak 0.41015249101316364 0.0011751199997686174 -0.11018895866551258 -0.3106318811591374 -0.5663749777697172 -0.1457273378798097 0.22610668061426462 -0.4461211626806147 0.1991332367190155 -0.3019893878780476 0.14098905649465326 -0.08952428872356324 -0.010821433119126235 -0.07785369486303562 -0.29949546361812046 -0.2910928198094959 0.33343770353261226 -0.296045610338864 -0.09361059571307989 0.31821688248791097 0.04970993190323936 -0.3202301870046235 0.18456959669301382 -0.1976777113685626 -0.20692375941564467 -0.30495914429660753 -0.3953618979979296 -0.24952716082945942 0.05626897204126552 0.20602545026084457 -0.14883279610261507 -0.12231180596632252 0.262195550945841 -0.25755904183849043 0.2784627465715431 0.17917880278775072 0.4647130416614454 0.09376657300855025 -0.287124506584417 -0.46396099576780214 -0.18510293788347715 0.46298241619094244 -0.34242724880963615 0.09857486608391636 0.16402117772363536 0.2545285173355454 0.347859121214975 -0.18418634106091547 0.1433824654776864 -0.34045873926951925 0.013857001198116538 -0.29201633243502995 0.4876429167260619 -0.24611250919231598 0.2165511768176065 0.4813619867688095 -0.1204943081633006 -0.3489541019420809 -0.22339869657804487 0.08242290573473782 0.2875009114021405 0.46160922654360204 -0.36751092890826575 0.5788500002195461 -0.021755320288756375 -0.05494005809260544 0.4783680061515498 0.12748408235144096 -0.13787991253632398 -0.06820495603987003 -0.12526193989215295 -0.18490768044645495 0.34207657980170403 0.27771742783965725 0.2448892748923697 -0.19797919484591273 -0.2648753272446399 0.17527655610207182 -0.2351409511160602 0.40681393735449756 -0.3692626250055038 -0.5542881182716204 -0.06243432294469073 0.37253886189354535 0.5295482900751992 0.039987769950681845 0.1038274299604818 0.19395556457528934 -0.10865169581913743 0.21603691167714792 0.2201082232470004 0.27625360753109196 0.03858357125077489 0.14813884513119124 0.028152662971018726 -0.03677524074774417 0.19901804847312254 0.44192070387645965 -0.5115027358928593 -0.6074454488613846 
. -0.4327900365624109 -0.26663016439223625 -0.36982744177067706 -0.08887181493146816 -0.026466168376290095 -0.030144716937705526 -0.05214356820236089 0.22726993392333694 -0.0006088025405278641 -0.01444368741906596 -0.415026056292047 -0.06378063894421647 -0.18446414065889524 0.3201242860519769 -0.3550179044678567 -0.05921296981714652 0.294668674832624 -0.22707021242658756 0.2791519257844353 -0.35374666331610416 0.01340104009254775 0.011561879999256341 -0.6023847088377166 0.10069605620400657 0.15338817419595335 0.00980782837740217 -0.15416894628899183 0.10647240765530494 -0.27463703695726266 -0.017016142787741953 0.17899784197612967 -0.29187528493851944 -0.16224215500496833 -0.4327114403443738 0.69457307976339 -0.31927132433081135 -0.40884735915573417 -0.16309224117632354 -0.22348612625342315 0.14987149475812592 -0.31322133835297195 -0.08452399381830254 0.09991312617966308 0.16332433109494868 0.1431399292942201 -0.10187622953541325 -0.44784754644976976 0.2053155466102201 -0.23681737845457285 0.33981295575716003 0.11236059084928054 0.017456510811575607 -0.29721059396429406 -0.12141748910982726 -0.17954838437966905 -0.02518925158138958 -0.3014778203515789 0.11198319519638489 0.2622279106275269 0.1182422612061999 -0.5077300951957306 0.22410188486021287 -0.19295439035057318 -0.08342041584206727 -0.02908754669786954 -0.20946857651767425 -0.18901778751708098 0.31053783942996127 -0.2458579539995931 0.0028513568050521215 0.25559642557046847 -0.1677371379211948 -0.13978315547434422 -0.18790158985704336 -0.03636159420438967 -0.18590586618191093 0.2215639973086262 -0.12311427583716941 0.17556427915713355 -0.5355076727672381 -0.03610763763892652 0.5636767543135142 0.4641916216323681 -0.05826609330866482 -0.016312837920300617 -0.1246343670610622 0.3332038821612191 0.25076348473776955 -0.32255878377344405 0.01833904006662232 0.08255694780240952 -0.0595350339118029 -0.32612559291719345 -0.09139239381424291 -0.026360422801284988 0.09060332107887037 -0.14594767061132052 0.6714634551091749 0.04708970174092601 0.06637796067375279 
a 1.011064600935713 -0.30847029810455334 -0.39876542413407845 0.2489337355753887 -0.23776026340127887 0.4778627062349827 0.4270609610779455 0.15583394191656535 0.1938804959916143 -0.2501122111092022 -0.47549781599831475 0.02337179080106771 -0.2190132650936395 -0.005445347113278445 0.3377709470902933 -0.279513612394644 0.04431642521019787 -0.5133955788438542 0.7320240619392022 0.5008053760525881 -0.25827585313043466 0.04721815092858811 -0.6251649538507517 0.23399406744033854 0.06718319715548986 0.10050598056600613 0.8840858759656092 -0.4046583156972051 0.27902916512155584 -0.2220496337942698 -0.22702123477724506 -0.17259034291581288 0.24829168074883048 0.6681928047524692 0.41860163982692783 -0.9282834983727434 -0.07500088357001825 -0.5870043555433903 -1.055055125079965 0.13555798296785346 0.38187683541686485 -0.20811892636522528 0.08974358810092686 -0.0571081993713311 0.2720260594785258 -0.30499911720850487 -0.5248950000788174 -0.22487922794408585 -0.3990011569769509 0.4277332575815329 0.22659277038311063 0.06555202312721156 -0.6402683175176035 0.03178393001060578 0.1959190031170278 -0.13057217182507036 -0.012375618992154504 -0.4509416139500094 0.5674867600073548 0.025183333450354256 -0.16119027181932905 0.41631399038383954 -0.723319302349732 -0.45467719535085216 -0.3806832621410551 -0.12049700346221143 0.19530753583678 0.4977657026324903 -1.1679939353895592 -0.5128372879636008 0.16366877172520014 -0.3425375052223985 0.12070900791205708 -0.6036057997107789 0.04250424579731108 -0.18482692054773928 0.20463014802464283 0.05749765922444436 0.35103361156034657 0.21557579990114828 -0.6419665196384721 0.08512295859703789 0.25597942687566433 0.3296004495366778 -0.14428823623145995 -0.499418592558322 -0.36777550239555723 0.08437029369444851 -0.15414060110367744 0.011349135459113063 -0.17106367018774626 0.25722522641984324 0.4118158127985805 -0.34286038694569054 -0.30063504438807814 -0.29296387382820527 -0.09234003724577304 -0.03006858736272757 -0.45741215904917254 -0.7742072386981833 
ll 0.5461678466196218 0.5136673861256079 -0.009785998655611486 -0.2884937398723732 -0.17810372480675013 -0.1698887658526762 0.6671081332051043 -0.0706211983699715 0.10529884921180224 0.9127403650373787 0.39356211828448995 -0.6187653900069465 -0.6456720613304686 -0.22516792348998393 0.5303236232409133 0.8046985868159066 -0.36864618902749324 -0.34032767883690535 0.20443127307542583 0.9147061681085631 0.6536401062109534 -0.5771974953024377 -0.24730686366731214 -0.585648534785793 -0.16195117770068673 0.2436827533306921 -0.10258432542536403 0.16877065990623882 -0.37394544293039317 -0.5167326144874985 0.14186260211741303 -0.36422626161911487 0.44171958465959266 0.3965746747120434 0.07754138685222597 -0.12732439597087739 -0.3766270983139896 0.3311254424933185 0.8101577442140329 -0.20543143610181613 0.48637315629634364 0.2527893056979159 -0.3234935606529919 0.7559154219911055 0.8629990343907542 0.762554608906239 -1.0369404025020532 -0.29028439773172254 -0.9639826870310302 -0.4022057429853782 -0.8528799594837573 0.45309685783774345 0.2683807424318774 0.22290860890383501 0.08211005577478887 0.7477621830617843 1.4939400317471996 0.41855477166758714 -0.356084845231142 0.09661769652884238 -0.362453045096643 0.6892271381826434 -0.08575092715036833 -0.026211185883562662 -0.24225195702228283 0.08474091239479722 0.02223307736430389 -0.010006424616767415 0.15411116733108107 -0.08408882072182433 0.07245350060824102 -0.14063134290823748 0.5660107572233228 0.13877904187616158 -0.6327065370381256 0.43625115884867965 0.11704346331437192 0.4965249841291385 0.05315364483621509 -0.25086656589266537 -0.4334056274289455 -0.40976321738858623 -0.3621413089312494 -0.19800070874654946 0.09902042601521613 -0.16181396961887398 0.05173480936852461 0.13450225758741075 -3.8406757831087324e-05 0.5295914397737959 -0.6007110008010099 -0.2191747536315544 -1.015840892632148 -0.7664104142060743 -0.7347173433000874 0.46309620887589387 0.12509948939376805 1.2165844361122495 0.1323830003241101 -0.5881117494759645 
s -0.3760312322656285 0.2603038590405174 0.24164044199786178 -0.03475381914759883 0.5151767448150768 -0.527364771600584 0.29238361367536647 -0.262757503866574 -0.0207790805352984 0.08515701655965946 0.0871694433066135 0.6529377625257621 -0.2991816268326241 -0.01407166206791391 0.017212819199430754 -0.21892237427965544 0.24105528980867696 0.49181793217456615 -0.17961317364836596 -0.040355252652598546 0.2649488214498647 -0.06865494200019268 0.11590637639457312 0.11262432772730871 0.23766385654391117 0.08575967612447455 -0.27453901669733183 0.41317799935545846 0.21792861940094335 0.03367860568005702 0.007161352754105168 -0.13405060636009297 0.061852128082451635 -0.2280624872114226 -0.09796991049119573 0.19111090288023536 -0.024396042258478925 0.4014370511114992 -0.07363955758027695 -0.18529985270911145 -0.5604390844697259 -0.11987429163328625 0.06967665980588018 0.028398491775702472 -0.4726033683400231 0.35441038053107876 0.20657485687582025 -0.4263707851545057 0.17710974775951055 -0.039061832483219955 -0.3291698268091939 -0.772704622203995 0.38668629288251855 -0.28425861041798595 -0.3139416776183578 -0.08725757663054794 -0.08416057632210457 -0.06731449648466829 -0.015759988708547674 -0.20891273576678304 0.07193287131158449 0.0961447312395072 0.2349750804181971 0.10826131514413664 -0.10506207772395806 -0.24098866123638957 -0.25731221728207615 0.3083007281311917 -0.04255427641529169 0.5804961903699533 0.4593490093355428 -0.1180480366107724 -0.453750203525995 -0.051822979581508846 -0.29476211696475546 -0.45893883534777086 -0.1365256312780523 -0.26841630901135666 0.20052849918906065 0.7704394850792883 0.05320367232802236 -0.4859309925857224 0.5216690529040964 0.2117163836105376 0.05631669377312985 -0.08828208476077297 0.4683556577754533 0.287544736837981 0.405099620083652 -0.3531476308386725 0.34589088839531495 0.056556965337948656 0.24174307621592486 -0.24960013733864753 0.2463458591033669 -0.30353889161969794 -0.2066526228639849 -0.19815263267497615 0.356388057562017 0.06807350229304868 
pe -0.6737379173606262 -0.5652758801827593 -0.6327578469635895 0.20143327664581875 -0.5489529642197213 0.3227364156996997 0.12294187127528189 0.644602709100835 0.7496987865047963 0.7704262534335672 -0.20281455167141 -0.230082684260065 0.2471550600985856 0.1539495975686623 -0.49031833126192187 -0.35792157742140646 -0.05073819311553968 -0.5457441653999597 -0.293019500751884 0.03011949420163842 0.3500913788882139 0.08952061256843016 -0.33060067676521826 -0.06353647304284134 0.7988980328443082 0.27278414445996324 1.2828971381791887 0.29463028270492786 0.10817633128949271 -0.5135372303320735 0.3760987983788496 0.2043720776705999 0.3425712298290679 -0.4912867864194185 -0.3411924370314429 -0.1621852930891875 0.06938470141932682 0.09928817789450198 -0.15612456816425851 0.3487795610810674 -0.04358249285159528 0.19093329783366686 0.16166655523836163 -0.44966262075567576 0.10516044792990524 0.1699065097871619 0.08887717830437758 -0.41249806803417 -0.6443418463103607 -0.34452088431600836 -0.13650410512300076 0.36695914201705326 -0.11699233077970894 -0.05698743109115234 -0.8640531490123353 0.09412470545212023 0.25831229439509384 -0.3007386916972025 0.7137694932808959 0.08364291601927448 1.1518520720287748 -0.11222553458737769 -0.2917081131469129 -0.5199778707093617 0.1914486167981474 -1.095716729906841 0.2889279086903497 -0.05653590188529001 0.47641725264247436 -0.6112088660325183 -0.45032690178416784 0.5392002419498226 0.5149100681660665 0.005510870643548323 -0.45769695729495596 0.04841459322349989 0.6527000467633137 0.042786573429543034 -0.32053695209377575 -0.21958173174111595 -0.7692858923084598 0.3386564174054501 0.013113397945041724 0.3042660281852935 0.23858284364892085 0.25642877414930304 -0.25468549676888463 -0.7234234174331284 0.5193186655061764 -0.1016256500927876 0.3380496683514656 -0.3940325251531764 0.13089666953815143 -0.03802294663007832 -0.13363314289837827 -0.7228215926922619 -0.04047748608781672 0.867826220974699 -0.6220917753788998 -0.3921498072143298 
ak -0.19349286862049717 -0.30117365287573766 0.006308259598321948 -0.0954250120152714 -0.08131358746233291 -0.12337748000631318 0.29575798932828395 0.22718838128696683 0.2312652046748492 -0.06615684926989583 0.11812950275250947 -0.11604158380739626 -0.2515416232235808 -0.22920863171094252 0.4332486403893177 -0.3644297806799312 0.3079018153874026 -0.3744542855929536 0.48434894429933434 0.28548500437906504 0.3295111018109362 0.33559521506680445 0.4598710744804519 -0.33728394244468063 -0.41313622329020805 0.66335365653699 -0.13073958779561065 0.654656413186566 0.272229527880894 -0.15860444473147017 -0.3472207031945301 -0.36841766178434215 0.3180133333567465 0.05272367192147587 0.31427482697915243 -0.10868394262961327 -0.18126371566778302 -0.11240441942632046 0.4015677109771307 0.0022361024017831174 0.5849722201914375 -0.7742983404185734 0.21576839575512408 -0.5022161743125546 0.19282968471258216 -0.06634101900591083 0.5241327296671056 -0.08302216944891765 -0.1899629377307329 0.3040136352339042 0.3982677871997164 -0.23006080952048721 0.24124017548120405 -0.013987868565000446 0.5841850975395271 -0.14437001355765033 0.15830861629338358 0.14258314175982534 -0.23136846995958796 -0.279508310586881 0.07068497299283497 0.1914374333585638 -0.24550093602546602 0.7086188779946329 -0.0605280759963345 0.049328755959428705 -0.9423258052072541 0.051153461118231866 -0.012536079838375902 -0.3380216550967762 -0.27919906937093586 0.2930072762040026 0.23072887883610244 -0.8854075835271051 -0.8147413951976082 -0.3116696696179371 0.11880519510974966 0.007653699683356205 0.5542610027823709 0.5652638731088692 -0.8329606675384622 0.5384725873461916 0.4060506561430297 0.4335088892091909 0.05824740477994852 -0.34467950656536206 0.37233596736908875 -0.6748832277309178 0.13426382627638755 0.236044992716029 0.16963580051414182 0.0052190190958154095 -0.22236783264735696 -0.2561622669330052 -0.42974691375526813 -0.19303976273193985 -0.17934634998576987 -0.3684356598898517 -0.5463856036883766 -0.6173894055107476 
you 0.33076211720176196 0.061428579263049225 0.4680208326543225 -0.16982577170040677 -0.6824114873361528 0.08206822483333526 0.09383946108797411 -0.7056109465787204 0.12289161296006196 -0.47077358600965347 0.3914075226616972 0.7762208120740743 -0.7353054084793381 0.4713828171880145 0.44372235901094104 0.39695280992258114 -0.12974105414027748 -0.1130437760738497 0.2539467380141993 0.061410928454264935 0.20421155402624608 -0.21927868278665105 0.10094360075196034 0.5667630871160857 -0.49420283311071633 0.5517031559070217 -0.8247196129538553 0.24866774997733712 -0.09100405610747729 -0.24679883864100519 0.4993594812623313 -0.14535499563527732 0.23763551990823717 0.4826371613346698 -0.01756343303473326 -0.6042601371129571 -0.1401906697658177 -0.26857955991869975 -0.22090050235894607 0.024770876005066444 -0.32390950072763214 -0.20171168220200916 -0.2839863079277514 -0.2599824583274718 -0.25613755304713404 0.13499252948899734 -0.021135591983006283 1.0298177203165109 -0.07163464662623356 -0.16523674446603007 -0.030860169018751243 0.4301358720023807 -0.05759406257573509 0.37456762397320215 -0.12945796803129805 0.20618506301632286 -0.10207246340477735 0.3766797269752756 -0.2318217689659971 -0.09546177160608785 -0.0341206070649641 -0.1250255558147855 0.08354599876300899 0.11248344308156029 0.5784501053445548 0.0458716718204011 -0.14538414997721427 -0.2742443197728449 -0.19631879149017606 0.022636575466162934 -0.9183207077870692 -0.19675973744298386 0.5511742382053406 0.5702906749940644 -0.35287353509109165 0.2992696613221878 0.18233237742378774 -0.006536491822587337 0.1979543845115991 0.15497548599574754 -0.402579654218162 -0.33197241069371536 0.31157569951340286 -0.4681940959369083 0.21991046517629384 0.04433674987630232 -0.3011976470634109 0.03546505944181965 -0.15107831446322412 0.46592984783485747 0.7212610184665356 0.294498798162074 0.09650424458872009 0.20055622324554462 0.5383886673616841 -0.5182383891234288 0.11911089757659651 -0.1741515286330264 -0.015319045552219544 -0.20709284823790713 
are -0.5385059822307461 -0.3593546695517347 -0.3645501803230408 0.4202626196974098 -0.971649516764636 0.05629536195039921 -0.013447977478962661 -0.18328788835215606 0.015171469673394306 0.5835823427568937 -0.9670180929237985 -0.05699591121258771 -0.42625094009359776 0.20981870032483607 0.7145978453878331 -0.1616960320810729 0.3343520679530182 -0.14855253105009408 -0.18624039647390606 0.4200913697750926 -0.5350911709860235 0.20604073182002922 0.36053088591237326 -0.013182840917909312 0.1658566323350497 -0.6120460136574644 -0.43150765351669856 0.004484542215071274 0.049223056240400964 -0.900058734507779 -0.031103618495335092 0.08964950277429515 -0.012255273157711362 -0.1974952266684018 0.5935692407171073 -0.36819983395153105 -0.04734543313987572 0.8292688193096655 -0.03889243131892811 0.004231923466240201 0.506716737070134 -0.11483992127161587 -0.18263435836095934 0.4354995837139425 0.41089993583535867 -0.1250386620188359 0.18657502810584625 0.1751403296568423 -0.17710111355528488 -0.148843084099039 -0.10308468469762253 0.009306739540758308 0.5179952893583547 0.08700398556003622 0.38759478253388263 0.8242860035684264 0.2911409446973926 0.618657176961222 0.223859672724858 0.17165041645551826 -0.7568912083622326 0.08350618240445254 0.1600179866431826 -0.3049020883540086 -0.5607200270378169 0.03841346026763513 0.448080659579739 0.33192220606048456 -0.010772367105172834 -0.9456125259612793 0.041822359427404816 0.8016947814842829 0.29071597009156824 0.016082473834974558 0.28234173218031067 0.2774622385314616 -0.12617047393603886 -0.18213612925833683 0.9816841188873752 0.22234411916698 -0.6050886680426839 -0.5110939573833944 0.3147084649900589 -0.1738450279283298 0.21078136983458437 0.1017337131886899 -0.3326438481799503 -0.37213785344488526 -0.036833821127815525 0.005170531562877205 0.7613524756683624 -0.17816631597239127 -0.22467885710863666 -0.33130273421045675 0.40579329950604026 -0.29149239224687395 -0.27426494275610586 0.053688102749064354 -1.1481091840873092 -0.04301169867917701 
all 0.3943938163618573 -0.25549277312407553 0.22494221042287826 0.4138043237562249 -0.01915646842886036 1.1353611108807256 0.27340381875803366 -0.2204341770004694 -0.2519270284712789 0.35698470124945847 -0.06530133925276202 0.883942481947437 0.6081542560568969 0.23455375900860084 0.06032044464445798 -0.05992548687409718 0.08806393212451759 -0.3630279492603624 -0.07996226109042176 -0.4352327225828605 -0.17069375143190252 -0.10763231781631838 0.32516589116657835 -0.10912274497066295 -0.6266042934093842 -0.20479526071096127 -0.8737208860720861 -0.18650458960177982 0.7612547501686014 -0.5263462957816003 0.2693907427932398 -0.6835922372571926 -0.36644387725049554 -0.10135405848834893 -0.4688136555788901 0.0644432151120126 -0.13362686535123264 -0.08310350318261618 0.41637974060841737 0.06863343459751488 0.6266659234841376 -0.23573967731873113 -0.37794693392539247 -0.013932176137148491 -0.5673607098048314 0.748339678647007 0.6186350572241572 -0.007181674824519209 0.17495607802443658 0.053310644275659694 -0.1386462595722105 0.07167666332754917 0.5973297750431202 -0.270983832762443 -0.18658059580001224 0.1939249141441814 0.8487714100847537 0.03122257255466747 0.12246926894246027 0.04458938494633653 0.09925066925787245 -0.20784029667940174 0.43122433472298494 -0.04143327798195194 0.3604500225436621 -0.6924770278522675 0.22720846540640563 -0.4485879797079324 0.053815230422861064 -0.1906486099912164 0.8104616967288458 -0.04112647741855929 0.48188294115593927 0.4085664898457455 -0.4373493850019398 0.25297306330936564 -0.6057754908918942 -0.34430218026738674 -0.3177906894093412 -0.23875405610501957 -0.8085487355928858 -0.061749310040289995 0.014185433671598389 -0.009861589627285644 -0.6207318075120032 0.08122421839363984 -0.035375536352290224 0.16763261751068936 -0.505425875894591 -0.24415224857428622 -0.0009393539097274119 0.4844055421454039 -0.4698906041635217 -0.0745821786609836 0.06988503859844228 0.30310440003850375 0.2502624224804922 -0.29040167309474085 -0.013802120754962375 0.1570505212834649 
r 0.16736237448284166 -0.13994719558717672 0.15498270078055787 -0.337582351897773 0.5496151936135825 0.3816312900574269 -0.21938456964134084 0.21563993187559777 -0.17631523832319398 -0.01617905432864793 -0.08935728891115953 0.4646399907569743 -0.16663652107461832 0.6334417344068779 0.12825124935675605 -0.07087120564895283 0.27355543700798696 0.703935431474671 0.04362127928939484 -0.12685823543422511 -0.15266171892042604 0.22689606247227453 0.6184800010556408 -0.18523114027855203 0.5706488342480025 -0.15633689821594243 0.5784109496634443 0.2544463750942878 -0.4509927783340738 -0.1544190782832956 -0.6672347042292232 -0.05293851669988013 0.01689007849456644 -0.008435290237134619 -0.6169916173666461 0.2987815654400534 -0.4511267941374892 0.37161672696368747 -0.17710983357841942 0.48456643845432423 -0.031252843303329364 -0.29589472878256473 -0.10083741353615885 -0.3589264530000869 -0.8389526837996654 -0.48360644502388217 0.5446506130017071 0.0029287493786826005 0.05522451978060596 0.33549955924292374 0.3530962362543268 -0.9364895529020892 0.12007867167365292 0.1071096679170546 -0.6824229316787459 -1.02889722290631 0.5404361055154986 0.5517171419503184 -0.32488686154273194 -0.28592904164964983 -0.18870952533218738 -0.5487113513671027 -0.4959731028059428 0.45857336244241337 -0.43807044454336824 0.24923110334759985 -0.26109988073693785 -0.325361212547386 0.02920531194721333 0.14051321855977247 0.5386177184127768 0.21181227373268946 1.0513234273332577 0.13071011151714126 -0.11277765576247831 -0.44566523119512136 -0.08241480587760393 -0.3937830837358112 -0.7500612617699364 -0.36946219762603355 -0.20606639023618978 0.8117247871602458 0.20872152867304425 -0.3204791669280409 0.2078804679642737 0.08383590884702012 0.27776729849976156 -0.15888410807649578 -0.9942400207785783 0.16153995557534276 0.9281716459453188 0.36051013151306105 -0.5925827915770479 0.274565101146513 -0.007953975008307041 -0.13908288698356036 -0.2955860074384727 -0.386820305412119 0.3113464056570641 -0.07955768719228021 
es -0.44620266016594934 -0.4724039938364984 0.2661687622353118 -0.5877497677758424 0.26790273144148913 0.32130257175327415 0.25089635441032426 -0.43213811732963336 0.2925846898121897 -0.41980112682060533 0.2953963680095667 -0.8935978801559863 -0.23673178883686696 0.38892631134189537 -0.04188053562324635 -0.27269880672380764 -0.1738020883778447 0.7564614195596293 0.8068951186700355 -0.03295306454676447 -0.6531385012038233 0.06632974484169335 -0.3119685760586499 0.49648766769802727 0.46144020085489895 -0.35189924643173853 -0.1660447575195368 0.2582049054086917 -0.14514223259240552 -0.3513412872666016 0.7259566205999113 -0.12601397843968615 0.1099607719621554 -0.5582349440015713 -0.5744636412241398 -0.11183117031750081 -0.39595933852915843 1.2189859758727488 -0.3243392657376614 0.2511914920888149 0.023046647075258497 0.02905496745610721 0.2401084309849716 0.44097958300656126 -0.6920804493957725 0.2877199404565758 0.48573194229374606 0.11126853702684575 -0.19899575081417276 0.08456675936583954 0.08110643780375835 -0.9248613462736885 -0.059815599487833736 -0.3031460493477102 -0.6107419668119343 -1.008217276382564 0.28885770781385295 -0.3566956131159617 0.6582639280475955 0.2675031408581336 -0.23861479509056732 0.5872055953995217 -0.4706370220608867 0.09397855055106855 -0.020441119226050825 -0.3141456545301117 -0.4528501394837527 -0.10574169103376814 -0.021695203091353227 -0.6950841299574502 -0.18198102124092885 -0.5254863352086323 0.6406969154328408 0.006093403585761166 0.4493168611794238 0.32221483659405886 -0.1494645496936825 -0.7195580291918686 0.23058633850976953 -0.45248830026481357 0.09842989756883713 0.15932235558832394 0.07498281876328192 -0.19836597612166396 0.48496792639458763 0.3774305683748883 0.5913320928241401 0.04632065126166877 0.24161085279643457 -0.15264568406830886 0.033950188215311074 -0.0614236973291248 -0.40677971512651123 0.20371112306680983 0.6973561407065902 0.26092421668415666 -0.1541118028277586 -0.43383816501264916 -0.1424322366039651 0.16377842478822632 
ol 0.2860415475911423 -0.26310458665098796 -0.864997040321424 -0.39785493656998383 0.49920269019429603 0.11600893197215767 0.1921978501758393 -0.23477343280185325 0.5212128742342282 0.5444403147114474 -0.25063735855941804 0.4706538024050302 -0.4966420139597644 1.1003771827906945 0.2449564322355071 -0.15711656011433703 -0.6668757172233665 0.3339346068341002 1.2914852253325169 -0.29555852132676924 -0.08843055708122755 0.9278616541203962 0.5385556580757747 0.18498132476103896 0.3178994111464004 -0.18130646775258208 -0.4078549742711203 -0.6003325072286048 0.31280566765605705 0.13673905766467892 0.12212013745136781 0.232568310830188 -1.1675909148826005 0.276538475522098 -0.12378958672882678 0.1618558506401291 -0.8076921625108452 0.8341392391509047 0.4367340268644485 -0.3366995299721583 0.015305119971993082 0.47224050346331 -0.05062142505341728 0.37781716121568615 0.009430217881347337 0.2859591098431346 0.37332557472601163 -0.14524305017414454 0.013745729641369595 -0.22833301813972692 0.31001238741686055 -0.01710280395403278 -0.3938173046313882 0.11991110784237508 -0.12687143764288106 0.17252831719018316 0.416737887561338 0.5940856830892515 0.6340778186100692 0.10531530999339245 0.1254949273731088 -0.7597639764359456 -1.3365113043017394 0.02896208698766263 -0.25231566925040605 -0.26865316220191027 -0.6357109617865281 -0.016076605283501088 -0.8046621500351924 -0.12333955503734308 0.16223030193082566 -0.7002092737560833 0.16213057042143766 0.05492032849622711 0.11993994173245798 0.712993945346567 -0.3616895285132464 0.06495190999344985 0.3292215783380643 0.44987138894345907 0.029586954555610015 -0.3026694739719751 0.03945753890021811 0.2137852268584413 -0.9875714950357378 -0.4047012974534781 -0.750518563270215 0.7612904155637495 -0.05271355455362448 0.2639214422943598 0.14642822403193556 -0.2889188200994827 -1.0620245810444513 -1.0279327474806936 0.21231101691016063 0.11297694938808484 -0.5767863886087448 0.25267086116478416 0.134738270789592 -0.548501289737281 
ve -0.5654302569586467 0.8879810988898831 -0.9489595839787752 -0.5632147873352008 0.33532822413291674 0.12043321528150708 -1.184679715140742 0.19770800555210033 -0.023425931858006878 0.44337379052524606 0.2062223069656704 -0.6856587410136477 0.21646742674025737 -0.4055983195709081 0.5680397508603905 0.5048452429973823 -0.3540818409764609 -0.8554346795739136 0.7127408228006676 0.5259148818514655 0.02533660913989961 0.5081284439430843 -0.11847867802663545 0.02074047533418171 -0.3229008661140907 0.3220088013431369 0.8641260437401282 0.5499996564837537 0.4882252141444312 -0.8248461563847207 0.2775373840558122 0.6966694582844846 0.9017521990790439 0.5978282203052598 1.242907970568753 0.5723098080539563 0.011292842566849282 0.11198005632456966 -0.7931394636574909 0.5431141931330941 -0.6886400900271525 0.3218012735436402 0.43252575117980113 0.34796863358185975 1.137170172257071 0.06901940443976404 0.21688566673952883 1.0901478284820858 -0.5172130494109219 -0.32925345585345894 -0.41667023087723204 0.39554998293683336 -0.3131876861521743 0.1098269749223797 0.5339195322221916 0.05981880087957844 0.5431235262680781 0.6341748116991959 0.9606295491016156 0.06673283186128758 0.15193123183582743 0.14004019964932177 -0.0035305944646516737 -0.013119851107800652 0.03792941979780208 0.17741745263473543 0.336770540084506 0.5714285255569179 0.5115621124311212 -0.028711982398621515 0.16712168278127063 0.11539834050954667 -0.216081416463296 -0.47178797094810154 0.18023257130909895 0.5276569803590985 1.5684838256799811 -0.2602211417008953 -0.23783453382507933 -0.2778105684122558 -0.1621589148284772 0.2936869218816911 0.3632781248865447 0.26251243626815657 0.3317849936131823 0.37306173508343365 0.5562942497464802 0.41027344289074136 0.13929797108169775 0.40901291575827214 -0.15364969541474302 -0.3991213493096508 -0.3711572996817518 0.3385903586688861 -0.10332963090594369 0.5912547597365642 -0.23973398537304938 0.18907623852797348 -0.8637598970514618 -0.22699317014625256 
d 0.28074989083925334 -0.06813736402967904 -0.3766986256184913 -0.11868424972749553 0.15624590872204097 0.21746551191178615 -0.21542210906424777 -0.0634551390141497 -0.23700367771887476 -0.19585744721450218 -0.03878630565426851 0.1789171432798824 -0.08156040125000834 0.04820825984462511 0.22884936068287232 0.11219719711344173 -0.2740431204020646 -0.7017042534192149 0.8876116176440688 0.03768431125688519 -0.2908255218546668 -0.19414215342107896 -0.35190689056798846 0.14247783493503574 -0.2080715666427939 0.35695585994703466 0.3837646538637148 -0.3686563499861353 -0.34556670077369556 0.5783906289543886 0.03072864904758557 0.762208871740962 -0.1925483385977094 0.9574728531343676 0.4696235222750784 -0.18922423381346345 0.07358774941031601 -0.15094386397821113 -0.3680920261630005 0.5784989501230156 0.15570836676591415 0.188167301200856 0.54404339689562 0.460341683993592 0.10747101696214897 0.19213957708636964 -0.07629773106547474 0.9741815421244533 -0.007858946413599 0.04082407848672205 0.6767827268612473 0.1854015245949648 0.13656456133465814 -0.2221215292591255 0.12949059765099394 -0.028192959719159895 0.3947319142309376 -0.19542938197918197 -0.09937252334306966 0.44972797992751307 -0.8937381603295866 0.1293952578319773 -0.021515475964249506 0.21764994024945344 -0.21575430835975135 0.08980891463728435 0.0378110833877745 0.7789127528665981 0.4157236399623875 0.06429593418658992 0.7813983892965577 -0.35797857689538015 -0.04074615943235325 -0.0033990152706552825 0.8465075044144822 0.19857827075511666 -0.15537973898378804 0.7187937945976343 -0.09171406136776107 -0.6796527102770714 0.11837898756734201 0.497704749327688 0.4469915851581851 -0.6112397131947912 0.13728371555654997 -0.08947159306062971 -0.09712998073393807 -0.041688260123847784 -0.4333302055197147 -0.6015299187552022 0.26022465628669667 0.1076875655666403 0.09461220529632056 -0.004228581090906959 -0.31002282003677073 0.04167203547019838 -0.2128993240398633 0.16278844783876995 -0.341797768778053 -0.1656261231580702 
ra -0.34987127445206656 -0.28510108712115084 0.2836571940225241 -0.35511214496315263 -0.017158515995596004 0.7261463860410693 -0.4355802389030256 -0.04061023091998325 0.3091991687445341 -0.9433807942845571 -0.6672426072508187 -0.48160096637908667 1.2880067456413393 0.05520187628512747 1.0158127596138289 0.6124852786855888 -0.39003895516854586 -0.10268427680788327 0.12058491346584758 -0.002972874967740486 -0.27296871483038443 0.27032583337808297 -0.7128003645070486 -0.5275399192924101 -0.7578676834332342 0.1610877106788103 -0.3579951050673941 0.5056730163212478 0.4623541764876622 -0.1390478243228564 -0.2496520649887469 1.3878659390016446 -0.06061024615644997 0.5395741054070186 0.004509779667200814 -0.24530036835900534 0.20916388609007205 -0.34884556558661967 0.12660162987509307 0.2525354855221868 0.8467723440448637 0.007584443776545612 0.06755259426461879 -0.48146542326299563 0.1967513191348823 -1.1577236407646903 -0.2634281805834214 -0.012192515296461877 -0.23820684393826486 0.16774589499791448 -0.37514290744717615 0.02622085075019348 -0.6645982530930051 -0.33966395022955964 0.1819393165038028 -0.550543062323131 0.14813174575698643 0.43470689917709976 -0.4457429509693853 -0.01969229283033249 -0.26236149461874475 -0.7431641840553384 0.9401432096654354 0.5574464863518209 -0.22261479664148523 0.23579342012463145 0.030856488153408634 -0.3679907501262026 -0.7749628690264432 -1.0078581769416375 -0.380718951790946 -0.22782638937375577 -0.3400092853323061 0.2876305994389497 -0.1686588073035544 0.14627484177835334 0.8031585845872465 -0.5154523780822201 -0.5423654723119141 0.29623453938759536 -0.8418705348811628 -0.3183647477926012 -0.3396126231390836 -0.681084263644154 -0.08522770311299094 0.3076811271586762 0.10256203242929501 0.4691712597028645 0.10530298082464334 0.10335118032245323 0.11522865479679632 0.45633114403252906 0.23064207794948652 -0.40863053456698767 0.014422691916235322 0.05847525725633154 0.7357779030394763 -0.207622128773209 0.5370297267797556 0.26336607247568117 
to 0.6750348350894935 -0.8145564162074851 -0.12639165711821615 0.4556333491397945 -0.34183386570186225 0.012851280043484757 0.4219936370804939 0.0652432680588648 -0.08468219349816454 -0.11813575439514276 -0.33518479187816574 0.952555255129933 -0.2512708102817471 0.6532654610210543 0.5703290902046416 0.2097912704610635 0.33648425120692754 -0.16254619187591451 0.2850822725167176 -0.17358822170498625 -0.48401245721430647 -0.29846050616842623 0.4697251790078901 -0.6582448782253345 0.2703377565214808 -0.395325186395824 0.1131189447375907 1.1061591392103773 -0.07171013500646228 -0.4023175930901424 -0.6265434972079451 0.10015806898379022 0.23147227883186883 -0.3358293459239825 0.12484704801133777 -0.4017735362516 -0.007503687912506787 -0.17453876086859593 0.17766434118776847 0.28351976367559273 0.6204099826184198 0.02446469214667373 -0.11425992086483568 -0.44104684076109474 -0.0539489805345928 -0.23811844313261976 0.1588410160230701 -0.040667234410070786 0.3404264598429161 0.019416207890974656 0.9759776568906215 -0.2660380388951753 -0.360908285806315 -0.5739763218336922 0.3519378255453118 0.9914105820863804 -0.515123012862189 0.6609946511250023 -0.20491550287345403 0.10301709013968492 0.4030443460400058 -0.002049869219827277 -0.35226728000714913 -0.1292485558451559 0.2883414432058321 -0.14652581869122241 0.4997394413112665 -0.2425870639843504 0.0857509212360198 0.1408257277417348 0.08142753407931123 0.07604904081458427 -0.29708054619698343 0.5542382051682099 0.7757986715962109 -0.4832073753125204 0.283043204218803 -0.8729708609975435 -1.04898648789435 0.7292022383786 0.29203384842259994 -0.15601550349749876 -0.40835598010451635 -0.2695456024948219 0.0872793450482778 0.3306286349462686 -0.6829900995150668 0.8529555882796355 0.338703883904439 -0.15840613036221327 -0.5453294009120557 0.22415891012336164 0.34130277832476297 -0.38721118480040495 -0.262979923041303 0.7027485019323408 0.3533388003007994 0.0934164074875257 -0.4495040358742268 -0.9964695446876597 
di 0.7020063976886715 0.012441177588178797 0.2135142433541825 0.3258112886569437 -0.8056925420971659 0.7989741318564343 0.6319441562351013 0.7414930067797438 0.5899028356131294 -0.7179834889065864 -0.007815431504849021 0.20636879664419647 -0.114476874583919 0.6467634309126985 0.10238458053748842 0.14995391632058194 0.0764474097844304 -0.016306896075438785 0.3007311984035771 -0.16027677179836466 1.537607067070599 0.10725902248227923 -0.14399388677875824 0.9279200875563782 -0.34722503343927363 -0.2360771736436521 -0.03287595155217736 -0.7450897237684666 0.2707950306059387 -0.11752021730234646 0.5181349354009775 -0.1868886631995402 0.1947305113641548 0.18698746117003054 -0.6508733906343795 -0.8658460003467237 0.007805819304732986 0.13842989503892067 0.3967902540625575 0.18380793215895497 0.5766964496967681 0.01723860541701806 -0.19041421580928458 0.043913587975879825 0.5287466229206655 -0.3015443229594268 0.3389202021418711 -0.42820885756637433 0.5317527801108791 0.18277956945637994 0.5939631174963242 0.8581717798967708 0.2772707637751784 -0.16450299488240752 -0.2620549727826758 -0.3412540725727581 0.04827127816128366 0.173071912672012 0.21895684949437455 -0.375553580000337 0.30821702367551446 0.5675155078919558 -0.7280080571832094 -0.6742781974613287 -0.023710045794309454 -0.25562496910915955 0.021990990282196615 0.1029740334443586 0.7543410886867933 -0.5923739781410988 -0.06065829426646878 0.4357001420317166 0.24732565439288223 -0.14789080382705927 -0.8573516656038493 0.8175650543817239 -0.07186175564653745 -0.19994534005236772 -0.02563305265629655 -0.028131939986511638 -0.4210673365176566 0.2824721100515976 0.1618775098123595 -0.23179510685742888 0.7263060957282955 -0.48512075347444916 -0.3528764935924738 -0.2408697730468315 0.4171280771091133 0.3328147816654774 0.11126769349971782 0.029212238546404985 0.015672713179811643 -0.2932278150228884 0.269897756856999 -0.14675486523597658 -0.5256943001301755 0.5448011321305667 -0.29074423972329455 -0.2790811013623322 
e -0.3610651121051312 -0.1102455417432065 0.5308984518875316 0.023057749438708745 0.09848277993068032 -0.06621602069586906 0.17344110834727672 0.3940542617057298 -0.41163003423214956 0.29008565654347146 -0.04780012938662226 -0.03656007574125848 0.35019485696958874 0.22379936315362275 0.45171393989394276 0.1912317892290564 0.2785511164321302 0.08260142182133157 -0.3832393149887536 -0.12613525130490713 0.512514214028776 0.09489365892721105 -0.5472363586984308 -0.692618277567797 -0.19604897511842242 -0.247643865507146 -0.1377031183408169 0.28407262798462596 -0.18338444909482365 -0.01904426465865679 -0.31658474512803175 -0.22002972306630952 -0.19978649880913574 0.117040689796013 0.3347665362905123 -0.8038641622254994 -0.1289220494399255 -0.29875330004159184 -0.490790190372166 -0.08037453577888698 -0.33202403289958426 -0.8986393937998258 -0.6024674367081784 1.0786138990864884 -0.19763198488953632 0.07961150588922941 -0.16631259062746612 0.47245745989079163 -0.21981224808018948 -0.2145199512645684 -0.0654390834622039 0.27717727882166626 -0.3367360602120608 0.39552016864284073 -0.20459416964690932 -0.38855158610801344 0.3634355994300304 0.5167386862155378 0.3678856351314372 0.7518053258656725 0.08794164624798581 -0.05551774844362836 0.029154356893095562 0.2371840836223598 -0.18360858750589454 -0.12015809380919364 -0.0822285760815491 0.3427623298968043 -0.9009282832215493 0.13765656601806603 -0.13138901474714018 -0.3812840706671886 0.5159266734943488 -0.32409154904039406 0.8623909219820716 0.2801909278443962 -0.13837183725751304 -0.4143177390866146 -0.17152807429911748 0.1669044952063517 0.5050911668716287 -0.04897151332442828 -0.735957421745666 0.7836970223530579 -0.4652144057388085 -0.3762693485168856 -0.29750413277076787 0.6654066935744591 0.12270458078132551 0.08332498962322098 -0.04475765465556243 -0.09202698275531868 0.014169428659193916 0.008785927013795679 0.1350910075542531 0.12388128923776502 -0.07772049696749075 0.35779037255333945 0.157468493167018 -0.2327251361844039 
than -0.3537022203357916 -0.11583404545051479 -0.4485031248827651 -0.13020784569909177 -0.05665582851088119 0.4243822268876749 0.44671534216358527 -0.5054818910066344 0.3135671601449736 0.3471824403319756 0.3544589553417794 0.5306697734567074 -0.10370644159469396 0.5868088412243342 -0.31454429297736314 -0.11178948882863193 -0.3123458724233168 0.30643097607736125 0.2460505663526779 0.25509943121983647 0.5020105952601114 -0.41939124352143675 -0.6495872699769238 -0.019239029621993645 0.08950236999716671 -0.19683759211078558 0.3032493896442466 -0.17574003362496254 0.2615167602886935 -0.29448425620210344 -0.3092310959316611 0.238407356120434 -0.3453314690218924 -0.09515022410923338 0.08678061924625766 0.15181174226269645 -0.42624648525936476 0.12426193720161358 -0.3836086863908489 -0.2627238734784378 -0.010172528135394127 0.11347757533546998 -0.5315818114097197 0.35350123566074027 0.44513233258978613 -0.16966379043084107 0.42443537754277566 0.38180136069259396 -0.17962978037204141 -0.33555785028591456 -0.014307577652865486 0.3844109942247392 0.2842083686553759 -0.36642324158323086 -0.25019546960933875 0.3195456878344608 0.09757767160605475 -0.0010322123292974001 0.09720475475046965 -0.31324566778459695 -0.49775346094563855 0.14225146005858572 0.07940253836770526 0.24124732505148325 -0.3063495027048218 0.13438813727594134 -0.2805396046193314 -0.24705852396981196 0.15322870998442267 -0.028910553215702323 0.474262152512105 0.24353678763783126 -0.42009721683133383 -0.11436104645507857 0.08897470719781046 0.13854356572542542 -0.45468999036712276 -0.48309295512557315 0.1831209207940669 0.2393660945961757 -0.05028128784870796 -0.4447366312947085 -0.8560864119695969 -0.0764442214977743 -0.4454544497109753 0.7647513702467787 -0.12130054735762313 0.9852866806716425 0.4592449894300198 0.45317364427033213 -0.2032422616543556 -0.2704083848286126 -0.4074760353347627 -0.1252285687172336 -0.24041456619332344 -0.11891672771069695 -0.3880803286278944 0.120746808661468 -0.19024731614589213 -0.4312467681131169 
fa -0.11435281502193981 -0.15734201870653405 -0.034057421629253695 0.13439797340759255 0.15170827896121908 -0.21224848416859038 0.31641195558664853 -0.6106380149404123 -0.009825171920010652 0.24282634829340807 -0.8319301514023838 -0.30391890620565726 -0.10301187571648612 0.1607937462799735 0.023065057216893357 0.6733621961647696 -0.06112318427520755 -0.1382950894356814 0.34840849658496936 0.011369921830435226 0.4278774475743902 0.2939756943728963 -0.31392356439725516 0.7516750803116916 0.1394714633611419 -0.3605789846297075 0.39252109989710443 -0.6241328703533083 0.7083866505519829 -0.5896708520388221 -0.025212128917634663 0.5021628785579831 -0.23777820938068964 0.6954390827924822 -0.32821557153913367 0.018119913485239843 -0.11921944164542425 0.1525381944221484 -0.49936656957072756 0.1353246316087357 1.034125508041654 0.4318147661136151 -0.7642738479082285 -0.38456591232903065 0.064160842954769 -0.29273640834457987 0.10104264093236887 -0.062460803737504976 0.21579655712953075 -0.05716288576418348 -0.10577079235798809 -0.2635422449729775 0.3267576623343138 0.13993334779603608 -0.21512616009657648 -0.3237837571516482 0.6243558821388814 -0.24416573453682874 -0.13403132390868244 0.0642677149789698 -0.7141383523183106 -0.2971814851396877 0.03581235219311419 -0.34174902318194467 0.1626972519019711 0.6172116929175055 -0.036743440796659546 -0.020229050668189724 -0.8444809487545288 -0.39546547317229486 0.22150232587918606 0.24088232033971446 -0.6003048305692247 -0.8268851787133299 -0.04552328603367823 -0.9735565999046928 -0.08904520350879529 -0.3019235399290225 -0.48813887041407594 0.5703406840500388 -0.7582211209428326 0.09563760654633681 -0.3875842672828539 -0.6660374022004407 -0.2492944979801521 0.008728678778524207 -0.8438136300544513 -0.24964814591023224 0.7469615179196077 0.03446296847198533 -0.08091235745974192 -0.16957427089683522 0.09200235919656569 -0.40552947600715383 0.5794486666099061 -0.1491185912700747 -0.6519132797493267 0.7858415540438819 -0.491924997938913 -0.11286911692130208 
m 0.5365726732985516 0.1449974091133046 -0.5190513890337903 0.5329087520606677 -0.5171729196706818 -0.032768724194500234 0.003982427242108594 -0.18535683226366595 -0.5914677170525154 -0.07616416684516539 0.15287825064376587 0.31571846579411683 0.5463562983751313 0.24792603365750449 0.17475345770015854 0.23087989682098967 -0.759358950830158 -0.4501059955565023 -0.4038755465758159 -0.5463482038380683 0.05131310885584186 -0.20584324123204464 -0.07610928811767292 -0.167039689348923 0.4726834856892268 -0.048609211398623106 -0.1109682178052861 -0.6581964434889254 -0.43277683851735993 -0.0479305793386466 -0.5378905532489089 -0.5531451859732236 0.015354866373772903 -0.412743498737211 -0.023236192211838008 0.529284943272231 -0.3083935937870569 -0.10037625453346313 0.8640805641083293 -0.8398167635728147 0.09443524230327177 -0.6669201427251091 -0.3865981293618862 0.12395428830053501 0.3593724610184603 0.1316284376257339 0.3204144614363909 0.4857257970133784 0.2587353838347552 0.04212307701499965 -0.5176564307249095 0.3330821491704922 0.05794768470587568 0.15716058374942987 -0.12949834690585527 -0.02398456881918356 0.22396858799915892 -0.31644163365723793 0.1961447481805655 0.6145506368759326 0.24796123918091306 -0.19061254363711838 0.4425234662498362 -0.02632515932698422 0.5469339960610118 -0.07172334532229419 0.3890349822925213 -0.6846637324725566 -0.22865093085339466 0.33176852790078376 -0.9313105522584505 0.2057805762355983 0.0842705928839182 0.4087160814069853 0.1216836000129882 -0.352665715501281 -0.3404244204292882 -0.17048448974681027 0.16417065881790271 -0.5927080357636971 0.33873655023141475 0.9403734520526286 0.22424088206855486 0.14199483971904384 -0.14730121034541566 0.575840298856222 0.11065726154652479 -0.09016787046951827 0.34301642409211036 -0.2977063272948849 -0.2336283600213097 -0.05067604766953582 0.7589261033073508 0.7306135773272051 0.18530740060399278 -0.5687305303864088 0.7089704162821966 -0.18626827135779955 0.20796694022699594 0.28435274863344906 
ish -0.6363781907161276 -0.5201333596867954 0.37620429511572645 0.010440595438874064 0.5095110230713783 0.23823026162188285 -0.2546389200200034 -0.42584694501192094 -0.35477788345505823 0.6149973637963979 0.4281017390516497 -0.1578752535499311 -0.23197727141832436 0.4072892558774034 -0.0539262787955091 -0.23499829115404475 0.614717753047636 -0.2532353296747193 1.1912851809401053 0.019154215579231998 -0.6128508283515305 0.03270441936605767 0.11510182151340212 -0.008936285402759179 -0.9428799607575321 -0.2733217759913887 -0.19831404852908385 0.25876656628143696 0.3754978902704442 0.5391514026537007 -0.5782668360648007 0.518789739859685 0.1260036157839154 1.059434445712126 0.4801719413443576 0.2624828728475415 0.37398130243922284 0.13574044236496835 0.03839920689886473 0.1722798729069528 0.3291268221778676 0.38030533696638447 -0.6062663388882408 0.26513674525339814 0.13837022400915489 -0.484003739574499 0.13101795674463645 0.2083305245871715 -0.020597599186758436 -0.5113593454980134 0.3694301931259972 -0.06234973842514038 0.4995877145211117 1.1882698628105397 0.13661922281031535 -0.22068207334703702 -0.1640260500887599 1.0907364307746543 0.1484238300118526 0.1538397180544553 -0.821637433931205 0.38211508921825676 0.037429260134217004 0.7726587842160904 0.18119176187663208 -0.32262649206615346 0.49999745499795134 -0.47044481337188315 0.6156281578229679 -0.0873770690585467 0.13227249468292554 0.110027053476982 -0.10402831986644977 0.14189671794398315 -0.8734484231522348 0.5680877278004189 -0.3758142530556578 -0.17235993834462005 0.062381205080163364 -0.16175723820980079 -0.8231332602255442 0.5170646178695104 -0.1556043094440708 0.36811404760188937 -0.2503419332677131 -0.26884138212508824 -0.543793631218003 -0.24790238076218418 0.4376803497772588 -0.14569773408021347 -0.6625572217371831 0.3576706999093757 0.058455533750500284 -0.3106942703054756 -0.35568216315167633 -0.7888080802185943 0.4603519879426123 -0.3634126070750446 -0.047522758517887384 0.46319557368713477 
? 0.07994418860990646 -0.08062310995774019 -0.5251761366780445 -0.07254346770855793 0.19701714523422323 0.03790692919169227 0.5185569586635492 -0.3696684744510961 0.43489988064234253 0.006653523134075759 -0.16459748298465332 -0.16003747158259035 -0.027726820323639306 0.04666029055545114 -0.2294549934480013 -0.0692037279303115 -0.3677880586371141 0.4743851407547125 -0.05008840391229569 -0.32984705714319823 0.43967372779610325 0.17372304704324534 -0.273227059182266 0.5203141870672563 0.09262135288703813 -0.5119522584187266 0.062309379433544386 -0.20542988660114142 -0.6750772342674931 -0.02394421372635206 0.3169529640950061 -0.6210525827788465 0.1991077852367374 -0.4210548065702304 0.0750346054080159 0.005180780252884504 -0.3687535602720534 -0.1870600810916866 -0.029236590428374894 0.059132020478508636 -0.1977755016968671 -0.010544612159651717 0.6694931936586119 0.17661813943888993 0.2568215403253563 0.3087457330295003 -0.17561881335261886 0.2949052361272245 -0.6334939955916775 0.30863485775564026 0.014876960658267262 0.015609795142763061 -0.22635066373179574 -0.20403729452119718 0.03940459425408146 0.18107265811334278 0.06139304780318655 -0.39411531050587434 0.11833776393004275 -0.05254309488494621 -0.1849578116280277 0.7593356931782311 0.5387069288755295 0.10108497358236845 -0.145775277710994 0.07963672859354598 -0.19534997862863107 0.5945840059436197 0.02109792627396738 0.10591131458044872 -0.08340191808984043 -0.3900171565314485 -0.6971093475284875 -0.01952436058584047 0.009442686236494118 0.3762384596871374 0.20579637309881982 -0.12173015810288623 -0.10808870384969203 0.07146243864051971 0.6066945194499365 -0.22401640996018413 0.3456230460725417 -0.3076463784949366 -0.5329425471396657 0.41386189646843746 -0.09709724111794049 0.4839187476046729 -0.12253451718371688 -0.5048198323550404 0.05924542678748686 0.06592195689449323 0.1697589048897585 -0.05341236578829272 0.22633114908912313 0.0647087768456624 0.291721743380578 0.39169685716546404 0.1987381801797214 0.01815512283310078 
know 0.07129131093213903 0.13532756208611282 0.31067473213770236 0.39717057467361555 -0.6128894396002897 0.23289452884675646 -0.20440626639641743 -0.6886464906099404 -0.21150286502145263 -0.06878935386862063 -0.29201421296621105 0.6883173999561534 -0.09459884270791699 0.20723538060866142 0.15799938509142272 0.006656940542575563 -0.2968150210100892 -0.09322185811444422 -0.17353561340001683 -0.08254788502482434 -0.6641271913341722 0.16695637355730691 0.22944515801278756 0.03791274137114397 -0.41298858551107065 0.22909251452515544 -0.17298183923931698 -0.1151885304764326 0.4150280138713181 0.3174880255424994 -0.2430337534684585 -0.10081698154658622 0.3201349330772334 0.6701550430106492 0.33874862813979695 -0.05944865452869822 -0.11297638485511433 0.060546087001703455 -0.29112151161844646 -0.05928279295125984 0.17179463523582994 0.3246716303264812 0.11610028486195921 -0.531949791217111 0.0506457736436499 -0.16280977508819666 0.47351522032564747 0.27483720981846865 0.40551274097935225 -0.30636738041911826 0.47548141896604 0.1429539801313903 0.3777811831106794 0.22570720536899005 -0.27637067781061503 0.6350041782450756 -0.10582215466838782 -0.5684355087526151 -0.29306122102089555 -0.5249552951870909 -0.10721691848528164 0.12666853072285106 0.3452798984281278 0.08354128751946971 -0.05309599906890876 -0.4947163651328226 0.2488695915894315 0.05658839692445604 -0.26744236388238796 0.00954586247638392 -0.2021794900885596 0.24656186758633944 0.6630388935465698 0.2617449875222599 -0.5184525822012849 0.30295305592062277 -0.30562234839982266 0.20821121782366525 0.31686798898787977 -0.07893722585201074 -0.1612510677635849 -0.11820049589701306 -0.06481834180407484 -0.26184937437175665 -0.35596373223730465 0.39811762165388104 0.30153453240846584 -4.650749149705605e-05 0.4949855534284021 0.39742871974028143 -0.0411087698472615 0.2607542282975276 0.15939781943678638 -0.4294379917172713 -0.27395101579842734 -0.0746620138840348 0.10095281462665638 0.22645404596843072 -0.2588703053032472 -0.20058602433842102 
us -0.01010559871808437 0.482082279444323 0.20710993027040345 -0.5470443254802181 0.13390473418207016 0.48944243779416075 0.5705630076635381 -0.6613832107857278 0.9953646368864907 0.74837193847779 -0.5889432542931157 0.23081069586842562 -0.38210848514948237 0.8954256315182538 0.20366558272097482 0.2917154484680705 -0.39363862648082715 0.4584335913108227 -0.3799590058240171 0.4268887549380721 -1.0115378497956522 -0.164187096619927 0.26482412220008966 -0.04438136493653577 0.24157635468732166 -0.24883120482405507 -0.16049786896108587 0.060266771765193516 -0.26765333675009373 -0.10813865547254302 0.5796859110026044 -0.31026536284970896 -0.13162637460093835 -0.19201621221042028 -0.4666263048791162 0.40009638480918264 0.46440176143239914 0.05856194884553442 0.7764508669268722 -0.0393346294872287 0.4703601082312255 -0.17657016157048008 -0.2803725556590626 -0.1476173739159443 0.49836954033687425 0.38761196901295913 -0.8156779365502371 -0.43939481988354057 -0.10835957488389662 -0.3075611965953658 -0.4374069003098844 -0.837741094125762 -0.25835118265314005 -0.35008932251747105 -0.6347170861380019 -0.7717096415831239 0.348980911397652 -0.3362149561312907 0.6917013768656669 -0.15395096752004755 -0.5354802682928986 0.4944242209582387 -0.4305220459312131 -0.8579904472661101 0.21335614199322764 0.2400260476342991 0.11910263072666749 -0.7894513065125572 -0.007630174409237911 -0.048554740087864603 -0.6406799099714197 -0.06459670323829278 0.8109642290594765 -0.4939508202957091 0.4322287054432565 0.007314416335386979 0.3195761345872798 -0.41553330091307483 0.6105356102235228 -0.21667132192973326 0.40704539931950634 0.4505381187199146 -0.3068915359195076 0.12084737124524236 -0.08748296803493541 1.0123083650000124 0.3136310740249684 -0.11630069279845048 -0.995648878908379 -0.7537159672828884 0.11721291921772707 0.23297503888950263 0.3503478693865416 0.554792349591939 0.9411411167122226 0.03297933255959209 0.37651736522720586 -0.7377552738150608 0.7878149762797156 0.5225411188875151 
ar 0.5424431571907999 0.4074662603064722 -0.407263153401451 -0.5369875243367425 -0.30839500568072725 -0.41178838937374007 -0.18154986827004788 -0.4095801718941775 -0.15671785396346208 0.09068468402306896 -0.3822101347963346 0.25391788677646254 0.7008042269860333 -0.4030865094023425 0.04720658660160437 -0.49306216897865646 -0.5283304268315867 -0.45810985294370515 0.027428866166193333 0.16666978448172054 -1.1801527252082051 -0.5298767797132204 -0.31098293930948406 0.6897639123628736 0.13651164722956827 -0.3611936944808376 -0.38613911424758135 0.029448573743007883 0.2830569711418444 -0.2767923216021674 -0.2976296750894942 -0.9662800058126797 0.06318120158003529 -0.15226335132426222 0.2954381622495734 0.6148153986802116 -0.6472002888048504 -0.17994463028010488 0.18552199915530637 0.36933216502802757 -0.21652110935552388 -0.1485551364450195 0.09533016434001103 -0.43136227610390504 0.06928971849922616 0.10782695540148615 -0.027524706000101002 -0.2274187147553666 -0.3988053893371986 -0.43034021478226225 0.03542177036777711 -0.7860114146109974 -0.8244287428995762 -0.1284434869975853 0.673486105027892 -0.587620677406877 0.19320857250242357 -0.36919471759523526 -0.3964005252806774 -0.13064668041397567 -0.06365076876905436 -0.26290001550109826 -0.16615440370154017 -0.5147346773751617 0.0664238838345095 -0.8116647700318602 -0.20983074666927523 -0.026003574295227122 -0.03023142216972037 -0.21933165290918805 -0.05061259083136689 0.6585664089719461 0.5635121894214639 1.1068336222311468 -1.1359129129428978 -0.21761393309950466 0.0414691566410393 -0.4064002466802158 -0.11260909708803667 0.2616219619378778 -0.7224626823600278 -0.3246011516322985 0.20503987484586755 0.5381167521849912 -0.10169285022362881 0.43074041857005324 -0.18215362755016673 -0.5509192982506648 0.2699676764886674 -0.013338115853386517 -0.03814269711982336 0.0660072672698852 -0.4837687996938835 0.4129422059951788 -0.1279314479743482 -0.3238489626767821 0.040785873110367465 0.0735573208369867 -0.5010899120960451 -0.42236805226629554 
ci -0.28609591307228555 -0.053392250941335054 -0.32322568890850645 0.1674777352853352 0.40469188080903606 -0.024374908332255266 -0.29072063095618705 -0.39296803341227016 0.5564248547951701 -0.5129976126033718 -0.09190914740461029 0.30614470539155414 0.2556683551935361 0.3899594386912068 -0.8277544314811937 0.7472770919695716 0.5964142169196133 -0.07261404914704811 0.9411843560326446 0.13984996920804468 0.492672190725008 -0.05555043650935712 0.4281293830957516 0.9508944771809089 -0.3610079609959479 0.010229408164774662 -0.3725976836254219 0.07998468630429979 -0.19523370140398025 -0.6548531425730778 0.6904178681748393 -0.2654155958584098 0.14411228297872203 -0.5772245783124572 -1.1786651575753684 1.1438505180127956 1.0736450045870347 0.013116724505069226 0.3093806258688886 0.31576327017999944 -0.295249651427501 -0.19300569865472605 -0.007125329917142207 0.5288479459343846 -0.4648959600145037 0.5719076741586396 -0.3822539587783947 -1.7016840729758067 0.4144939805349831 -0.40753842127101647 0.20978807872529254 -0.05558696148185109 -0.14150075072731189 0.319037781131125 0.3946227276466796 0.18754182245531192 0.05701156350501756 -0.1631061186934136 1.1371403953600612 0.4162889558926961 0.6215361221275991 0.7206473358006674 -0.07700699526317503 -0.4178665348501699 -0.0876408060405703 -0.2877641283708098 0.6324949367160417 -0.506837123702619 0.5322394755847399 0.20721968956301393 -0.3350188230302698 -0.33077326786461125 0.2920066509719411 0.04217965292881502 0.5892729101370374 0.16368513508233984 -0.783609025113148 0.1930726573535302 1.102931795154487 -0.4363503623387447 0.4062252924768401 0.6848357476119882 0.5647844085746877 0.20027237745333432 -0.09339773071501291 0.22031114693797926 -0.11305863736351852 0.41513713794282964 -0.4196332695361653 -0.6395626805434981 -0.5920506992720691 0.3773933401901079 -0.2803970259299353 0.06638018870828068 0.22260391743342106 -0.5667197150796958 -0.25317750660594274 0.35024028199116447 -0.2204342373356848 -0.12227748672915885 
