first 0.18876040566240398 0.27144114052252494 -0.2018548329376434 0.22404554809649163 0.008681122133695377 -0.25127746727715267 -0.5919974493207033 0.3275501664216633 0.44852641413303707 -0.5161492940920444 0.01655866274052839 -0.001891009767702699 -0.09003221284080316 -0.3866067312521002 0.0016124120161092569 0.027666713116020508 0.5286624156690399 0.34475761100160746 -0.005365221558860477 -0.193302470133014 0.6331139663635466 -0.2641881153172115 0.052725708755090285 -0.09406772630829872 -0.34843999214812343 0.26363311213834356 0.07980528220529264 0.10532785499892705 -0.40201370178335105 -0.06309263940901769 -0.19466877152437984 -0.2661607337954701 0.44719237270484186 0.09915141798167236 0.48207779909378423 0.11213355692605934 -0.08792671389756554 0.062265282555865775 -0.2203161084342487 0.21845321235113566 0.6948211719432729 0.20814637448506568 -0.27621162604223237 0.36363169533061257 -0.39918003491928794 -0.21822413327975876 0.02086648975636357 0.14214284227130256 0.42100108618070253 0.3245338943082324 0.04677056702787492 0.004485937196411695 -0.25796248259730836 0.29874133721473617 -0.3610469615437789 0.15410756851543073 0.06413796311429432 -0.09106584196628266 -0.06251596653477945 0.40477375547306466 -0.36514730102966986 -0.11735208617859758 -0.1570852311951853 -0.12271020124085018 0.19109491869753956 -0.0484214707014674 -0.03656368210342841 -0.24861528990351695 0.35574008185975503 0.1794484941373599 0.07333338681882454 -0.407632609096267 0.23735492349772971 -0.006969950791248975 -0.1781444139961002 -0.35277634870488606 0.30392589962433075 -0.458362540417997 0.10326174855520703 0.5854432715092027 0.09665833376181879 -0.17952947698608523 0.3953895980140809 0.628715189469644 -0.28644066038809335 0.19125768833658036 -0.18588505254720777 -0.1810692476484866 0.180647475536204 0.19270993623927596 0.05174729623643893 -0.3408971940007557 0.18374645552208943 0.4691903139702266 -0.23466744711035856 0.4138144373011691 -0.03858883322980224 -0.4653406500745418 -0.25111927982492777 0.04538472001382918 
citizen: 0.15795773495867965 0.41885804428515433 0.11333555811075402 0.5009504777086055 0.06542116328607847 -0.026072687635592413 0.09538886825729169 0.38106160580431064 0.4526080372342659 -0.4462306941976693 0.04782793393011166 0.17557355556806756 0.19338629883699934 -0.11035746608326204 0.2672396260359694 -0.34320774808843296 -0.17875183273212536 0.11312808213815015 0.14668324176710762 0.417611563112512 -0.600099918268435 0.13151586435249146 0.1707057605284737 -0.08748538114166757 -0.40180060705175386 -0.05033668236774251 -0.3299902489399817 0.27280151202254443 0.27726901919011665 -0.5727925123916259 0.06600078308420801 -0.35862731104657086 0.020665512480125478 -0.30645917070274453 0.4300613171260139 -0.05509029131886119 0.09931385353043606 0.35712378646683124 0.2531162150736413 0.15423167808370097 0.31450968254721634 0.36250302269963736 0.06888834440794568 0.4986594073136468 0.05531977516734461 -0.4370110647092913 -0.25764446298771654 0.27896198201127226 0.21804704751908083 0.30647448556199963 0.30128823365951146 0.01541856423998507 -0.2346958516314283 0.0022576245123718235 -0.48808046075734074 -0.5236297547035949 0.21017506135276862 0.40059948576958937 -0.28477414362526426 0.4077610015262905 -0.10931304539991596 -0.10132894203871957 -0.6164163561344906 -0.25029870936546206 -0.029261088488744032 -0.0755646092735108 -0.16937476829235948 0.2568924583016781 -0.3499661891517488 0.4083548340460388 0.23946950883187568 -0.2713327651026432 -0.15667380164817285 0.38696588129565723 0.11238333478158183 0.04864743668953842 -0.4053574922523476 -0.12167202595330791 0.3815652837321558 0.3656117279948127 0.07656830884172404 0.05619229534610961 0.5445440228452395 -0.16625722364794346 0.5927827308577137 0.20916398082590387 -0.044390535776304876 -0.03199968169080135 -0.38506942792959686 -0.2989876450648026 0.09396326988703485 -0.18525936362513096 -0.38854179571530467 -0.39694453161158255 0.29439965521023437 -0.19520143426293185 0.12168452208110815 -0.2746606943359951 -0.38684461824515576 -0.3113445051658399 
be 0.23039384783480893 0.10826815336281637 -0.16695597219045666 -0.021479249942470576 -0.25884852711800865 -0.018672844249154334 -0.3247726486994865 -0.670458811731742 0.4048862678746999 -0.17254516664470831 -0.2582562101128959 0.07440178121013007 -0.29014719504549147 -0.039052014172891905 0.07823276738547884 0.05787532458588234 0.2503654914553337 0.3602223974400214 -0.515655432659793 0.2625906293241254 -0.30458052078334774 -0.06721426731856138 0.09100092774006364 0.23355270983436047 -0.1003237703119392 0.17282879281404578 -0.03048996950607618 -0.18014082215195398 0.20424279546178492 -0.3428693763660115 0.2553099156336047 0.01813302272651991 -0.2809133953358696 -0.443821290251353 -0.05930297594144526 -0.19695501409217697 -0.32681857045413404 -0.22483156404567167 0.2810534190697491 0.11893772886798386 0.24598611628026493 0.2607264758856931 -0.13650785669530602 -0.27972421077973414 -0.3238716280009562 -0.11590900973246612 -0.04680391389119538 0.31564248546749885 -0.0750868935192521 0.21753359421518212 0.3730253847913859 -0.3712653193882941 -0.2992543771182578 -0.31036227149834017 -0.39608108043668305 0.3917619303788071 0.03259543715334196 0.3014713206820418 0.25892404602870384 -0.27718397663449895 -0.13114081020142507 -0.36073846170439505 -0.15256650090782212 -0.21566878636257647 0.28713818104974237 0.2641320367043803 0.29279475859412235 -0.14794710001954411 -0.005687882233792865 -0.11018119674577052 0.12177723475171826 -0.12171789628507312 0.19738186195560717 -0.4670957262567654 -0.04847554709964329 -0.4183020660085659 -0.5693033793953599 0.22328152536016613 0.4074969293554353 0.0824171224481717 -0.5770248745219463 0.6495870402701486 0.16327116561874608 0.009367006481236076 0.47115851825511257 -0.5169834024623615 0.0978742955252347 0.22553253191924816 0.16889608315978458 -0.3699877221308979 -0.29602234895198876 -0.3666973491869982 0.2421315720835764 -0.07145047207268178 0.03260736073098588 -0.39818975179124183 0.17990157627612585 -0.1588404303055411 -0.23028351149950635 -0.15678290132277403 
fore 0.38983755378946283 -0.007078024886687611 -0.13615214011731394 0.09845524819652826 -0.1707046171831232 0.3537212230193914 -0.4444638992396832 0.08510179218792746 -0.15575472622892458 0.02687239841404379 0.010553692615960064 -0.3715347001835355 -0.11033966902272485 -0.29493938354212795 0.26796931042418737 0.19608020380156702 0.0748131629520292 0.40568775539816554 -0.4037264936352204 -0.3476877060822945 -0.3527843528201049 -0.09156206250901339 -0.4668028319289117 -0.2907697704701908 -0.22988828387976462 -0.339616024901426 0.016622387511981952 -0.3469561674492331 -0.2429621047798468 0.20396914515388043 0.3942881495915853 0.06289790105319454 0.22391710417447108 0.1987538671302238 -0.35594711434014403 -0.2185614382810325 -0.0835347670481742 0.1387372103540734 -0.08288953357842407 0.13811851534314643 0.05599712905163488 0.14374514841594005 -0.025805248386736014 -0.5232436620534914 0.29096938354060636 -0.3302644463654695 0.11832550460422209 -0.451640460329273 0.029330168656545932 0.18498215676464735 -0.03258630812841212 -0.5329225359496711 -0.33661859888069356 -0.15935588198170478 -0.5129385743721661 -0.1767980687202881 0.5526134266364938 0.2705751091622603 0.2761399845916603 -0.008986364365269795 0.31017958587584904 -0.22480094514573049 0.18141795679958667 -0.44838847048443187 -0.19133471316639275 -0.15294238562746368 -0.20706765999697122 -0.19996253379128567 -0.010339270487769475 -0.007364538890824848 -0.24095198836303552 0.23937195527535896 0.3414803579305072 -0.4777867433304397 0.15953302064984928 0.17556272552601662 -0.009464415658680581 -0.29170383416812523 0.43562212991041427 0.18717287381148284 -0.1939387300859115 -0.2173443090252233 0.2289339287992551 0.16613984944300775 0.3678583825730912 0.08639641236299739 -0.24243500250335084 -0.06194087060862747 -0.06407740494213354 0.13704072258881905 -0.35988751040831546 0.060159786433623616 0.10475724931178483 0.08187382247703676 -0.19308690787026464 -0.16791755257588134 0.1383136618411806 -0.5046173748274272 0.04520084742586225 0.29573429533635587 
we 0.3495760168296022 0.36318697993230586 0.08110697308286204 0.061743180192143005 0.0027728016864731597 -0.14010812481306167 -0.01971897949994277 -0.42027012642238293 0.3982017024084948 -0.6071660821442069 0.1045827923118726 -0.09642049616795474 0.39806970284332527 0.28815741910810916 -0.26408777398674244 -0.014329090196370235 -0.027790922701760878 0.13558033688739457 -0.004549334074571351 0.2887355168369075 0.20568911946458246 -0.003667057007214058 -0.5606653082470775 0.01765810232659411 -0.322892395725438 -0.3082933615183258 0.4360618668860731 -0.15756720068635785 -0.26346480283627893 0.26989218359326106 0.2849086261793587 -0.26119618674887535 0.10770893954409837 0.17582975507935322 -0.06990983027641269 -0.3723200644767084 -0.19567299306799604 0.5238805088607266 0.03375837593852594 -0.3336816370784487 -0.04537075815545578 -0.025831569284352665 0.211775619969684 -0.49604684382744557 -0.1754904882650642 0.34602464737768274 -0.3878651343208588 0.3208969319552824 -0.16488493105974464 0.013144859484333127 -0.41241526832933945 0.15169512542074276 -0.23505173298604054 -0.29039687921429425 -0.46547945855036743 0.11019790807861143 -0.40064295369885317 0.152736822822808 0.05820473285854242 -0.02267109643607703 0.017252412513464883 0.17585692573570333 -0.34180682421833897 0.11048981452069988 0.3056905860824919 0.3398995660079151 0.12655626399044104 0.06687647724289968 0.6207277027555945 0.295734212244819 -0.5046489144977259 0.3420329450077695 0.2000003576514628 -0.24340738230319817 0.2327836884925899 0.1877850434063904 0.32992102955590524 0.0836179228813388 -0.4617055114422275 0.47021222437137516 -0.44434749763062636 0.463540916388133 -0.49537522725390676 -0.4373873063922188 -0.2836253646213342 0.11462438110948944 0.04949258361968991 0.1836684300133774 0.13349994854570058 -0.018522299489061013 -0.17141922335745702 0.03454471991396278 -0.1472498018032047 -0.560687663326177 0.27212163868626493 0.0543102136824104 -0.21778670930029767 0.08781498229492536 -0.12456763064210094 0.24032789348855238 
<space> -0.8170191755692099 -0.5717668863632285 0.3727187795131934 -0.8243961013408251 -0.19743775790916165 -0.18145555568487717 0.9894652471622091 -0.26988632639085164 0.12224575206161874 0.04298998721863643 0.9754977899145767 0.07895656986968141 0.31125586798796967 0.7393728166007629 -0.28780912846141216 0.13069719145395628 -0.4547838491205413 0.6575240289150648 -0.506953642042983 -0.3037504851647653 0.41114072878830527 -0.9568572327328136 1.155466647173598 0.4567009040877346 -0.9545422704622951 -0.3264392296973553 0.2497321295477078 -0.04584364013759491 -1.1930351196179734 -0.3680575149111926 -0.5102992973176687 0.11832955298059532 0.5362699148360566 -0.5554709586478747 0.039945053675209674 0.1702861469698566 -0.11810751717019234 1.1238690481241913 -0.0008599553697966143 -0.2502347173018711 -0.6468237603555405 -0.5829666703243827 0.38143837294767535 1.0138014463274807 -0.25994435064789134 -0.1448105582249505 -0.46070658282248644 0.35070930416094415 -0.4139600332362316 0.34270850278393217 0.09990913136260329 0.17044707541128631 -0.18033087479807386 0.3341003326931556 -0.5002253468918292 0.29382745508647373 0.38335788635142315 -0.06847215395984822 0.19417677223657265 0.1021112572311082 0.8738843177640796 -1.1272071630170488 0.38275707606854137 0.3650669929143883 0.47813095685289914 0.24549681526764394 0.17963817918292738 -0.32972572972384356 -0.076449257895624 -0.03019284453622372 -0.43788542926687557 -0.22751053900404633 -0.1312144924788918 -0.3895536146455399 -0.44475798747616796 -0.2982687188994161 -0.23189045081637127 0.34619097207463906 -0.2829891141651884 0.24824816072628064 0.47399602838400184 -0.5599132905680911 0.6860871399025044 0.4339156568945741 -0.3051812497933741 0.11819095972499474 -0.6593592806423075 -0.24581126960410365 -0.1807825827662202 0.06065528169711263 -0.06678845762644706 -0.9038225589365986 0.6275922542029868 -0.3471658119798585 -0.11360772275212605 0.6693177459696041 1.1670867105835272 -0.6533170455318691 0.575114339663592 0.10284300767044807 
proceed 0.18779623406453544 -0.07014977090639206 0.08175629104773799 -0.08837228219419943 0.0010515140794047709 0.3960815910002783 -0.07343148905253731 -0.07715952941403405 -0.40254850069536946 -0.020800588175292675 0.26038818630418975 -0.2772724433555288 0.3508528975597765 -0.11500385768001017 -0.31061932839786927 -0.3321851028021334 0.12967931823217504 -0.03764172507630062 0.4805734642188587 -0.3544772719072135 0.20252833703254733 -0.021257450114696853 0.37523660018921207 0.27715270674352044 0.25236901619951885 -0.11280075518823197 -0.33901617885215635 0.37573843970434617 0.11328928559757726 -0.25835928894207244 -0.29101563376269923 -0.31470896254488034 -0.17266499257924814 0.2646447953732362 -0.09804608294167289 -0.16213745242754526 0.002052661768109011 -0.2712994345920704 0.13331331947091796 0.3660886956216502 0.26635754958711605 0.20747607697831194 0.5235321064436286 0.23423489858555904 -0.027588114056899187 0.13099209591209454 -0.1009476742502659 0.022147242097488463 -0.06262309040870866 0.18691855661398868 0.31712366702850403 -0.28590361892567023 -0.12009780460996529 0.3632723294099424 -0.09617849932272744 0.3186739982501392 0.3087723142161987 -0.24552308209602322 -0.2331926008483999 -0.27065791592830185 0.09927930011978665 0.24335145429028907 0.3588466407631783 -0.05332587028493614 -0.00017808407497782106 -0.06210079306709307 0.11958190372542775 0.4594684389099193 0.4205788327071172 0.08115610922000714 0.2661596599000711 -0.14598587037713684 0.23946775639998377 -0.0884040696823073 0.221537858673556 -0.078928671307839 0.18146643816593344 0.02625519022300235 0.05642933190762025 -0.12342343681768951 -0.5170676355930055 0.3174659883562736 -0.6895560180532648 -0.25401786193687137 0.053858282095987794 0.3437440952394391 0.19230248955115753 -0.4794009647799913 -0.010537662908004201 0.5125572825101785 -0.3562816916190308 0.11878010930981654 0.13472119982721723 0.4618414917699597 -0.03172747915488061 -0.5339672547228551 -0.04631246316818821 -0.007167374893527186 0.2326406804201864 -0.17834672670008794 
any 0.1650910397911201 -0.20298795576649684 0.18527316618484851 -0.1192558287655686 -0.28538437188386623 0.3904044389457632 0.17139217317988548 0.33183282721581076 -0.032213459873682834 0.3831840951459535 -0.38807938486964144 0.27377201500004794 -0.07874046613476889 -0.5676964048025946 0.1614506700650519 0.04371193747011884 0.16177203123582223 0.20330300186137448 -0.38470515796303717 0.3583717400838452 -0.22533420487300831 -0.3734717775992646 -0.3454283584734206 0.06870229969950786 0.30791172437402214 0.04182137030126066 0.21162124539124758 0.2294219372422966 -0.12065740289682857 0.13677176292414597 -0.40022688886174856 -0.29928291009183855 -0.18568627952936193 0.5013843326666166 0.13676587901455972 -0.15552275141524674 0.0351273641593448 0.4237280818939076 0.058956243289763635 -0.2502891299172802 0.0788880069522058 0.39249748699520354 -0.018442809291258126 -0.48872164727200496 -0.12448013150688826 0.11282028296871761 -0.18073802298383743 0.39094211518947936 -0.3495587861325614 0.08723785745652113 0.3292447881051339 -0.3810372522619261 -0.2669642547409589 -0.07463476187951762 0.2956612008578558 0.11663247672995114 -0.09964657653263004 -0.4940174174805945 0.4545848140302013 -0.10965628066509572 -0.22989081325496044 -0.5281049043390877 -0.10473580310412348 -0.14057526607229223 0.07080188871649931 -0.2603286830093378 -0.529525786071029 -0.01008904777109534 -0.23135335931932588 -0.3773125154505702 0.16954454726063048 -0.1737359950178827 -0.17109190542336472 -0.03905990673804331 0.11111900772430147 0.4130830505292572 -0.27556737255466235 -0.40435574216439896 0.1347629936450915 -0.16610546351491587 -0.46011154105769925 0.26345615215496065 0.26104104607225076 -0.4518992148016559 0.46419404087319677 0.020165703197713075 0.4392007807573525 -0.43916730739161325 0.09725829707997607 0.17408671718029126 -0.3404045416912077 0.018822345144744054 -0.40701638190142914 0.577202358270338 0.38218644993482626 -0.14250271409738688 -0.07068025085512067 0.021493132054498064 0.40910813340112223 0.4516241237712312 -0.3996142788549486 -0.5334169026339963 0.14956183356294353 -0.48220811218594123 -0.005040419958607909 -0.559974754211219 0.5664470571592298 0.2719437148892623 -0.00353777207111034 -0.5794081752013679 0.6735993506683213 -0.41745977207332324 0.41277406084537627 0.10958873736143437 -0.041901331111266364 -0.12260647899349135 -0.10709277879233696 0.49647262981750373 -0.4543354470951072 -0.03450132094557069 0.4335346162069147 -0.1973673816379298 0.8449207315564621 0.0035436272107029513 -0.3886400724781399 -0.044176071992932546 0.08826336100606196 -0.09517895581707615 -0.48449900398191176 -0.5053289109730115 -0.43524207879029037 0.2815110529427418 0.3322879524890988 -0.14577689365257188 0.14317500319420573 -0.2767821436033369 0.04968990416487074 0.7767487494793024 -0.31926019352739443 -0.029029958730175477 -0.4327015174489696 -0.14241059545405516 0.07479008640657778 0.8802556975794084 -0.6338263657936973 0.06555999293093646 -0.2224276568578268 0.12652861380522065 -0.1852408408806432 0.3104132866729276 -0.027727194163019 0.18732956274368054 -0.2551103417571441 0.24926684797095794 -0.3283993313343214 0.038331664406873744 0.6408952218436775 -0.18493992748750082 0.3601196335634005 0.1146116291525035 0.6485537908818433 -0.7741157753774731 0.33355553723908576 0.25219852680555016 0.1399002202767522 -0.20530402637180714 -0.35257917059363747 -0.6074850340749598 0.12410574775093093 -0.22547098196832455 0.29306895922146897 -0.048676866954765266 -0.23048181465408218 -0.3222647413631231 -0.3026281600197102 -0.2913885128212923 0.16841590469585008 0.15071621577336933 -0.49200565465217644 0.21119317466387505 0.32905902656684066 -0.484975476464839 0.5322634507070824 0.47882211348814285 -0.4733518157913672 0.03290850623615834 -0.2463941271311826 -0.624028201996062 -0.06891326957729305 0.2792083188428101 -0.1194861850830249 -0.9297420717544544 0.6673259429132843 -0.011019323672135824 0.049658098930622105 0.2608690186937228 0.5307643136226571 -0.39712228779752295 0.29250097026006655 0.06778368370363853
f 0.2739456332901775 0.26858077020276155 -0.20826440536913435 -0.2682776206587115 -0.1361458601627647 -0.02524767802414976 0.20529342020938246 -0.2811714782769859 0.5064755555132544 -0.2419410650367594 0.25130312006240474 -0.1264991186534485 0.17461251948263265 0.12695711744117866 0.018896776532427446 -0.19167199480283395 0.1782683783123499 0.3908241646893203 -0.31839759372382503 0.21352285803327176 -0.32753518768015133 0.09243440503033112 -0.19655530720152714 0.1256474988833193 -0.45187104976886094 -0.17860769219000272 -0.3995903285736412 -0.13713694945323068 -0.20615855976570818 0.1895516731393944 -0.06864128648979319 0.17407227884173412 0.5209132549371448 0.10173570499851646 0.21690116458083147 0.11625392515453126 0.006252897819932386 -0.05131001702368147 0.3457320006031984 -0.5013588093790361 -0.2443679300673373 0.22931764323426782 0.07982667561027468 -0.5227928946596361 0.4912145308733857 0.11187387590751584 0.2513685955075347 -0.31700304554151354 0.2291902489934293 -0.297449458943797 -0.2284297218016497 0.5032100572706089 -0.09386610634059074 0.07387905089754408 -0.18752739225865522 0.14256195752047637 -0.22509607973183213 0.1208379113701962 -0.39212461803581683 0.05343870540084912 0.33995789022709233 -0.20826256304644647 -0.2911710624918528 0.0729682010287588 -0.08313409108475592 0.1546325672241552 0.23270829037330035 0.058849446285641586 -0.17048881286401998 -0.18500431576175547 0.30425734384310754 -0.0328484696249854 -0.15619903171532168 0.10497779120650541 -0.3236442397160621 -0.20808168180099887 0.3642474030072005 0.0850159349249317 0.4843082225657719 -0.1542613247854715 0.1733310052984471 -0.05568476541017194 -0.42875025754316115 0.02905382408042623 -0.045289585191023794 0.054339385469231755 -0.21541764206436584 0.4473727369020185 0.03718603721755344 -0.27532887029435515 -0.2689688915983646 -0.3912460354729485 -0.228173965715086 0.33551328136195613 0.0885616194904159 -0.45640616264085476 0.12777716325204577 -0.0186079930715487 0.3370441258751319 -0.5129402432012425 
ur 0.1086677416056093 0.24361193022038347 0.30706625919135966 0.4766303491188497 0.3874446147546746 0.4025052390004907 0.3258909469380532 0.11314415234711515 0.03999275904360877 0.40686793400994986 0.40232771876915063 -0.25735622578881395 0.2996444783353472 0.09782779022832291 -0.5441578081844436 0.19618507107961108 -0.2884309908500147 0.02676656245255061 0.3054974394985292 -0.14947999459298078 0.43651771192971 -0.40775610918347793 -0.28243701066574595 -0.06206744359012339 -0.2811767431471032 0.010746752311216051 0.35039711728920236 -0.38031555906823855 0.22404320793743088 -0.1389590436888766 -0.12743950032262813 0.3790168737940433 -0.5220815361715025 -0.374211798502991 -0.12760200220523393 0.4767249668265461 -0.20903062233494252 -0.11526355005361104 -0.3902823597090169 -0.19085465694709267 -0.3874399468825623 -0.4916535308378043 0.2766166884561701 0.2616439477538324 -0.22114755514436651 -0.03077915887966518 0.23976268300630152 0.051481202221796175 0.3205982359060911 0.3127521298326244 0.16082500089201357 -0.08340245026831075 0.25847842205928334 -0.09259174966883334 -0.3356628815224076 -0.17201767926675832 0.36485631249695893 -0.04002747961399456 -0.35464102513336493 -0.16306046809079264 -0.25796601050815693 0.2293613876759056 0.4033270263268792 0.321718739557186 -0.3596208432702804 0.45972566734651144 -0.6046365050197406 0.3997980745057873 0.06741951221597632 0.5326702191590944 0.1942460921135764 -0.025972680440458796 0.02439053760559689 0.2461961689176113 0.37056970719651305 -0.3429560834157404 0.43876884408447464 0.008140988433015861 0.4432098653278269 -0.3570788218744867 0.4601589904969864 -0.23009536098518885 0.16441385593423063 0.2504318605626808 -0.17043808182478434 0.3406310787700083 -0.09677913099522628 0.04012977716930677 -0.3304660459946644 0.1938645282737863 0.09330453549254526 0.4629854025137506 0.07507726377310993 0.35038237043041753 0.354926154070806 -0.06141960333173021 0.4051761194654553 -0.07068399167876346 0.24652777934222428 -0.11673639604787667 
ther 0.3011549266070228 0.10472417411554376 -0.06772226737727105 -0.03872488708883767 -0.2830135852269522 0.15850718858682297 -0.016994930259033023 -0.06504366387088545 0.0003829829018074521 0.08806244232573274 -0.17754121701917372 0.0026364399446991674 0.23129472140286694 0.4191430641968144 0.1490209636739186 -0.3193968345845295 0.32233271254745094 -0.2493853342030572 -0.12024801655513613 -0.2412884336526759 -0.5321036131019967 -0.19327986595872532 -0.2675822782762535 -0.45809483244155114 0.03899411195773861 0.13172811036508 0.10338721259144042 0.08896097372410001 -0.18179236637215246 0.33267401859029305 -0.40386222527007615 0.2792214591687533 -0.12323973724780274 -0.20309260501514212 -0.20847793911681253 -0.24262268358449082 0.22365164818588557 -0.2589516410755103 -0.10275899172714707 0.2809704482058724 0.2582672622927777 -0.2792354300341723 -0.0872762390874355 -0.2902391006784298 -0.3641384626934667 0.2699240734890574 -0.05232173576515954 -0.2857568614793703 -0.1257424546171355 0.0420073135427096 -0.22138830696282452 -0.3914692977025477 -0.4321404599908886 -0.10345491103845318 -0.1453607969822825 0.09914414702915875 -0.13017633986539942 0.15873323807130943 -0.292651791996991 0.33132952044323305 -0.37236120540049816 -0.29421233758425264 -0.014854829106652164 0.0013787575375204253 -0.45015037501259536 -0.1448334605834049 -0.16237915612306886 -0.05989081727810666 0.3164622206113191 -0.03198763401376623 0.46495433546258547 -0.1974393249177 0.30128016111479017 0.31596320508005155 0.5273224075413123 -0.012996189721572923 0.22788412111014414 0.5376641539212679 -0.33155577289680827 0.3803522257786988 0.2102548175729597 0.3222353443768813 -0.1432354825233156 0.3551765369927592 0.21977063689448248 -0.21291415958381715 -0.026237382171884614 -0.4010051030662314 0.2589042867566475 0.12199868910194876 -0.021426656526647693 0.21123574403931863 0.39035941392564755 -0.4846395918827654 -0.42387230827549205 0.15884240845482828 -0.48098831104413875 -0.17037410369586897 0.1778827804807234 -0.30950544904209737 
, -0.45657412622608734 0.012900576766394372 0.2722941445512189 -0.4003767523026992 0.08955547993388369 0.10060961693694903 -0.053116158115723094 -0.01796101064570349 0.05662525965041032 0.19848711570167332 0.04861391661295042 -0.05483005760445033 0.05252500337162053 -0.2564388470985471 0.2840057006512704 -0.0012259111715099975 -0.2347170539583099 0.1302500630808346 0.27280704673377054 -0.25048372174155825 -0.5137383729816383 0.04224537073234074 -0.12398105026085209 0.08430980919712378 0.2432777252970681 0.3185052479052272 -0.008782633605312349 0.2793821995342686 -0.2804075430219251 0.18343399234571342 0.017841477664973966 -0.3232426703146093 -0.2907376853635386 0.2558926855692177 -0.16929091109652877 0.07801111133249847 0.10071267253163627 0.1731824688827834 0.18858700496668607 -0.03059989520949951 -0.042576776944081435 -0.2536319097011936 0.29693249347845907 0.16714686958706942 0.2524472760127943 0.3171626388025648 0.05389997382053324 -0.3022450379824932 -0.16420295089254325 -0.040255382872236393 -0.186213242163555 0.0434350172877495 -0.006054097759946619 -0.05294924041365349 -0.14163045394006224 0.214968174034203 -0.06488913998505966 0.3044587364938615 0.3238186346526801 -0.08883078752247198 -0.36519264265260426 -0.24421670582293065 0.27714336113941884 -0.06072066121569282 -0.15553056416585917 0.43067715290417535 0.22220033593352564 -0.29379975311618534 0.16815356948597524 0.3802954130267967 -0.2083446991746852 0.05355734256097226 0.05456984646920757 -0.2860286943817177 -0.08082985746884935 -0.1058192390800021 -0.16531063726470308 0.07763741708286252 -0.18087456593506487 -0.2813701502613654 0.07539364698303266 -0.09637279611481064 -0.04445893314035001 0.03575653751803687 -0.3035492393092577 -0.32340410267358655 0.18693660807575807 -0.22067372017983508 -0.24867230091494688 -0.012490905126809365 -0.3663102262515033 0.049207224587455835 0.004552586318860989 -0.09475416390877972 0.173370017580379 -0.31286891978671727 -0.31371753631347155 0.031123644990794952 -0.26752913270356 0.3161313472395511 
hear -0.02864276036350369 -0.12169653878546692 0.1759612658235891 0.010699717575150848 0.22724617258732233 0.039450641073739474 0.15904495731252416 -0.1514104009733816 -0.0694198755261231 0.3969664209023288 -0.028721040590015026 -0.04182198802381558 0.3256689347842433 0.2064158139831095 0.12692831211084282 0.1938663001869329 -0.47481643331757706 0.15573284594304865 0.19273178867782864 -0.3055343541347297 -0.044307556497889984 -0.13029158698581952 0.18636065237795454 0.06462744674050208 0.04383488037550378 0.15727816663582428 -0.09771223621810667 0.204071255642502 0.2417226160021046 0.26304828920968343 0.06570433544501693 -0.44605246895580464 0.19322589946537327 -0.3251707281657171 0.07541400588564626 0.13475612367613746 0.0621844907065359 -0.30705263216419226 -0.4179105184852801 0.35947342829708323 -0.22935921380446073 -0.3511923741704644 -0.02207654714185459 -0.5279704551954484 0.002288734560862128 -0.3041972280379049 -0.5945572257098326 0.17195480283829817 -0.2558825967936078 0.33477026749950806 -0.2796407646836546 -0.633494024843019 -0.2078097559473215 0.19631640702155057 -0.033811148716360206 -0.100194627065757 -0.2336192110216826 0.1742363381141076 0.3749835378089206 0.3783597006071901 0.3361606171107977 -0.020137243281113694 -0.46355498525074934 0.12316639553699209 -0.0387459387592721 0.15397458559159433 0.2434829685900546 -0.32246844340323794 -0.4100096707501213 0.5287012744044265 0.017143439834721306 0.1664648637504415 0.28289195427709213 0.02150435319056452 0.4566306615260229 0.10505057018120986 0.027010444789557084 -0.3367515723825941 0.12779844547832842 0.0004716910453308118 -0.05137262085668097 0.07930444630798683 -0.22627866587113254 0.3084391592373837 0.5374246539661239 0.09262911187449878 0.5014635601287043 -0.1987588152019183 0.3208815188175134 0.13114025446476618 -0.15366466767392883 0.5839493907931061 0.22215620543985282 -0.32324030185255426 -0.33830942150732235 0.30870131694948755 -0.16946550564046337 0.002891024765168209 0.004327025297728656 -0.12814765979668002 
me 0.4323879995491772 -0.3339314049075144 -0.2681200952241192 0.4749231824303979 -0.30232065161164506 -0.3385324167021683 -0.0656547002597683 0.028828560423893854 0.29716743444922633 -0.1380238382468203 0.1507178467745714 0.1121435579420786 0.04625782245599575 -0.11631798711396729 -0.39640260826269524 0.37685574896758567 -0.13710693260063792 -0.12631644751883064 0.11041984182543764 0.31363043651113154 -0.38842880708309124 0.14170905085943447 -0.053807148744252443 -0.33379988993869397 -0.3210151805707035 -0.1289009744141448 -0.4797858279280177 0.2247714401275355 -0.16273814056982522 -0.07877280390121917 0.08038591434847493 -0.18483265735141804 -0.5634209280912578 -0.24850852720154462 -0.20267244881250832 -0.2647490945103364 -0.10963878374575996 -0.2578388944184585 -0.1456882386540122 0.0026580443064772447 -0.26816319082706563 0.12201449957996949 0.46271161078426976 -0.48260541618901326 0.36286129203610684 -0.4294101496393399 -0.13318560262840648 0.24465076532549362 -0.23684327034686734 0.0996847087237199 0.04196593764790872 -0.02945218033610753 0.33758215431389377 -0.3300158489672539 -0.05266518047880048 0.1604503533862639 0.46961289901424774 0.1797076430751976 0.3706122510964862 0.037655134040284824 0.04845619950604146 -0.4197753148808503 -0.10676596323735957 0.045355852444496345 -0.20155783765578766 0.30699056668924163 0.040937689654970445 0.25932484994831906 0.0668842150176591 0.44574698483944736 0.20552298342741257 -0.1295713864677368 -0.5109183538143967 0.40812351766175503 -0.34556993889972565 -0.27133062626172066 -0.024844525972372286 0.03789163440626832 -0.1904658084806113 -0.14760128681027274 -0.02636638524773277 -0.43561316825846835 -0.43398838471426043 0.02371779055010632 -0.17624835328743504 0.02724363179055846 -0.0961404436548072 -0.20378873386542024 0.07801081697012792 -0.27814757270285295 0.13145806802103602 0.17522447630441282 0.035597678117097645 0.065977042318786 -0.1643539324087394 0.07165408971471432 0.0070750324182693655 0.40354926120248386 -0.31794746543268454 0.3101014421053676 
speak 0.052367562879049034 0.5154324473939397 -0.27982451220608373 -0.11959709132707746 -0.11861397588289906 -0.017773159872214304 -0.49945249488372623 -0.04665404581717782 -0.17620899845978477 0.39054407130591295 -0.07279339531701998 -0.5650014694551813 -0.45191932203793783 0.1686613796752532 0.3271113179311254 0.3369528698770668 -0.25961160978501574 -0.14640926576628832 0.3491739181923266 0.205187110144638 -0.3627411034163947 -0.05735504500403928 -0.33084441718413976 -0.21719198796200812 -0.15337108041208658 -0.48734813074819044 -0.09632657920845158 0.2667725207234653 0.4002190082436992 0.241749016301287 -0.3397675273588282 -0.32516867473000466 -0.3585840469712205 0.27615392073814266 -0.12160406461069848 0.29719490904798973 0.3066494501322369 0.12213034602214079 -0.42762994923230113 0.014578681013273163 0.4260237525111828 0.051163223130226504 -0.20002822402309306 0.24130009007206363 -0.13223147969717494 0.00721977286054841 0.19221186068542487 0.09175782132751384 0.24507781935722756 -0.15741782845789956 0.05211099185592133 0.13498803530507755 0.42802429832661487 0.5309896594916381 0.11739667074525038 -0.17009632729772853 0.025826988324811735 0.014095324492885086 0.32251189583363893 0.32350918823930397 0.38734754805064975 0.12870826115575815 -0.6583441609400553 -0.27438162632684754 -0.05145797857390945 -0.09427461784185341 -0.11066676493631057 -0.13415390708089922 -0.26514848184913625 -0.15729958486811538 -0.2714698822958371 -0.2990263754060901 -0.044684392827329625 0.4270965692578366 0.0671023623198686 0.1867107650450661 0.21356146617495494 -0.05803793965140425 0.3041631360445519 -0.32824607425799707 -0.3719060540723948 0.37233684627135455 0.025655399518766324 -0.06992105405711772 0.3345362373004255 0.24948695798690676 0.3348447995451093 -0.30855826027260735 -0.1298220613814282 0.08316863135039375 0.08711410775490816 0.22905067740087492 -0.3997068230621238 -0.46085987286558877 -0.09880530067211515 0.028056302190092475 -0.08804268538592612 0.23659985603902128 -0.3981566082180961 0.36528432380881753 
. 0.29509183738249933 -0.048533718263445734 -0.2206483920629775 0.21198570019472224 0.1354357188712939 -0.024128821366368354 0.25565939734861387 -0.19809956618792104 -0.34717198668955546 0.14149689874049692 -0.06226432179558847 0.5307024947875452 -0.09462443239923823 -0.059727479087732065 -0.35128491504225445 -0.1880671044567069 0.27193047513926216 0.10578827037731821 -0.2724122963991614 -0.1630975747577676 -0.20588883278479492 -0.1124031652921767 -0.09400372198165896 -0.19266752128910877 0.6882877312277271 -0.5266534451076015 -0.09450736648413677 0.0774431173711939 0.07171549594600166 -0.07563583173040131 -0.08471284697578202 0.08090168038798255 -0.2958776050137904 0.06543144426723871 -0.11302802166915665 -0.04946121093000877 0.04113879818553057 -0.21680098425941766 0.0793976183152563 0.4607301433551946 0.16397790421814676 -0.02679476911274195 0.1099454212250852 -0.15509794832365037 -0.13876009272018566 0.049718286808877875 -0.08027941869058812 -0.21393105700045756 -0.3140023329752392 -0.28301828454740374 0.26452179630435374 -0.08123198229349556 0.11084998779690747 0.22866972276296588 0.45793213752521766 -0.0974656385366774 -0.22220319323053375 0.02054649637188872 0.10581772579318378 -0.11778599021274547 0.06489321300261745 0.08109766179810841 -0.5941605151259284 0.3838648107107481 -0.4978219774419504 0.40593256558229607 0.1420381059889522 0.013061145819959777 -0.35731601053946843 0.29788397402603023 0.05308998880750102 0.07069829008674314 0.03614708134271369 -0.08617267967957098 0.01368459016995393 -0.42136484879527697 -0.06516390899211946 0.3494664789627157 0.07552420801807894 -0.0016392372687252313 0.4343613220484872 0.0040597545132416875 0.06473836252547138 0.009160662635882692 -0.05187076431894663 -0.43482995222117693 0.08088808278008479 -0.16903798728722835 0.10901251308682215 -0.2333394092940811 0.22024521325331486 0.14253927246533096 -0.418719085312013 0.4081167401482621 -0.3170509094418536 -0.14438006995209632 -0.39949868293176577 -0.17289549252149744 0.1739316523734921 0.31726809316284593 
all: -0.26434801702554733 0.4357235981890373 -0.17173674845473516 -0.1337199529531314 0.22899897774974975 -0.2812381460149071 -0.2773274185021658 0.29628637216783643 -0.1597762223582757 -0.351211924775392 0.1933404759074186 -0.40976052572222865 0.07241525208354303 -0.22070026508163842 0.0298836669740168 -0.058039734867074616 0.04543798617180479 0.3190727375166393 0.366609165015653 -0.22391280453356638 -0.43710651921027666 0.19603675885620334 -0.08708203364384465 -0.22437315451188444 0.56856726230351 -0.27354730335783517 0.050255390354611996 -0.06562623486596592 0.21065016874553355 0.3314359505831134 -0.25491802571153305 0.3633332030544926 0.2676945084889035 0.07380645183345307 -0.3756505764020498 -0.3621858319135917 -0.20140286485305411 0.20256325112144702 -0.1551985180835665 -0.19203499658439727 -0.03899238279171692 0.305478617586844 -0.13857321800446004 -0.29559725563012057 -0.21609779374530563 -0.43881376635215386 -0.25416535907258403 -0.17264211124609213 0.6891065097894681 -0.33764477595872366 0.392782324237121 -0.2618762877663636 -0.31245100730691966 0.34299140242660664 0.15641453680929787 -0.1483233380596365 -0.1938816732856885 -0.24487161732262036 0.017768143405605497 -0.24983084657868543 0.3628167762534022 -0.16198903386914526 0.1146218734302645 -0.4898583753999804 0.2772715233367568 0.42372713205697715 -0.1529516667907376 0.004576308097877912 0.05487215447223573 0.31498474163421974 0.0711730939837619 -0.15132505694266057 -0.12604433619777494 -0.2777824038445184 0.5088219804272807 -0.16731371031942543 0.5820803798328371 0.4990467510738144 0.47893303793365977 -0.25361688847254504 0.1038450151978238 0.18978427722138558 0.06518515189370594 -0.33241498277901393 -0.2910359298526087 -0.1151332929028393 0.362993386226908 -0.14295931903870768 0.03823784825053585 0.191688562930488 -0.34328556002406085 0.3106134798167525 -0.615884079935637 0.08755601085648587 -0.010554836609304081 0.09737124369434393 -0.14138193041661568 0.21953437927050654 -0.11268872016005142 -0.39009741005596804 
s -0.12472778810650623 -0.4406629594862718 -0.1157792281293112 -0.26171595338572096 -0.0922690520196119 -0.31080740689541214 -0.031143599507118196 0.004198599984678232 0.161041018794864 0.1786920910829924 -0.2551311553073486 -0.04933584203346006 -0.3075055729726076 -0.10709044498250644 -0.05121865965331407 0.1415468750044474 -0.10154437657770915 0.5226708643308906 0.052840206043788515 -0.005604716649338072 -0.08107078282547804 0.30354584215327707 0.07121624783804548 -0.43105819465715667 -0.42746054159026725 0.111287415849123 0.14157941668798493 0.07589030201468065 -0.3790520474753032 0.40016073893790827 -0.16583814205556932 0.23259283350779855 -0.07343939611793408 0.004624893899646872 0.04473310766670091 -0.08293111332698078 0.17659156809934773 -0.10125691095897754 0.2521294794545331 -0.4939104736734905 -0.01587826768735268 0.03129071542798466 0.17621793836751945 0.09572738129176481 0.14072517629335612 -0.1640595476170773 -0.11147419338812385 0.29519398374561123 -0.18672292052233042 -0.32453336072580924 0.12093024618559535 -0.11081183893822166 -0.09438830528417202 -0.13202472450926336 -0.013885378514676687 -0.16931420052725987 -0.1476133506621476 -0.18413615843843778 -0.12273858706856337 -0.06699126776582859 0.05847473683749837 -0.004919137857798312 0.12846863978058995 0.0047517015811926805 0.20997405416154755 0.1984409938241989 0.047752567481783505 0.11620889281042145 -0.030885465044915128 0.23086917807359209 -0.40742908158392865 -0.304674336687761 0.17084443469951652 0.04008380897619476 -0.3591072008948621 0.06728993325477887 -0.052091258403792855 -0.35512861380194904 0.06749848302818987 0.14582396770208844 0.13889866400715536 -0.14766150989079874 0.1392170564446201 0.015669804797317173 -0.08407780133776985 0.3515885147770255 0.29958077239558956 0.14205631629602408 -0.011275467639735672 -0.16233490356789845 0.00767635491890965 -0.0009832536219207574 -0.12614772901090687 -0.4582099459551829 -0.15067437086632102 0.20651915565846285 0.03364181576485223 -0.3484696388248723 -0.03067518964753689 0.2946106872311234 
peak 0.03012930639421977 -0.2941292912691333 0.3783931048763456 -0.0804887203856034 -0.28467568430155893 -0.18072184207762657 0.442923411293275 -0.29581609131962944 -0.2046090976497014 0.3667692163990779 0.19861232345263025 0.14958546587460608 -0.25438828697880156 0.31413480161626084 0.42177736371103586 0.3456694132658985 -0.07558058905731042 0.4163821018042649 0.3705338473103969 -0.4859947585378543 -0.004238645444802569 0.16968635513529146 0.38157242098482264 0.30736413239804394 0.02784342805557713 0.256733437550206 0.032283093830417185 -0.16017651447664255 0.09957694517612534 -0.20868963591666118 -0.15977588634811596 0.3225646833419276 -0.06589229970511598 -0.22804641270077572 0.27523062302107704 -0.5382599245399391 0.04542870411552284 -0.4780356486201883 -0.22752660981051254 -0.1465934262819682 0.34534913351935626 0.4390672763159802 0.048032014346788054 0.18451278784361264 0.3166118936758082 0.32967712397337107 -0.03582925811779694 -0.29535988928986184 -0.0893239281465267 -0.17534434530664136 -0.2123938557542417 0.15694611985070459 0.031245106707725408 0.12350373725965733 0.26036604860008183 0.4955571627926137 0.19487961735825368 0.14422618233570922 0.1112185251201539 0.020250946240440167 0.23489782459173358 -0.24117910385554595 0.03259159122358601 0.19143158855155656 -0.4377707373395708 -0.4705526239117492 -0.5797140061490653 0.3904345112246551 -0.09117830905807095 -0.267981797750104 0.28900260236455894 -0.08235350414577046 0.17775800715494655 -0.35767893424561226 0.3445324581214212 0.06578759270448128 0.3851594487640618 -0.06453607010601098 0.5002526022565121 0.29772100496801523 0.37365414338470826 0.35174877889145006 -0.48061445598334457 -0.47297448993570856 0.3639475726023435 0.1865270133044922 0.11509040484833775 0.03798778202034846 -0.4425074860866381 0.03624108296556543 -0.47984114851983917 0.41652523511338546 0.1867838616645539 -0.025893624921295544 0.26806216986202125 -0.10858567039717518 0.2801156196574735 0.05908752451393105 0.3627053008084418 0.2523045461613528 
you -0.15953740974443445 -0.52151872031665 0.04234600865522032 -0.36524390059329526 0.06012045048424732 0.202148388250293 -0.11434691258056161 -0.18011193144418872 -0.30457695040708616 -0.31492864667197157 -0.035215066331627555 -0.3832741679128287 0.19679533793593318 -0.2652038678675128 0.06289184346759841 -0.04790059350690581 0.07940434911051203 0.7185269082767001 -0.08025551335968989 -0.12732202181172728 0.05946653891993248 0.7545834404427098 -0.1407085989259767 0.21769340796412473 0.25884793798100303 0.29687904227889567 -0.5574017630835986 0.02934034916679202 -0.009636357608798652 0.3916720387013834 -0.1347969879227448 -0.15404962269690867 -0.7100876222915244 -0.5374210709542447 -0.16364998677048415 0.20500895095429883 -0.006077684260959715 -0.1929096167445715 0.12995122933488784 -0.20034020663517058 0.3408073954018714 0.4646971461139315 -0.00395554542586695 -0.337663435233648 0.1682787447325598 -0.08163045411477673 -0.36827021922908965 0.3918627551832178 -0.11520557567909018 -0.34467757389655945 -0.3307576145456513 -0.11524281942265761 -0.051499209813668234 -0.10589295265003361 -0.1432279961225098 0.13327942550041955 -0.24204667833143903 -0.04081872017053979 -0.31280587624118755 0.0122306970740133 -0.28217141790277844 -0.11744015871307739 0.12638572250392865 -0.510262902353201 -0.019924049399875483 0.056633991179675255 -0.013049041959212276 -0.1511949817740559 -0.10826088215371989 0.14405300102831708 -0.3855067671636883 0.31697413347966835 -0.029713950639433016 0.40832955227575846 -0.08934359788064869 -0.1736094787840228 -0.23930521004054234 0.08260579490782988 0.02737061006108734 -0.03230837398027813 0.3173236739877047 0.36059775838897146 -0.3503901034542551 0.06668991755007261 -0.03703824795021691 -0.10508621284623051 -0.12533876838441388 0.15087858299791296 -0.4031850619760344 -0.2506960096180398 -0.18284771177881737 0.2091219263787465 0.21710905166410108 -0.16488019764080603 0.09931037047842645 0.14326122773029865 -0.3461930880400488 0.4116546893956136 0.16689682398898717 -0.03131150888987176 
are -0.037866940771090304 -0.012539020515235842 -0.24746594824825144 0.16170942440043576 0.13124368999593325 -0.07501891605769476 0.1914119398060421 -0.4256667892944133 -0.11424178068498449 -0.26678199528850816 0.24717110095795064 -0.19418563646763679 0.2821389987955189 -0.42033475919188934 -0.0740872002158967 0.26029048041958197 0.25261271902649235 -0.117321110041782 -0.2558677810086191 0.28854737489174487 0.06862036552142475 0.32782420926804445 0.25071021731126547 0.4476581674553484 0.26172366465023766 -0.0014483898847993107 0.013964013399337866 0.4326481964888238 -0.004474941206637665 -0.014967068838789142 -0.104988279123796 0.1693744255866098 -0.4647927445564962 -0.3182327915852599 0.2787576506850842 0.018435891525392288 -0.021812599822171395 0.15071821881164205 0.4193348996126242 0.19139107787132403 -0.32710667046684994 0.12015517963682999 -0.0904826754834181 -0.031549417955279754 0.5433955096137383 0.2712220684136594 0.15847056847742785 0.6025116523268942 0.25457018937838205 0.007810957365856224 -0.3180107611161585 0.06468297171834035 -0.18545389460725734 -0.07120711626324491 0.04121986809396654 0.33152232575877566 0.28302587814713986 0.0640633271360526 0.1926877682122386 -0.40340541110073647 0.1522575396981136 0.19355902103221612 0.26603754044747585 0.13365332370147173 0.29493170109579336 0.34975825060184457 -0.23035374622073804 0.4484002845853206 -0.21849702981839503 -0.10591933740822379 0.1364927552962233 0.5398766300086242 0.15628595680711285 -0.1388455948990526 0.35084053969583695 0.026041388265038955 0.2022601946580087 -0.1642328961855921 0.23433287049211696 0.0012131909445770306 -0.2855638662557266 0.30016632031281265 -0.08403920456599578 -0.29053971235205267 0.3467880730933994 -0.387766368788739 -0.31702347110175433 0.3172328209413562 0.29886184308587677 0.08528642184434482 0.2494882978207098 0.4217316670454058 -0.32398419691201497 -0.11896813419081667 -0.3991965411651694 -0.08912069005655175 0.5436134701542258 0.037993049643312446 -0.33293726785873956 0.3848155542702698 
all 0.47409979456851387 -0.2821050333896088 -0.44709483934377814 -0.1352557478694966 -0.44000782404073124 0.5150529775405316 -0.5198167194787059 -0.185057851773054 0.30382719114638435 0.06979488509765365 -0.31520882072876677 -0.41624993783564007 -0.3144941722277061 -0.357242540853165 0.27585896477576305 0.018041706254074585 0.42698123708559294 -0.2691074912507796 -0.1739965607371755 -0.08593787436532194 -0.07216362462172325 0.11579329182578468 -0.1419273182971105 0.33832257258676035 0.37337314280140227 0.2111717478129253 -0.15780952892831368 0.36525512252969883 -0.20045016932825108 -0.06973896914111312 0.38888149633684943 0.036725764587342814 0.2302351086837786 -0.48313333788751495 0.10833373756018777 0.20009331464042537 -0.38743877911714053 0.1020229728648864 -0.12164984152412725 0.11034317998497731 0.0817778871606556 0.35483150984086137 -0.30327829521177796 0.03736433144645394 -0.1330412586735587 0.20911829790685849 0.29666371772438543 -0.20277519112100664 0.5029524270204478 0.2508027817009706 0.2141411183047288 -0.29917227147379033 -0.0849473315020742 -0.10602107353099578 0.29471862176558206 0.1466160518545231 0.1745772343523908 -0.24757306011321056 -0.20398535834254225 0.5004451746532572 0.1998721836131098 -0.35401884620062646 0.018955431313299784 0.01604904006972349 0.35912143476192304 0.2580311551428781 0.26132107892636397 -0.10151144497570147 -0.18874578497946098 -0.10913169485310856 0.13051568036614733 -0.14093772065308435 0.20436807909070534 0.5112523030729597 -0.3019358173571321 0.5468829702451966 0.3086864776537907 -0.2893445429513743 0.6201048495895276 -0.07698262318949291 -0.43640872951027254 0.45640605151912594 -0.4644439977408315 0.3295879318600229 -0.19431819941358597 -0.3168841241909431 0.29238023854045947 0.027646406360019596 0.07895564441581486 0.12481698092409539 -0.36577363394968915 0.5776750754713038 -0.2134525689788175 0.2307567373442324 -0.6845795114385167 0.41175107389903615 0.0005605048785724714 -0.04746542180983018 0.419727096126833 0.024898366694211894 
re 0.34520289710376173 0.0492268229713614 -0.09422519337576418 0.033778235305510475 0.18180175501723803 0.30282847326308593 0.27808531019215277 0.06990292335284806 -0.34040101652168964 0.4420607435253475 -0.25826180516253694 0.33653079816315695 0.12739800768491816 -0.5804292339305481 -0.011958313053155036 0.17547716153781398 -0.2038282488784936 -0.23428311347837005 0.13586588200678068 0.0645843894107822 -0.2172854813616208 0.2233481680164004 0.23681441129705116 -0.15531942741945723 -0.02272372568700771 0.028037676777423193 -0.3404529499413264 0.14805834945382768 -0.10557640334750495 0.19338271206095406 -0.0108247546293549 0.25986467170185396 0.3180018730001548 -0.5086652480308322 0.2922491815177832 0.37927270559335746 0.221109488478286 -0.2899761430554192 -0.21195461592238024 0.3293279083730296 -0.27559845325890214 -0.3850122859022651 -0.2776202210746502 -0.1850944657273975 0.11069014219959106 -0.11396427948240333 0.15701952338593164 0.4356830172124218 -0.0011268662356607867 0.01124278987630304 -0.009490825388561368 0.02871749498633519 0.2294650007850828 0.11058273539491122 0.5192331929369497 -0.10624474230969216 -0.40527518606653445 0.36973482593318885 -0.26270685307521247 -0.370709826556582 -0.22648840867743367 0.05563030812804399 -0.24744080425066195 -0.3325948289047117 -0.4372611897959546 -0.15984203242207512 0.11424517329454181 0.547322333203476 -0.32931976554321923 0.023272089479423323 0.2451525204237407 0.22748420850601334 0.6709158465702768 0.41357146500131536 0.43159829040267017 0.4291172034139002 0.12490121919309316 -0.09162608225835453 0.2759529702894425 -0.15217613669091248 0.3106095680912379 0.08627253014965233 -0.06654393594429842 -0.35011243284310567 -0.15986463887695146 0.27045610573619017 -0.38249061007452045 -0.16220334957921634 -0.09316418390525873 -0.23678317460230744 0.16987603358067752 -0.30113817556801503 0.08820386696981077 -0.1735163792657079 -0.09956265042978407 0.1933410203436555 0.11490658215076885 0.1617914483228306 0.2732572060081847 -0.28179478825988474 
solved 0.5204284751553042 0.28147192439352897 -0.041461792319652205 -0.15719087954192879 -0.3362326804210092 -0.07038112941600809 0.11121221227679108 0.3743568602790659 0.26608198673247424 0.2820045272011146 -0.1825562948844723 0.04407029024383434 -0.301156800861068 -0.13696261200777207 0.3469197163153586 0.14132248511969558 -0.3380405318730462 -0.18922118614091243 0.5196292059540992 0.4791456565232188 0.051229270091883244 0.2435784125795216 -0.5174691782708134 0.22662507185883546 -0.38818061294950773 0.31380074852079987 -0.06438779014092989 -0.13484050195077513 0.4053634480176707 -0.2438261973994581 0.4172316472384471 -0.19209069100994397 -0.33239179887541503 -0.08712198797513708 0.20061704518957824 0.07505344946262779 0.5393064019128541 0.2571785761405515 -0.10245377242569463 0.6142391538307184 -0.05132204236309884 -0.12610823640906088 -0.4569013980905604 -0.0883121287408648 -0.006445083082730091 -0.02803674545010549 -0.10956809566776304 0.08759150553616726 0.06044271463800973 0.2596388087940215 -0.05482381687465307 -0.19219183213720487 -0.20763925789702273 -0.1007513603637331 0.043384730998475514 0.38713454682016313 0.38727824699461705 -0.5490008717590997 -0.1493223562787745 -0.33681082046079114 0.37511234662743076 0.278433680222622 -0.00126887721664376 0.22826099334630212 0.1160485962271855 -0.049627346364455704 -0.4247829143594461 -0.22534358938830484 0.34473459444753596 0.07243240197850906 -0.19340446425687108 -0.21058901286062834 0.4781382562341592 -0.02468438350316876 0.3983131156962364 -0.2196904795659444 0.3746587874736264 0.44119459883297696 0.25537903937008466 -0.13348353987723174 0.09152475090787049 -0.3816899835106232 0.1807323099250624 0.18497148225058765 0.27113483886304723 0.09978091739762057 0.13390964375081502 -0.009248102682576843 -0.2718656031096357 0.27577894661355146 -0.1890463802416671 -0.28365904636685557 -0.12235973930580954 -0.3527654397922704 0.06615444157035028 0.3042993845064592 -0.28489002954626425 -0.1498781355945677 0.5048274580645575 0.46475520497661044 
r 0.41490274823101636 0.12864746585579986 -0.14178198797004077 -0.11311985991650467 0.3331277045685936 -0.16519072114002695 0.2640324329760703 -0.6173272138013343 0.18194641465523176 -0.280941139657565 -0.07280153127814712 0.22473804833021566 0.20119161898651342 -0.048096682658836105 0.3488731319399841 0.16810475800486965 0.13610589578282595 -0.1988088279069476 0.42084692617555036 0.4492221701389329 -0.11637370596261538 -0.05489077828186632 0.28958147798701245 0.00779845286623209 0.04003017733965372 0.3380131428653526 -0.43571984208244074 -0.35282950295094273 0.4997293579527259 0.3093279295069088 -0.044790037859039705 -0.34459765302272843 -0.2698334986883678 -0.004752909658838714 -0.38575806598856427 0.0441758795795138 0.15167128841613625 -0.25642337905638124 -0.045857864914809296 0.12845704643253936 -0.29593766350308737 0.3307731279894916 0.36508097400475514 0.17448988429527276 -0.2811534066013712 -0.20074448482371945 0.23181498605542353 0.0826383810248714 -0.05613664383036776 -0.13058121124489597 0.31020517054479096 0.1714874755823496 0.2326680805522465 0.2828140474856159 -0.0022571314875410907 -0.3455349847298062 -0.40260027794380904 0.32523027459570636 0.06274463712912147 -0.07977268343137366 -0.16374342656056398 -0.2838235487702586 -0.5642886547640441 -0.3471356700741829 -0.3534097207384962 0.0486577418409186 0.30117100845231126 -0.26628887228578163 -0.2933717304332875 0.05351752591906042 0.22039341018033337 -0.24305374343889943 -0.2055482394335355 0.06051132716626357 -0.10181189200761423 0.039233054570547765 -0.16635664084211602 0.2992555080800657 0.41483139538099745 0.1533940480892073 -0.07958565660282971 -0.3259902965666394 -0.08174591247514151 0.2785498683459912 0.038279352163261185 -0.1022415415554069 0.1373789910846988 -0.3869380919568712 0.303421437472936 0.18693880482154818 0.326015674740899 -0.31327093330136946 -0.3610559237762807 0.3307993651953455 -0.568358651423407 -0.30323624454363624 -0.5542099156505794 0.21005301366122178 -0.11525749005173729 0.1588804246014184 
a -0.21353732387014712 -0.39490554469346045 0.23083568153312833 -0.313120484428735 0.4356092384487819 0.3007656280381551 -0.40514586735930136 0.05847346384275072 -0.0853885371340528 0.3230818421172735 -0.2927474718180575 0.03392206466036375 -0.039737200524498056 -0.4147713475327743 -0.1506966530667493 0.2728797087896679 -0.1541992630645934 0.2269160469290801 0.1106311825299239 -0.16874098456377246 -0.4608481503646533 -0.12581458157934455 0.04963869797957386 -0.2866440633577522 -0.13985577554896453 -0.04580101067902268 0.43252063200185126 -0.10443169395943977 0.14845726357802477 0.020042658250595945 0.03148487293709109 -0.14786740116973127 0.4262731180484544 0.1014615546945858 -0.2363137603141251 -0.06307177119607091 -0.025623484396427275 -0.3580905375443564 0.2878047252501132 -0.26044161406398203 0.18584149754627238 -0.19850661810515835 0.08368154642528161 -0.01937231136258693 -0.029293010791043884 0.17965612276218812 0.13126195813021324 0.31989379649656774 0.01981671059193734 0.07974504099532101 -0.2370912721099913 -0.011972954476313873 0.0904730656660836 0.40208265279352007 0.07113850153851134 0.07453104319490414 -0.11527932685001863 0.1581277907467976 -0.1166564512748848 0.4137387410545648 0.4129594886466137 -0.08330907813976166 -0.42465377416981737 -0.24384303906358512 0.050301424890671215 0.15041702828881595 -0.13694221295568984 -0.09898123307448312 -0.14901133762535756 -0.13181175857780794 0.002451966847317465 -0.25067080702147376 0.02825337802405521 -0.22513339050890294 0.28829092609252915 0.2640713462686563 -0.42993828616545315 -0.17938468870615107 0.050261918385088686 -0.1520939814237611 0.2685796451415188 0.1411892483396486 -0.3170384450584057 0.14377137578859267 -0.32155673678304314 0.16271322142079067 0.15977514876987275 0.2335833942675185 0.16177051199159898 0.18213293192945398 -0.2780243639821308 0.29681536671374764 0.3509278047451591 0.014344179583608455 0.045948965966078295 0.03235392813796486 0.0307203885309767 -0.20989954374089334 0.15300899961639725 0.13160796431822416 
to -0.038721938016228655 -0.048139274792076706 -0.4623280701117953 -0.28386561258285514 0.30888903425393444 0.2870821417338833 0.1054349998627778 -0.10373832183907927 -0.07460081143562818 0.369577320429948 0.1117477921906733 0.11854751555331536 -0.21932064196392248 0.04963968181657174 -0.1523928638567572 -0.20875077315208834 -0.3692483152470044 0.28792480163895146 -0.09485588155381951 -0.3493716515819524 -0.16672509979700267 0.12374767206475559 -0.2312759593647783 -0.17345836139970536 0.044882024284005624 0.06756904316038562 0.0658387721316972 -0.051785625804145835 -0.35540082906006243 0.3345690273645575 -0.20706785652193652 -0.16353967508743755 -0.11772556142630772 -0.10975343818354726 -0.26742328097880985 0.2931861564167018 -0.31315618657588984 -0.1626631241195297 -0.12116952956253894 0.2259532986512672 0.2882667284175686 0.014237300001325438 0.4911096289873542 0.14242028248743843 0.4257812588010468 0.08028920779973625 0.4928276981712073 -0.16809172639610742 0.12230706567396527 -0.21343173890030914 -0.26409600654446175 0.07610637981921312 0.09357071343633959 -0.17873264063057948 0.25913145866398696 -0.2742116833749719 -0.11293356069429711 0.18006789521261926 -0.1098149729957458 0.013501218955964763 0.11900738805778678 -0.3457189834003399 -0.7930203103112594 0.3261449611687695 0.017980030436943597 0.3890465169688547 0.44691333889740187 0.05139573109234352 0.21365651842029534 0.015342936905126954 0.12269979465136635 -0.12205915429224778 0.17510354464266828 -0.10837062330238217 0.36007364553199583 0.18815459855235275 -0.43767618961901505 0.13825532228233509 0.37678166838396376 -0.04807350566451373 -0.24017754449460682 0.3638658010621651 -0.29711044849501417 0.08176642732705541 -0.11316689389987789 -0.15288950546690866 -0.12395442290337738 -0.2021744703130727 0.06321119815005999 -0.5762590753835245 -0.018433395724318874 -0.41477415046331423 0.15290221767433615 0.1774715147528864 -0.38758464658672676 0.0882980475193817 -0.4004705818212257 0.3377497073038587 0.02751557869487639 -0.28454521814969647 
d 0.3555066612987653 0.06507100658572032 -0.18752327878143818 -0.329536185875525 0.14107276199271082 0.2698710552806806 0.45925693357124864 0.4880171313146797 0.04510095922607711 0.014593713557890686 0.08900445341737624 -0.022338067067337368 -0.3051048450559822 0.402713894180104 0.38487130742664954 0.4538969442406417 -0.48069570922685695 0.2562065383489821 0.40115195814288873 0.21766004625006027 0.02309891159793644 0.31835589967484706 -0.24579475503654402 0.21801569562112103 -0.021754740323068147 -0.1898080554646424 0.31433673237783494 0.4030724303983314 -0.05971885072054388 0.3204544521281991 0.39164045702983447 -0.22151206792036432 -0.006559785428588314 0.14479367956622294 -0.3982911007270886 -0.3275782523466869 0.26253396653778033 -0.08963679780690606 0.34021053589050676 -0.33029868702302356 0.3636841074943804 -0.4528063563706487 0.39855069351265493 -0.059856758834894046 0.23469603317153395 -0.09779471572170444 -0.2574715751354441 0.20676340781680952 0.10508476411704486 -0.13980689997289036 0.26397177243665676 -0.04256185485603004 -0.07693870769168142 -0.052734074776804245 -0.07467822053387504 -0.13668179260717783 -0.4691925039807764 -0.2634734978323474 -0.16640320335887107 -0.35802414889011247 -0.17453381785056438 0.39322441236021777 -0.09556351222221157 0.3957374976557384 0.04141913458555775 0.14259957461421977 0.09673450598907102 0.09649824752762214 0.20090563041218512 0.1148590048941369 -0.30260473576394403 0.04251483791919221 -0.23726379504023537 0.07843560678788988 -0.2637132910283655 -0.32861240526883756 -0.5675318997252566 0.28964856203281053 0.1419932712900212 -0.32665411713319825 0.061213035668622844 0.17275190453301506 -0.11183196143665458 -0.11890507858300894 -0.10582922501039155 0.2679401404992014 0.2586476376883167 -0.04556158307256564 -0.26684423513292405 -0.11048896903622857 -0.20158794127776652 0.38308179666609954 -0.37252710766051417 0.03894732541742104 -0.3080049115670644 0.04109528406290732 -0.27307336633689544 0.07171987731750995 -0.020222929694490265 -0.19547304242872943 
i -0.17167248157790757 0.19326164749612781 -0.2672675264030242 -0.3451970724204516 0.2521356661120103 -0.21467227108611678 0.24212444061815516 0.19668254797535328 -0.01711591684497143 -0.22380316813999013 0.349832641705708 -0.24133478209633458 0.41238000849990863 0.10358667616395918 0.21297352391206745 0.14451893980978023 -0.0780477168949631 -0.024929183914330657 0.2642704964804483 -0.4622750846779746 -0.18870440595115415 0.10093766670383075 -0.14166436961387413 -0.12257412636046125 -0.2980671205610084 -0.23809859149440538 -0.09714837819012125 -0.3183598562417305 0.17287197847385266 -0.6096756261441469 0.3510035039057192 0.18152076466913342 -0.1033485393857987 -0.2097667066133001 0.48475491996179315 0.25789474792699246 -0.016515910228178818 -0.056371922229640124 -0.2696933970405343 0.005067187400509016 -0.1555486590431701 -0.13507979024139263 0.23431133477881622 0.20261321638569094 0.24359085945600387 -0.16621923126251129 -0.20723336621960417 0.19783459302612594 0.20686445233131667 -0.07698418581893351 0.27096908564823124 0.36237623826402987 -0.006415259661219537 0.22212375798825915 -0.10106451506416707 0.30063606466072146 0.08331556868781936 0.37812373998494214 0.15643075057704892 -0.49801836421053197 0.1687450228931885 -0.1018197252148316 0.05134584268150125 -0.15857751236860038 -0.29306875659352644 -0.1530419323868265 0.19684572557022106 -0.25125444881770986 -0.15460429409731044 0.07666583095730353 -0.4399619199799983 0.017702223054515912 -0.06511260801662322 0.08083895286493402 -0.2303753503635555 -0.02928210759113702 -0.02035471696955539 0.10178037223061563 0.2872715882302099 0.2506700623477137 0.03800239550178777 0.033336921621295736 0.08776855905707656 -0.2943972632790564 0.25818673985859036 0.2831977709377999 0.12680481759814838 0.030385073912995098 0.16576566307930823 -0.2543125458926329 0.07765409902480361 -0.21208703096849935 0.03691293936637908 0.1175266788492229 -0.1184598462811393 0.48179683518302263 -0.06537725170683195 -0.40682679279067685 0.05615269065003664 0.24424134515682658 
e 0.20221905899844494 -0.050039654750453584 0.021426966065749058 -0.21917776864730584 -0.117874003018479 0.05198531268893763 0.2677382973247169 0.029311914462238714 -0.029629807094583113 0.0327608123545213 -0.09110200635144532 -0.2560039889189666 0.1457916051236899 0.027344024698486992 -0.16105207645039732 0.4650699581456255 -0.3887040148933997 0.09150787805289687 -0.17577151521752848 -0.3438569494563685 -0.10668703951553653 -0.23129281741157187 -0.2474457876820309 -0.20275078238792343 0.19069779827758668 -0.27454705356214093 0.27038823504337 -0.6237076689210128 0.06784327213097328 -0.13770970369990065 -0.3999689196274293 -0.10074253866411943 -0.5223291697225746 0.23409097090202557 -0.1671143746297319 0.08400528846667096 -0.27121836858138637 0.3403046025707665 -0.3250252347461397 0.055804593768088384 0.39320692933991575 0.1322675740321999 -0.15708024765093231 -0.1514393546338656 -0.1284915165224797 -0.06837815861282456 0.08640413239932854 0.3957209323761316 0.09557218262532136 -0.17050867777638815 -0.28515099421336426 -0.25023864828838266 0.5132656189021338 -0.38544921644110647 0.38574503475895633 -0.33619342159148924 -0.26457522728692573 0.3870216801848307 -0.06537493225370067 0.33698859044743806 0.10791227907030145 0.5498762973450181 -0.6399932439902191 0.2584854496254179 0.2679060791461837 0.029482317751851686 -0.051145176512606604 0.16509242138428656 -0.16245627680539781 0.20740535307744742 -0.3373443730144058 0.1666984534142203 0.03683052655008101 0.1559592319594125 0.42565736642727187 0.07832544244882932 -0.13976787791990253 0.09200677099449953 -0.31428611819279956 -0.0007645990823224036 -0.08279561609035885 -0.2051970655055992 -0.27202844775017787 0.3172665023092855 0.07836579031582191 0.026933324861392723 -0.15061299668206413 0.3664481670817444 0.4594418717233889 0.5197171771506635 0.19992115120370696 0.08516287152046666 0.15613357511978376 0.0067048697005654655 -0.2961411804839997 -0.16323713296732617 -0.18163251954461748 0.43137488167750637 -0.23637102666968599 0.08397510603749354 
than -0.4486280492479185 0.24893200541741187 0.16720849881400962 0.021668685716216832 -0.11789192853644223 0.2586582365340151 -0.393837282894826 -0.4559449159070719 0.019348074987341573 0.2967308877262936 0.5348273989564862 0.2582452762634519 0.25001492854676793 -0.32126973221410626 0.03180765977214784 -0.4289426765967198 -0.20968710447784186 0.34332321870458166 0.1412823729317234 -0.11874591501710414 -0.33135008799713006 0.267666188295156 -0.143571204157061 0.19182070682528274 -0.011695455888695923 0.14817449885504344 0.35877435183462053 0.038140644970724655 -0.13606725019860197 -0.550974858428887 -0.004100337788783487 0.29431709427574654 0.4209532780501329 0.2053444438470062 0.47253044260194466 -0.07079795319304617 -0.13050871399604622 0.19397074595809163 0.03766166277278476 0.31464625493420806 0.6346471099775159 -0.14769566102286602 -0.27952685555412327 -0.014757494256930067 0.28238465103814203 -0.375512600009457 -0.3868906667860272 0.4453984766384381 -0.31707888118756505 -0.06765083898216336 -0.2065508791277174 -0.32888758823004116 -0.14751289681001062 -0.3594588026589849 -0.3914518764591342 -0.19704882181679753 -0.17174234592810864 0.049915969377090884 0.33771919475521417 -0.1124743671635697 -0.39144811554520076 -0.0745830380310473 0.16523400241073471 0.5323407745498082 0.3273526041621988 -0.07817643113273215 0.20606905090488545 0.06497417667823446 0.3691517451463141 -0.1194981491878715 0.1588394912602325 -0.27549525970316624 0.4289848091566806 0.045284183025736204 -0.1630766571648114 -0.08060754726867053 0.33318856502554667 0.37494974876068965 0.09787137403128111 -0.32894369513844096 -0.11552126380421997 0.33533873138673226 0.5387455477283227 0.09542210965952957 0.40915911338694116 0.32954069922058793 0.2028302675728642 -0.18486989327397496 0.3826453999842787 0.38462402101842963 -0.11205787337085556 -0.16078710517736516 -0.10841404225889956 -0.15493529638947257 -0.011178677181846102 0.03772341153566173 -0.32199678683057786 0.33456205880519646 -0.27017686831762294 0.2285218570717216 
fam -0.349461267228003 0.18326503204635586 0.18168103033142657 -0.28285889414933235 -0.44467781073622675 0.09456801065973512 -0.49884713106872797 0.34609085441166243 -0.3224568697604467 0.14052671664245422 0.003552669711906216 0.6102276219119748 -0.13513604860931555 0.03343981578678688 -0.10642675934109949 -0.18395848652292981 0.018873736752723302 0.487336827396797 0.05036857864439671 -0.31779646780376863 -0.3673455221980145 -0.49780875611808 0.2082655843179051 0.35900788738822165 -0.12200123844925997 0.276828517895723 0.0238826405743996 0.0007716287853276743 -0.08293186215920248 -0.3181834702031779 0.041080098522349215 0.3178144972235867 0.4832799620235293 -0.3239138369904593 -0.2569149306980711 0.2539025920805213 0.2445673909329497 -0.4799443412801211 -0.03911981901084906 0.18309068049607657 0.29742214651506704 0.37047019130715925 -0.24322984725018615 -0.39138516907586557 0.12265890819282022 0.25493011740710425 0.1345626152958856 -0.20272925883807116 -0.010422904525871215 -0.4194748849116583 -0.3626394565085108 0.22297034358408824 -0.15583281797836124 0.16569617068926465 -0.31954216375942274 0.2832704974764678 -0.059439148583025486 -0.007864526318084042 -0.29356631193868643 -0.06929636693063462 -0.4329128054119104 0.35347092806271796 0.15221248470988658 -0.37398308059137464 -0.4746293727171798 0.09433766997482053 -0.3877948730231991 0.07575933255051671 0.3427710300690898 -0.008501456432331463 0.055751065615728325 0.41146728766884644 0.5371275652601016 0.08870197066856547 -0.32152109824037156 0.2660883327668723 0.1171902602825408 0.21163587753566712 -0.41689338489619915 -0.4210717750057926 0.10528700929243429 -0.05694270101482394 0.3382654869491524 -0.07667290111831068 -0.3473097641255695 0.3527875978413082 0.09457788937755587 0.31395901557418376 0.4127387936518214 0.016690689557040755 0.22797307427989774 0.4430682182723731 -0.3105615304466881 -0.052818497021649514 0.15130228194665052 0.28499753155143714 0.44907054379318023 0.07950451326126141 -0.0741968234925574 0.26518261806222176 
ish -9.90686685234457e-05 -0.0012556712485734464 -0.40929162790866536 0.5801787541833119 0.2485414219839854 -0.16683367577954566 0.1008697697444462 -0.051735001218472826 -0.3048214909766352 -0.36488958777942443 -0.05493922420856254 -0.3647166360263181 -0.3051777033310843 -0.36517651902534687 -0.44930217859662935 -0.45365332259721663 -0.28076764437279733 0.127441662573086 -0.18778538899492525 0.12722863851570582 0.4916193255412626 -0.10920104661063115 0.21587605560510437 0.3297360763327406 0.4102415950920074 0.13569534869770272 0.0446449826752766 -0.11964714366482748 0.18322869263263297 -0.4501774292142963 -0.4607173657795487 -0.19672150421954487 -0.3264341025822313 -0.009226317134854759 0.11625068174054802 -0.0037874722269758895 -0.4377082152275265 -0.2963376529154082 0.4327523876732955 -0.020371543696154636 0.005912623523762789 -0.04144670469306361 -0.3459212697953018 -0.25272187692404957 0.2012923132148997 -0.12096192238304546 -0.046136820337649716 0.32979058487185414 0.42975180963270965 -0.4363499435610964 -0.02239026646902648 0.24558913409446312 -0.18863430664219183 -0.13307913077398978 0.10393062584048113 0.5273089004046296 -0.306445406542392 -0.4059817020321803 -0.040051206671510076 0.1883826800841138 -0.10169469785810434 -0.2261292176617614 -0.4348060887708006 -0.29953627597395793 0.12514691005410838 0.04371821388081627 -0.28106356637484464 0.11771664739078887 -0.180669797000957 0.20175616829335563 -0.0774866148140819 -0.4312336668972668 0.06506831681177201 -0.16559361886163917 -0.4826785143828557 -0.48831724857448505 -0.2854930683755337 -0.08323213756374662 -0.35204886238825783 -0.24569311122933568 0.18972015237162299 0.02007373020686573 0.5083594918360146 0.4436245210749632 0.5292957786314414 -0.4690516508346224 0.35694310606984336 -0.232757507635849 -0.4613961594572527 0.3910315574367743 0.3064099376509267 0.007494865505101547 0.4548346325886907 -0.036092030471501405 -0.2887620171312361 -0.33485581383173046 0.4574475260650935 0.2065739247957298 0.3110313557279282 -0.08916344986878338 
? 0.37046716078653236 -0.04932027785823461 -0.1674969991754634 0.19899776558948107 0.17544437130316023 -0.16486365363850583 -0.48773055364578555 -0.3444155482440213 -0.10445903009840807 -0.07758877797791533 0.08332606320911162 0.31614371496720417 -0.008892578449625588 -0.3525960364386004 -0.020540868372435604 0.040344407100036825 -0.28420521151626293 -0.011052847781792503 -0.28777308284395087 0.18562391114218868 -0.1579645963210061 -0.2280247310125657 -0.44127009780193305 -0.09509898557634677 0.4411197691017673 0.27939435695285586 -0.3265267720625463 0.4165261351513277 0.38995734166889706 -0.4388614470591467 0.17567968618872729 -0.16163957152898548 -0.20713042181359248 -0.0348369390970187 -0.406654194290452 -0.0016891217671102655 0.4048821385276889 -0.5410800346437954 -0.23876847041185306 -0.10974956859172225 0.17007418507435718 -0.05988939720804573 -0.30852228265747245 -0.21785825157687827 0.5977035119467836 0.6270443172455821 0.11901022174794 -0.1334014812471946 0.007874950322592344 -0.28926341517757975 -0.17706789803967693 0.1193997030373292 0.06417093134200927 -0.3479587384211023 0.42301419527164885 -0.0697086459977973 -0.5803124053671423 -0.0664553164089262 -0.575557313579257 0.22030992391402024 -0.031769640911385386 0.3379109006383883 -0.05346692213360748 0.29642709443357557 0.3148619221496117 0.31526252694513857 -0.1611856504523778 0.22697731134045346 -0.3402663055335579 0.5419307262522828 -0.3598963941332193 -0.21147258124286955 0.062326084581218466 0.06557517967028062 0.4294640900569953 -0.15808409452529948 -0.27362780639924583 -0.08229915209481793 0.15488505262250654 -0.1924218332681276 -0.15515732464505694 -0.10404955858934095 -0.11191292571902751 0.10796837852587929 0.060088960162603434 -0.283605535918171 0.16718442033370454 -0.2772734840579396 0.13909587866685733 -0.19450536861795206 0.21355618954343183 0.5533975812501752 -0.22636104226685544 -0.005087780811446613 0.15511775953031345 -0.17564345035405673 -0.033870595279679346 0.0911759638105906 -0.3785903610869191 -0.19891778810827568 
es -0.09806545946975066 -0.3828712254275304 -0.1728458088875083 0.08972317227521905 0.25062582719288534 -0.05046143718983254 -0.45298662846054893 -0.259004078426026 -0.22313289373329714 0.38135077708167475 -0.35809388983405605 -0.5209254239476651 -0.07090416907281274 -0.20232135394890624 0.10201205342805014 0.2291734916167864 -0.261956871391392 -0.0358087683365196 0.22334189931167528 0.29750367893777335 0.1895736808343318 -0.31574033691813136 -0.42229747393156153 0.24261006552967368 0.3430710422137793 0.12677842219796362 -0.4281112872163829 -0.20267834123712594 0.17921338437829562 0.30016166539101813 0.22230702358575902 -0.5044852717338156 -0.13003463353935868 -0.2955705244061909 0.20553434180276117 -0.061786847242626855 -0.3748630849244578 -0.15556446199629767 0.09998046188887577 -0.1878174162567186 -0.013440115212031832 0.46610377107531503 0.23226949548454298 -0.33707120672859675 0.28223282723304294 -0.2571735656651713 -0.13115294397016677 -0.03548364463993856 0.09571103096111731 0.18368704060248187 0.22714363416588915 -0.27951904856257986 -0.29147929876488016 0.13411647625274792 -0.15644810602733086 -0.3347467931524216 -0.3708984177225018 -0.2327634754789109 0.11017139012405706 -0.3257102473682884 0.17907417584074412 -0.006905139701903849 -0.5607895810214414 -0.3941219622775367 -0.05221998944490448 0.11062577001776708 0.03485629112062309 0.12492967339767815 -0.20620096889619186 0.016872872773569234 0.3588803374725365 -0.3832756518578466 -0.2547124592375341 -0.20266351329519003 -0.0012501671096720873 0.23778095142766414 0.2678289545666065 -0.333104251868397 0.2668824692739291 0.028119424604013434 -0.03146852981915822 0.39682487728506194 -0.2680838921239582 -0.160249973447395 0.5945795576194763 0.310021910092709 -0.07753319676147108 0.13285162036540754 -0.20946327839029022 -0.3472537129657676 0.13704396016798087 0.07923080121744797 -0.5608734545871787 -0.3281336472696115 -0.13438258061853586 -0.4693729679248275 0.019595683325508463 -0.3356535949020908 0.2164526850907289 -0.18750302974004993 
ol 0.12532251681987483 -0.12382151651675428 0.022983982994789365 -0.09972708673255208 0.18840238360318323 0.022017919947538492 0.33884686691795957 -0.16342720764521015 -0.341886600915536 0.09468925007726958 0.2268647018260408 -0.3762815649111911 -0.36364564308727654 -0.06972099870866187 0.16447782426952612 0.11412449229149221 0.3376844101724769 -0.18473068348721966 0.11074862838910254 0.32335082039550683 0.13421410201728168 0.05947775206398881 0.4231377065257107 0.2785268473592823 0.27257142271679735 -0.2009458496736073 -0.1530793292307156 0.22267598343620879 0.3501679619086286 -0.21111747116269003 -0.4853100305396153 -0.38651964310858067 0.2614143410654548 -0.12378743674899628 -0.28588103472071974 -0.060357526046874804 -0.022084902688552455 0.08815873637957439 0.1582615377704438 0.16701885325949117 0.2611482793938019 0.12288072548944143 -0.25889676014636526 -0.5032330289766681 -0.10744945698760795 -0.383244748087745 -0.036005178148678575 0.14697398418453575 0.10836104885740083 0.21956821717309363 -0.057940806910511095 -0.19692254607756882 0.20252188610904745 0.2568464523344349 -0.16537391353076533 0.27741261743968615 -0.2853815113915534 -0.42167886527112475 0.42061702353986374 0.47781920298486247 0.20591602683731752 0.06262534255563909 0.21798177958897386 0.09735127376122472 0.061491952223508534 -0.18454216726631686 0.030933624143970127 0.4260349305548112 0.24832389201037447 0.09003191394287638 -0.04353293902578046 0.4094119254983303 0.1905222033591484 0.16629093859097385 -0.014243328778361444 0.498739456331081 0.1943451854481004 0.20712847846395077 0.3244989646516927 -0.27568851306115616 -0.3644962562957963 0.2483414200607897 -0.10637835297636943 -0.5262290672976523 -0.3929090673562823 -0.08510775865335297 0.2108284535922913 -0.17492538617979186 -0.3373150503292043 0.22619658165693024 -0.11824152359593851 0.28790990156066565 0.20202376077112666 0.0036539841326243307 0.2707987322737745 -0.3772167113950262 -0.3453157545997316 0.26903762899859834 -0.1361643967432707 0.08829367595918505 
ved 0.35582232130294833 0.5952475935906721 -0.361557532721062 -0.12008548459118117 0.15510178772795968 0.1879641507851697 -0.5522074999183864 -0.3770697016790333 0.31756368309428834 -0.4359084229373074 -0.369784542772134 0.19061853305672688 0.07690012085463925 -0.6276843688785694 0.08082035991379233 0.19144138318913745 -0.05097821399824879 0.20555128018842408 0.3764537869066904 0.517340040584182 -0.6005163860013564 -0.30375310419204127 -0.027961368794089503 0.13614323995801703 0.27887918802786116 -0.2801934526015763 0.07574036667613085 0.18116544731278067 0.38692195369353516 0.04662216392107445 -0.36599036963282694 0.02520262067941515 -0.4388558779390336 -0.3699870004739636 -0.18352450395765707 0.3674973879995134 0.39893719324777577 -0.2835070010676081 -0.31277395424676957 0.16630226175740012 0.06805021650819496 -0.39946566378455545 -0.35681045323977334 0.03882925874179932 0.25640993882032337 -0.12386286777924324 -0.4066620874620884 0.264245527556161 -0.2743371314717957 0.3179031935255093 -0.47913572813380495 -0.08958954223706549 -0.3006847813754008 -0.2733669685171378 0.4948096616404635 0.32525190897126527 0.1434941717947803 -0.22332328784471397 -0.290081102424749 0.46365496653649774 0.1488789139024166 0.22740393664650307 0.16838308929694928 0.2023999383984833 0.1521916431638454 0.2103595410837661 -0.41589361988653345 -0.40402966279461655 -0.17943621053213585 -0.24634146376555505 -0.15577783784476462 0.2752842752339039 -0.18617682373709887 0.1529534663553767 0.12456190625996555 -0.44021104111827636 -0.22268435052579413 0.47528347877074295 -0.011849717066907517 -0.47607005233437755 -0.43837758332542714 0.0050826612081229655 -0.21280998658403913 0.40632920092601593 0.5473285712049305 -0.18336595255757904 -0.06642918739007395 0.41136635370719554 -0.15795620442516933 -0.42715988844536346 0.06760261509159932 0.23494460192689792 0.333243181386549 0.1629753367980606 0.31409403563851024 0.09454304340754309 -0.5429246816276693 -0.1342368414022854 0.14480598236632508 -0.32002845804112706 
know -0.12223041138306978 0.21730092866857456 -0.44655946207347214 -0.2484578518410835 -0.29208424639012254 0.47219156645053256 -0.21032889063604543 -0.3643168986312279 -0.33253044103564605 -0.440870977620398 0.36208572786196863 -0.44605581149338425 0.19879724600132845 0.14203484346810488 -0.3646990008030925 -0.07409610584806876 0.12489266551831128 0.47139061160910484 -0.3396559878252138 -0.35290676189411335 0.4946745113769236 0.37109055867788904 -0.5446907041856041 -0.1288563199038879 -0.247122189549549 -0.49346755855664576 -0.34324256535074177 0.042472201247844704 0.03493914186752692 0.31343866184852953 0.48970499957686686 0.19432744049504141 0.1120672204305552 0.30139661126793893 -0.28975494329150797 0.2933133161531237 0.24761689192775346 0.16003294031901305 0.18187320572474255 -0.08690904475387187 0.013075177907460588 -0.07162552687299281 0.44778783454381776 -0.3314011140207921 0.16682043198008953 0.33600331766971825 -0.06512592304433465 0.25840267628295494 -0.2055754925663372 -0.2208844836543079 -0.13329814031486426 -0.10050707669438169 0.21334643760843117 -0.40120751684513994 -0.058387353076547605 0.08925018170061676 -0.28062383495694526 0.28885708091461537 -0.0951764887643121 0.25829502121476267 0.09339258675854029 0.21288697028133036 -0.3001282122323281 -0.5343327755137727 -0.11467668692485739 -0.5528146739250676 -0.10974350942248744 0.43761252166224734 -0.006733522904963247 0.1799074705215022 -0.09947616169949348 0.03946787974614373 0.4280812329070531 -0.18837424934852215 0.3125546789276637 -0.2682647803517004 0.13463695930382175 -0.3131330444628179 -0.43565042543335675 -0.4810999035174894 -0.1402140340975149 -0.0822308257942663 -0.21059327198381728 0.173020172934672 0.03449782786811905 -0.03347563903016175 -0.043793336431960365 -0.16770237218938158 0.48125648990220143 0.03508729124736185 0.240357661159924 0.25173358436688875 0.28439381403011965 -0.22676336440351905 -0.2951733508553418 -0.3600984210799019 0.12619261807115353 0.34350178270963583 0.289365239452236 -0.27072923956301487 
caius -0.1505377607968604 -0.27160476343575135 0.24407341867966573 0.521611334765526 -0.12950941616318448 -0.28916243015408427 -0.1640222962774841 -0.05086565525190946 0.21955259122281776 -0.2961408927995588 -0.23183693079851161 0.240343098959772 0.20284205925276197 -0.39901594813840346 0.06697264968018653 -0.08751397951515846 0.18431328963592014 0.2586996289720249 0.05874404912202874 0.1630775857493245 0.1793968821223462 -0.09865167918416004 -0.21381448624176563 0.4706530102371313 0.32010212966094154 -0.29649865139076337 -0.01250876868030601 0.34251907836569895 -0.2619552391151989 0.4009793601562298 0.1590218053532527 -0.3878393431413089 -0.4267141290216669 -0.3494987932757466 0.2973531614634808 -0.33559648963108507 0.21871393237742867 0.361090757087691 -0.35883204605221325 -0.08780926334298414 -0.36855210667162225 -0.2413074708082597 0.16331926165749833 0.296308562876721 -0.08719123732558863 -0.2901538040125584 -0.04784507916632294 0.29045587116044863 0.45901995859069705 0.34642760150715124 0.19979728513125727 0.01126848516325728 0.10601114121453353 0.19561953154234174 0.37607480884763245 0.4209396182534013 0.10371967323248743 -0.13808261141719755 0.06445239267512362 -0.2193428266277469 0.4755594094551317 0.5114203962063075 -0.018233630144431388 0.08145653615655092 0.1579847892268008 0.4559719141903671 0.051286561141248306 0.4312931188848991 0.22167744790281418 -0.033997862470184034 -0.3349786049026101 0.11454875435083975 0.21098156483971475 0.2315763607043267 0.44922618737485287 0.31750964316709845 0.07306178672544654 -0.19475388815252354 0.1656309805800425 0.3598462929122712 -0.09568264094726442 0.2715388719545261 -0.33746650958610874 0.3130989848511167 -0.4011989971846515 -0.2534866937761979 -0.4609486582136991 -0.4557554384155145 -0.39973233064209895 -0.08382010540784744 -0.3442894670078732 0.22829422397054971 -0.11308713258761346 -0.10920075034626187 -0.2645848554201718 -0.23837211978855039 0.01723814134445599 0.3540246016789984 0.33921443708562315 -0.05485731259541875 
marcius -0.5384849873477129 0.3743435699788571 0.5116639687328913 -0.26851809418012856 0.05361713577420139 0.09930411382932185 0.569262879893199 0.21228882400034865 0.2500053932696058 -0.041833441354923825 0.3340899370164463 0.014849796859498575 0.2614921699938485 -0.00792421640424102 0.28690368926887616 -0.2660342644519026 0.1866708705657193 0.38115409856517557 0.03290094144367212 0.2537625069636208 0.40526596351064204 -0.041328146391433784 -0.20201852504298362 -0.22349530342370874 0.4759885895158917 -0.2809365788748565 0.1615770620580853 -0.45797365144011204 -0.14952130219507187 0.01620703007239458 -0.036039938061224464 0.37548678091594084 -0.02652453516154818 -0.4453099618552788 -0.4716566864515203 0.015539385712635885 0.11957863134351679 0.17997557918902035 0.5139288232830823 0.3392238967726901 -0.37730334890478956 -0.3106645763526319 -0.3571509448063097 -0.4585620287100553 -0.17085934339818726 -0.3997598901667395 -0.35245483284081514 0.08480814683159738 -0.01057925269156045 0.1907058102089736 0.5726725816014151 -0.1423045730867331 0.33035667097826565 0.42187707508651395 0.43130749799784973 -0.15480311064187302 -0.05869135010273777 -0.20176115427322389 0.11845636459829323 0.3204540757986713 0.11967467258164288 -0.10047772306974802 0.427189457064473 0.3957829032172577 -0.38948555419416314 -0.29539542911357547 0.04269738962523704 0.41703582944190465 0.06886063763573845 0.05084925013585313 -0.1884881700168721 -0.26675552201274816 0.4235691579453802 0.2630985028545895 -0.2749966443334274 0.1293009128719518 0.19823883057854597 -0.23258555392957692 -0.27247095651610714 -0.2286173708415882 0.094195620078777 -0.22860724101675128 0.28157157144063866 -0.2662098995704501 0.33344137803758767 0.31539069833444 0.2807255024084665 -0.458147165827737 0.5505517172823285 0.13347112503309494 -0.10858528581662646 0.058998434753315954 0.06343841998557298 -0.13569324886206446 -0.21342837540845389 -0.246868915929305 0.33287226237144973 -0.084919152382839 -0.23409884234042483 0.08550036625994455 
is 0.010768528448309111 -0.3110464858395162 0.311430639774798 -0.28804893248684993 -0.13168252456840057 0.10695319601353277 -0.1424870952566048 -0.038279372063431176 -0.18549510378639847 0.32968865473328324 -0.16236571858425156 0.09604394597162783 0.028674998741359058 0.3706947079843273 -0.6231572595148751 0.12115645629689267 -0.25594726709221616 0.09190524262756172 0.2926188670493188 -0.11808688440871419 -0.38058266986991696 0.29761716537704386 -0.0622766777879307 -0.2036904134637954 0.19265953997800248 -0.3923987881120755 0.13083863426324852 -0.4646121232963416 0.011780103035190205 -0.32391864535158 -0.2877226583203178 0.2607794778065798 0.21374805231636987 0.21691732231114538 -0.4931061263082214 -0.029390400677811734 0.1015257376328596 -0.038713064532265945 0.12099071325789312 -0.16957160041130348 -0.305094163368659 0.12551301783313482 -0.14459384229201064 -0.47731877897474206 -0.12851692049496236 -0.0062523290362359145 -0.040453936344970805 -0.22464487986564566 0.0815397251322358 0.2394541609626183 0.22105857409005855 -0.3607601379324301 -0.26885951517821916 0.07052005674930138 0.3682692368972898 0.37997299876748886 -0.04849321134166425 0.0634544299949944 0.2746243419295278 0.23152110517606875 0.038849442320309444 -0.22113935779891722 -0.37576508226604133 0.16312862645016782 0.2531204324811029 -0.34135864641731584 0.042355135066749594 -0.004674666863297674 -0.22319486943104577 0.010535240331676951 0.2097918716184748 0.38556102326063024 0.012666904398437241 0.2178436349990956 -0.019237081642505947 -0.05557572668906281 -0.1819718467053788 -0.04377744437563082 0.3428852852526405 -0.154736134737132 -0.1912925889018109 -0.23383766716449583 0.27039200907687155 0.1544229797299862 0.13557216533178906 0.13361012634196295 -0.3308162226524098 0.15920966688734733 -0.3402662232896787 0.35776535854670927 -0.012692937765472569 0.12590280899245682 -0.3640523827058439 -0.23019709356023063 -0.3603224607783107 0.03529272339356745 0.5589597765956484 0.07882457439139554 -0.03635480568074429 0.40607113342678186 
c 0.3421797922131482 -0.013184039381229326 -0.47919163478425986 -0.006369871237195967 0.012764225618762667 0.1821627189679648 -0.06681544905113776 0.5731946585958899 0.4779133727803798 0.0008074038588497929 0.03589171289870693 0.3756900725424412 0.27168025941409485 0.08743289051652361 0.336327237319137 -0.16577259281519185 0.17108635100065733 -0.2580518701446704 0.4124839977202295 0.002410977495575539 0.31950276192135646 -0.21909609534387503 -0.13588984859960124 0.25918834403579444 -0.3823072271183301 -0.13867212757680478 0.10025544655507208 0.34759413898569397 0.0025199921135746275 -0.27868381336657316 -0.07635072484343342 -0.20009927506715136 0.4134954176339789 -0.39869094110166353 0.29801412341220573 -0.317823461036954 0.2983762206967112 0.17831693068990642 -0.22400939187436844 0.03210172853945122 -0.0872775353367531 0.26718599974426327 0.3433178008932635 0.030851752799489363 0.4235257847281524 -0.12051635758732278 0.1038351008352767 -0.21936155926595316 0.4524193095588688 0.12419902210137165 0.306266121717492 -0.1254323313876111 0.19958575606094084 0.10387655793161002 0.10899137698555478 0.06657743114474395 0.17433117277781457 -0.17233623905918732 0.2676316875005302 -0.43381769751597976 -0.339382187409017 0.11668252228794773 -0.14186921742545458 0.30195084669729083 -0.12269947839310914 -0.3511186660326322 0.3827316030428417 0.10853140975319503 -0.17475628476906566 -0.012775256548483441 0.00876442751943782 -0.07082112306712061 0.19328805803747648 0.4527163232980026 0.3242130269016004 0.23352533255051064 -0.25451897241419763 0.28004954300908985 0.3486572921451773 -0.22012801041333238 0.39568319985422057 -0.002773940660712848 -0.5191257136173143 -0.38104562284652393 -0.11489575316835907 0.44267502559256305 -0.36694581831745116 -0.2793592593948895 -0.05597827660049113 0.10011008264051238 -0.19821744800416485 -0.5007997933497894 -0.33338488008450007 0.15166921094679103 -0.33724545710033277 0.5930550582207557 0.09418258557009815 0.2986347129294352 -0.057498934882988934 0.3916091972020975 
hi 0.21712271400439812 -0.09623059874455661 0.3019268810189665 0.10330207628934929 0.3807322703018995 0.18597241069603968 -0.11873202482089612 0.15447368385738944 0.4384268466058106 -0.07348005817160125 0.13033954907697345 -0.09270031113937591 0.5174600374851193 -0.3784421002786939 0.04693704800582578 0.17610535107034292 -0.11893130976864985 -0.3477719497069797 0.09786829393197256 -0.04201879376800992 -0.30712170805812716 -0.17129251442056512 0.23115622398039823 -0.07240133748432367 0.09284702696556096 -0.13702880047267418 -0.11432369089779168 0.3536920173382525 -0.0451746217217392 0.3609449151544671 0.013680021655724461 0.2385117331102165 0.05138040244526347 0.2611658309433381 0.15931678437443308 -0.18803594600855728 -0.09320567566684222 -0.3220465178423288 0.11619148412015187 0.17166495243803054 0.08588922317404936 0.39540490504038606 -0.16409428732526793 0.5735348931297051 0.42686558580260753 -0.20546314881243882 0.21973471213937512 -0.27280808035253634 0.15247512720377063 -0.38402188805078796 -0.24462258070708628 0.09729719206504037 -0.28330740357445244 0.39413650332576494 0.12641683860027375 -0.0017454549649455822 0.46085459766436176 -0.46683230136696685 -0.24849389658700222 -0.38455625749993944 -0.5450585546361543 0.39078723613720184 -0.44953094414370187 -0.1338826196751959 -0.008940332166012744 0.03410059141867307 0.3257874486494011 -0.0918486315694458 -0.3820141027965388 -0.027443484279481442 0.5744460648601074 -0.45278539073070373 0.2590013114205055 -0.17292789147456103 0.078596281651145 0.2897105350070831 0.09080885044103262 -0.0798926059034116 -0.45300415118533405 -0.4631654252076449 -0.3802046979308576 0.2789934569203809 -0.2715964018461679 0.06572069692760112 0.16547467423928466 -0.34233806495771724 -0.41537484656725215 -0.3257197825818731 0.005196974062747313 -0.11500727520324416 0.1848044086184436 0.2069924771796092 0.5445077261110354 -0.09168759180438185 0.06282308544253853 0.09589155308162116 -0.2756689276707281 0.45441281988386356 0.07232474604695537 0.3864100152753124 
ene 0.41444619607088207 -0.2761855083181178 -0.015602288360244673 0.5975504331172261 -0.2624264315046089 0.35277727286826516 0.007422134621319215 -0.23206788669357387 -0.30508450567865486 0.050635781693050455 0.2612248247450573 0.381202874939135 -0.33458902397154766 -0.400174295743617 -0.2844920915487024 -0.5059055784186353 -0.08744400481555929 -0.3445307794239127 -0.06880387095397181 0.41134513599727746 -0.039315000858049426 0.2023423740508068 -0.13531947268950945 0.05159839861501883 -0.2481553790403497 -0.10681421365257165 0.5379874183542908 -0.4153250259847634 -0.09115949882666147 0.042206694588341045 -0.12653765715810741 -0.4187895011854571 -0.39002528995374597 -0.10514874860431432 -0.32898599034524545 0.30954701749476604 -0.33310484097200643 0.1800258667665766 0.488458546601047 0.13545019506539427 -0.027281657596221878 0.044707780173121894 -0.3689912963345617 0.20838706827784104 -0.03257171377051815 -0.09771409981273216 -0.30285917208694235 0.4539271832323942 0.3243471236962003 0.042668097162115365 0.12377709694681409 0.3002310462367126 -0.1672249674558129 0.2021601483662141 0.06352344008176886 0.5810885203196379 -0.44071306458283815 -0.29168714246816874 -0.47541512567471783 -0.16913025064046333 -0.18286473684403753 0.41116524059066 0.4394405963325771 -0.08230840796585465 0.011947277118522736 -0.3862672818666468 0.08912887219100639 -0.12367667428421555 0.4697191032215862 0.33944930559969416 -0.04873949579363783 -0.16310759510106615 -0.24993268129304808 -0.4951618846313173 -0.1832324492518592 -0.5585953731170742 0.32696915950665456 0.2193081473495687 -0.07765499354610952 0.43762812024161024 -0.17044067916965694 0.07752521049145294 0.47341571967919394 0.4658860478382359 0.06389727347910351 -0.009405321591462026 -0.28882701487641477 0.2889372772900208 0.09336118352189707 -0.43884819657178176 -0.32445874189287616 -0.3256166803432272 -0.4066456729409122 0.3304928359579354 0.41528351277354425 -0.12321266357725147 0.2775771594815623 -0.4536625351655103 0.3489151147061983 -0.225952503245794 
my 0.3938497645901019 -0.17057556546059593 -0.18812018262911087 -0.08551990817254113 0.27501501258818284 -0.07027148897438233 -0.1643267657837032 -0.5797591841406681 0.2972761820793528 0.23345307862734563 0.12679919445554158 0.15258484566641994 -0.6224425021701523 0.015153806250037717 0.12112006554509155 -0.29856708632520257 0.25102891802678967 -0.3039657428381303 0.35555047477439944 0.34979611359877055 -0.3850486150215373 0.03625801876010231 0.034362847245142714 0.04125414741498011 -0.0344226157449808 -0.31848722058541457 -0.17516974024433635 -0.239423267855885 -0.07163519936004953 -0.2124197986897514 0.14698904103420665 0.35578698397214187 -0.31797446179512273 0.2704433037183448 -0.10041166108586584 -0.007447480874405134 0.33960922547785916 -0.4357641320248713 0.43959975422916464 0.1672475243868797 0.2299008028236083 0.39168626857910777 0.13336768819797018 0.29494122564195513 0.06563223577201296 -0.3159869139953841 0.3024956061882479 0.09781260336537827 -0.002789197817068278 -0.2747353306540821 0.32724147538120957 0.2892410847943066 0.07832086459208246 0.3095321001664792 -0.230522131341015 0.007019635505128499 -0.02845927904734788 -0.19625883603032615 -0.07026898949556006 0.16084834823631736 -0.2507288024268313 -0.04489043724506251 0.28819753926362246 -0.008341415552918303 -0.10144720226184767 -0.1421681384496847 -0.11312275381789484 0.2582548020511901 0.06089968888099756 0.023444685429698173 0.13301634015270106 -0.12169495202169563 -0.10185705663789621 -0.25165720566537547 0.11800812858133275 -0.35357603596223974 -0.2558873855358351 0.16759780462587393 -0.10383648620298844 -0.0029469602141833987 -0.10190949850113819 -0.20036362003387473 0.07454841182607967 -0.49775025874081896 -0.43921277850196866 0.1471650158001858 0.0979952802224149 -0.3594361559197828 -0.12474294003899414 -0.35817447301064514 0.33452612078850397 -0.003004650205316815 -0.4929796003060729 0.0032004836690826535 0.32153981402515647 0.008438463198577417 0.2936113711649536 0.14603961890785294 -0.060377517520102106 -0.30647711668525796 
the 0.022091878025367898 -0.2004896561594856 0.03281592282542015 0.31281016095853703 -0.3517081641669818 -0.1190516845663785 0.16366856167907215 0.175938854225623 0.21052956098063685 -0.10514818050337878 0.08098337337890324 0.3274484572468914 0.22208717472550255 0.03767044410578552 -0.4002673146522779 0.1422304406357447 -0.6343041047663096 -0.5942509720913809 -0.16725754966097728 -0.10073092087999444 -0.0967882523347136 -0.24007968647961656 0.5511331867220313 -0.04683410463311509 -0.29136786707935636 -0.05308043877849174 -0.0347989621001702 0.10665488695071616 -0.08285375465054902 0.3774670495744844 -0.03301566672748714 0.04474778934372223 -0.13137364119758094 -0.13965683615343397 -0.1056179522029662 0.10115751550600365 -0.2293396602577356 0.712177530650649 0.1341384263003762 0.34134455760971144 0.07528084218960976 0.1045147463964441 0.06868055682926899 0.3002351768016187 -0.25067121252034774 0.1400000394008785 -0.1522841097487372 0.2322583545809553 0.051164088221967836 0.2342626092470802 0.15090300093423714 0.10433737343943517 0.2963397931185425 -0.17896726967795193 0.13831955280425323 -0.21820010239133242 0.2131305558671397 -0.3334162182743741 0.058787199934752524 -0.2251839048870657 0.02241853660598431 0.14769162952368953 -0.1699779935398133 -0.1567591923088461 0.4656181817395198 0.09814618735002698 0.10598619047964283 0.14245766762862 0.25260269648167594 0.12320807711608539 0.2113502650878769 0.24127287511110074 -0.3528083393526002 0.21694321522680285 0.23778578806870282 0.011881988736948186 -0.2887520160838005 0.40122196711937247 -0.04559969508367086 0.013985638110965232 -0.09317479721594707 0.14887748710422824 -0.18628156661021417 -0.32341799414268585 0.1217271048214684 -0.12373661053930933 -0.1466044087608947 -0.07639028237893017 0.4570211491680075 -0.1121116641873676 -0.1192370672728873 0.255799155627284 -0.029993558104492002 -0.5559698102437065 -0.036868043604461 0.21725770785473758 0.42202839439805584 -0.1849564077216409 -0.12451507279614302 -0.07417141636048682 
people -0.05587464878506168 0.0037711852945855485 0.370415968842177 -0.22802657300525198 0.07974051535979636 0.4135484414306105 0.2183738958814279 -0.408206945108696 -0.00792216272972577 -0.3872995151216946 -0.417480463418771 -0.24482244418775168 -0.017490514106467063 0.49324907581442345 0.37179417700852335 -0.23245630681184987 0.3855582292605215 -0.16387923710716193 -0.06772361239674876 0.20060154484768186 0.47841928537766 -0.05436327221627535 0.01828598389099096 0.0892418132420215 -0.23859417126863006 -0.41815642396845515 -0.13266734707496053 0.31819073926439306 0.08713219250115464 -0.09695615870616832 -0.12288486267445108 0.4408432802988034 0.10881714739502582 -0.43565215849589234 0.23059753640704606 -0.27969022709500335 0.08433796681256561 0.021930951691790858 0.1254537817271751 0.3769034611992972 0.2655886323156272 0.2692013417683805 -0.03815176035593447 0.019347851216251606 0.23884625365862833 -0.3010570384230787 -0.3719867895999193 -0.4549533223354522 0.04691970555394452 0.10216629941890451 0.15850682589209764 -0.2724300220983464 0.015647299684614032 0.19627967681002018 0.4924016533722645 -0.4232577023588703 0.3469084058488034 0.19128229336088742 -0.42176771081251757 -0.3985013029674392 0.11961366571240994 0.24929658055981174 -0.19151451585161064 0.27244632531019164 0.36476393240093846 -0.03301950640333924 0.19931936730910077 -0.336103193550519 0.39870747447262295 0.18358874180032222 0.3781387305332394 -0.18180935534490156 0.25167536766774307 -0.335872835334397 0.44113274946009956 -0.09024056838735518 0.23462312271829813 0.1017596338117645 -0.34969567879855623 0.016875623966870243 -0.2527512456897016 0.4608064104625939 0.137119128873272 -0.37174908364135767 -0.3952304717761105 -0.0026695508326088618 0.013135620721235999 -0.35497397505292044 -0.3116216397773248 0.3832188471766749 -0.09717497224202631 -0.3598032255030165 -0.21886167513380939 -0.3324454180419215 0.19945573579486198 0.017031623661319894 0.023076204926227497 0.4456465579161013 -0.008098460530629148 0.20582878031759932 
't 0.07811797998751978 -0.08349526614531327 0.4067170210118722 -0.1531086092709976 0.2838026369878086 0.22214813655576324 -0.29724696388496763 -0.02830593438040659 -0.013738467788969897 -0.07868787949546333 -0.11992520313929965 0.20899643399805304 -0.04539563403245377 -0.23698074814481215 -0.1678383468539517 0.021660575382142628 -0.1988681543651108 0.04404972141718284 -0.19348538450423092 0.2958617508421465 0.0643542306435918 -0.34961238346821766 -0.13462577258251665 0.284065117183255 0.30167101409483227 0.22334973096179606 -0.1094161744453608 0.20557694289137635 0.454802648830243 -0.06862815348225869 -0.04148746516200294 -0.06662128994691978 -0.7181121340917103 0.08256087628434863 -0.3542888800558112 0.11504098081321551 0.0332269520062034 0.08206646003760695 -0.3156399302636715 -0.07179227539832769 -0.06580203126067521 -0.10648582217420553 -0.3003709142140173 0.14589434801577178 0.1185917763773204 0.523451438386457 -0.40339374003007517 -0.3293027929298307 -0.05145056796534539 0.3258796093899435 -0.4249306370427879 -0.1430621103646352 0.4122195180981582 -0.04827804810011826 -0.15979866192874867 -0.08532935048530724 -0.5357368693966464 -0.15947583507397953 0.17200077522365426 -0.5274494595002116 0.3457234856232293 0.39393583995960424 -0.09428409543882607 0.24372861065363843 0.43624232306291344 -0.18230795035561864 -0.04947779155681888 0.693571568942797 0.04526190923481175 -0.2023596094988399 -0.21205013731667932 0.33708497494746337 0.13308438634972986 0.3695440288813323 0.12994006227626698 0.11692664940789822 -0.16926580499818966 0.14509598649611474 0.5906159131360194 -0.07303118951898004 -0.5712488214568596 -0.25196353136222766 0.20493143972564887 0.08537492544047699 0.09127775217988286 0.04359532563491995 -0.27423525979287044 -0.43466784362288186 -0.10674818990418171 0.12927082256886283 0.22113227705370822 -0.3158088026973421 0.0771406916964622 0.24156990931891004 0.27791174480011344 0.2599207417080278 -0.15423939319761437 -0.3360870540758805 0.14228902457715276 -0.019621960988820204 
