first -0.33438940382659355 -0.15365662714172257 -0.3898959194667735 0.5211939111262001 0.006505511654650083 0.08242259309792976 0.1216569631310948 0.06132418314922418 -0.3908691008533317 -0.17567954848391457 0.2157631505742157 0.2961158689466119 -0.4805313051769052 -0.30933979002410805 -0.38056894296428845 -0.294914225203311 0.05969846336003731 -0.4303855602872328 0.09399860916589409 0.3830483833908589 0.13637263221613913 -0.08282444095712063 0.00019136802834702343 0.029674277589567668 -0.29889090492560444 -0.03438092156785843 -0.3841265476874052 0.21847476639387017 -0.4432526960610325 -0.337475957128555 0.11468918846849036 -0.3101988165768789 -0.06367284405756723 -0.4026103773185633 0.039188009167450716 0.33963004406050445 0.15932365157637995 -0.1126434060068306 -0.07129434769447003 0.02815542259711415 -0.3126136723712477 0.3097183448292876 -0.18891879678008686 -0.3167950450516839 0.34781878159464663 -0.22515289523345886 0.06899828174227847 -0.45167521971450253 0.11703703417183939 0.19024168927474933 -0.41650141354842596 -0.0072951324587707395 -0.2660779270568368 0.35662978001319817 -0.34280872394933887 0.21716282773888856 -0.3661462023527515 -0.33312411843133005 -0.20807768543663713 0.3327970172817073 -0.2679202797661159 -0.21209088474289486 0.08367689550182916 0.34223488680178954 0.4466775837884302 0.4471720804257227 -0.07632103624108279 0.16558765397369757 0.42891514866897956 0.12612132656865757 0.3425697751758641 0.04936662790856686 0.3543763529134373 -0.4774924888037 -0.36111684050967235 -0.06957143439576563 -0.29893729774884115 0.05819311504060222 0.37782788291804625 -0.20643713391201957 0.26547410585236497 0.43204626296626975 0.18543365829640268 0.41098171552916113 -0.14739423384583966 -0.48069058716568186 -0.06496669260359825 0.39542756455029626 -0.13332071385054634 -0.4186888630905877 -0.06460784345368317 0.061082556616690174 -0.3102601538042895 0.32264191361609174 -0.5194027179220667 0.39993384782718494 -0.3479498485477903 0.06915372828159064 -0.028767087349956186 0.4145073847101307 
c 0.9501599545851701 0.14508984874551747 -0.18691028185451017 0.3322119903194235 -0.04755879798845156 0.3317200311559157 -0.06888435589254743 0.18183447522978616 0.4291053255922416 0.3066293528724028 -0.058929348255940754 -0.3325274861698335 0.4529211545740746 -0.30089562252848867 0.06171820059094437 0.1015037010595955 -0.1649336886340685 0.20870449984560205 -0.401729354540948 -0.6917640456492771 0.319687951363783 -0.21745884898341422 -0.037184440085215834 0.005185414391938762 -0.5506725832478292 0.2793507541194852 -0.21672611536920072 -0.202470684563472 0.7617526428789126 -0.10138597656764609 0.07356249619891818 -0.1215087888715608 -0.5094276721120709 0.0647198423246014 0.16646166957948164 0.48526727492356414 -0.6971089390623785 0.1040040532402298 0.04994695674109849 0.2412669757487279 0.01173928856931869 -0.29023219378328463 0.49170621859891434 0.15430365421308107 0.11032854655222613 -0.11833558771346442 -0.08855102751623642 0.03397121519486845 0.39843038687562177 -0.2202401708319647 -0.5308161081076049 0.07147658902105498 -0.38475920197565683 -0.016486139499479906 -0.009745976290335618 0.28036497570953084 0.36554481865304 -0.1774399757337063 0.22198925183359008 -0.2563290763607796 -0.4075107793876666 -0.22238795804766043 0.04564726063844614 0.02174236771392804 -0.13016200146209994 0.15293118183820698 -0.1654028510730819 0.6382471779159423 -0.03286373347154531 0.3195966956927834 -0.2258043733745061 0.05220743573935174 0.36524325128826923 0.28301411428944306 0.29182192392617456 -0.48286190087649933 -0.057628796853563105 -0.15536587990036044 0.7062786846824514 0.13839265068948864 0.21949720807614545 0.1157194582961555 0.11921409759628349 0.4383125316640409 -0.04802800622812842 -0.7489966959593423 -0.4268123833983276 0.052779934230523295 -0.2220930189885696 0.28550443991141006 0.47355777019276946 -0.0899194570430065 0.08648066632324342 -0.3492293301667354 0.7133786172807994 -0.607330122841166 -0.17228869355945747 -0.32342023025765165 0.021229067687890416 -0.07167328212347784 
it 0.12679493699712482 0.0696428429131121 0.3037506964502503 0.4603971043006129 -0.5210369080944983 -0.03662484617149043 0.26747520281681875 0.21265645427085927 -0.18773001716444945 -0.5545762830802522 -0.5694947675597254 0.40792453007676494 0.384483540357232 0.10227162862643509 0.5482188399305254 0.11198849585090716 0.3882952275739162 -0.018978242574837486 0.15800070634124241 0.3738052510936424 0.6143087986104151 0.03716849843525527 -0.42993948851740366 -0.3584806738310753 -0.4531678830484992 -0.24146418085488608 0.30186008382982504 -0.6764559901495059 -0.11644435446111295 0.01372481795198674 -0.5785375063819844 0.10883370722263819 0.2854335967085774 -0.32539296617626823 -0.27583047971190344 -0.0331673966293337 0.594550098363856 0.07670837555374303 -0.07319967628671215 -0.16059502523221508 0.01622148079577484 -0.47228912088830227 0.40385107393480946 -0.7618949763497709 0.8431617573872802 0.5924963266834915 0.20371868028100443 0.20537680397002614 0.3855713842755068 0.16579631725350275 -0.07495268747748908 -0.5707666353103429 0.38094101216263887 -0.3975039860405342 0.5590369523223635 -0.11702712315225008 0.3679285392909587 1.087577588640688 -0.024779741931042834 0.07999657383358717 -0.46090855565832883 0.30880800973550915 0.03439159540232602 0.08941109801549296 0.5394550101314388 -0.37803318019945426 -0.29304614047329347 -0.05298519544207077 -0.009481047825683375 0.2978086202070893 -0.19165557227944563 0.5560471037053221 0.16375601660532402 -0.1960525690572715 0.1294870128357893 -0.12457659812126715 0.18493785891544218 -0.4547755359404531 -0.1908659848130434 0.1701301337057727 0.5706876067253771 -0.24309923275429926 -0.43738013781052043 0.12320794368355101 -0.00905283646238909 0.5598256875213229 -0.18551757442455774 -0.10591656349844362 -0.2305822113331144 -0.0986124378124412 -0.1353972643657295 -0.17595204013519122 0.009737392943375068 0.15019000624206114 -0.19675786716163612 0.2523371081122643 -0.6277206247460563 0.595507895108496 -0.6149707645208002 -0.02555523784670098 
i -0.44969020648014674 0.31946624859723977 0.18162502711794937 -0.06337104866359414 -0.12752051302602455 0.4582237703292702 -0.4374950610865972 0.20789550521401043 0.07156303603752034 0.15058373748183768 0.07333860193833246 -0.7744467045173101 -0.5912711045083765 -0.5272786114782704 0.20154298431419201 -0.2340879467340721 -0.423093240060702 0.1831112161171948 -0.3515749249454228 -0.6563345061070558 0.21241797560094303 0.15983495989436466 -0.3164417288058039 -0.03327114471926342 -0.12521782370369017 0.04497863647480419 0.1498599980300141 -0.8306668437726383 0.1128450631692304 0.10033959322519881 -0.31472178344598134 0.15490942685030815 -1.04627589614521 -0.053451536981389616 0.7430258879758118 0.45191660938961054 -0.4704319455923226 -0.022144661284983533 -0.4942971620679957 0.06710168787603363 0.18867800095476442 0.17693394104400142 -0.14960908497219852 -0.0644770807866075 0.9927267270131683 0.1972434944992837 0.5162973561342623 0.02669443184505767 -0.2129190820628922 0.37229116951774693 -0.6179496162560347 0.28119471609203894 -0.09418956129411668 0.540599741649646 -0.26989374574040137 0.14255750690000496 0.4902991411954884 -0.2056515420008849 0.4916519917372296 0.19952587022155252 0.08320098787773796 -0.07495386188020574 0.2056858687087715 -0.3773439508245449 0.43148311239161075 0.5148789991963082 -0.26830564004328733 0.04203680553110087 0.30938742208657305 -0.4814096470823352 -0.06762883739409914 0.06954529944837387 -0.40940699193862273 -0.2708339894007857 -0.6628673392934407 0.4441186146562299 -0.1916322188503951 -0.8711158955611459 0.3273364828801473 0.2658013860917263 0.018544759806189165 -0.056186979157353684 0.26356276074683554 -0.16281594851615502 0.13190167450667928 0.20588895133972557 -0.3858668057366955 -0.34780976019770987 -0.5498947697771617 0.4173954855948456 0.39002899197746593 -0.3142535539049089 -0.40805349544563424 -0.2886606437067257 -0.4749253480312424 -0.19103717291874386 0.4908760639257415 -0.16064170617272397 0.04252981730105734 -0.6335015024691307 
z 0.2517171386179791 0.11219930906816791 -0.11529135650769458 -1.1415943848735417 -1.1014233925374897 -0.5614535315248649 0.20131890852581832 -0.08785361944954545 -0.5703987972932193 0.43530516644919526 -0.24845261342318173 -0.904138631803551 -1.0458204652568894 0.11755599047607997 -0.3020817505911987 0.7946823034574962 0.16573280568546644 0.17966453905421179 -0.6044531877999081 0.3230556421425561 0.6058720017779574 -0.13224838353321713 -0.8270036221603247 -0.17220378888352167 0.7075101908301188 0.1377342909379174 -0.16259252348387054 0.0254384443145386 -0.0002879001880966882 0.3473257842836904 0.09366138748266002 0.3991503779799278 -0.8982531894071096 0.2200587413623224 0.2900453589053961 0.2303165719941327 0.08990312899507019 -0.4932218009149856 0.20166941330974858 0.4549949868455054 -0.41353071617617015 1.0675734474199454 0.33483858245627046 0.8450233830858737 -0.10077497375163372 -0.3674962188019123 -1.0836241682954322 0.4387041636691468 -0.08668970986478836 0.058497137839263594 0.3245168714320815 0.4161399274831407 -0.9390646874820133 0.40545072384702907 0.6122697037732479 -0.5107398413669348 -0.026809693062126626 0.05198799855604801 -0.48777404453801093 -0.7516816171015138 0.4361656469889658 0.45034274901501836 0.5131635984647788 -0.24060619850780224 -0.3179632159427928 0.257253795634687 -0.5302854830621081 0.6638016587874471 -0.4684163461078072 -0.6091098708512018 0.2551998099613273 0.9467658567753239 -0.6420194134078292 1.178000056742918 -0.6549519249259371 0.3673204127052552 -0.7983429497994017 -0.4382090609780083 -0.31272032127610977 -0.7254443907031873 0.5875048563559009 -0.4131297521109115 -0.596865569927506 0.030793284010489544 -0.05279518463541071 0.3422909384050945 1.0175509801474287 0.5381427029012135 0.0366873891081342 0.5059790508422178 -0.7000598608938376 0.1095931586494813 0.22114979253719028 -0.09178537712954267 -0.09680860124840591 0.18852136182197204 0.10473710634894762 -0.5169413884544377 0.6385567181596266 0.8109463746340351 
en -0.2912792498553861 -0.34044275502250765 0.2843946754339003 0.512572574439706 -0.1369332616196482 0.16223296857017616 -0.7677588875980316 0.4525509205233469 0.49052191033746134 0.4824126924193074 -0.5304301296115935 0.14488217580510465 0.38746973759400494 0.339535399130787 -0.07108177358108925 0.2561890451296091 0.03405361919001486 0.1625156707932369 0.01124016138565373 0.09638008427096201 -0.06462265221768791 0.40626413498409086 -0.045272967699894265 0.5978940403577503 0.41249249379446173 -0.01199878052944374 0.3286686678912958 -0.07362565101085364 -0.36067314412863954 0.3969538878223964 0.2454246877399903 -0.8839153483065291 0.007755233986105305 -0.37931919287014404 0.1995011961125641 0.18123595449635016 0.08715488340745975 -0.23794602889576785 0.23807352931450507 -0.168973525417337 -0.09311338139450447 0.21164905509438214 -0.229652420982615 0.2745540626215953 0.43816251798770445 0.9765296210441644 -0.2562093401263938 -0.33765304841075344 -0.2766227002835198 0.6934340924285383 0.32933619950119153 0.23566111935493395 -0.5779773552006291 1.2980387332631707 -0.055099380073977335 -0.3697892818140121 0.1821773777359727 0.0966695854585091 0.6702973799749383 -0.24466568731119243 0.07987066492751856 -0.085689009817204 0.4423545516882829 -0.13138896732688768 0.2881477762201371 0.16765555532058585 0.03570067082701597 -0.2901020513650017 -0.5832349521108481 -0.395631955608623 0.27695696352156346 1.2026846603524823 -0.40239763418928554 -0.1460779442840819 -0.09647266451056061 -0.017433367521388535 0.5275381186969954 -0.09833407007015026 0.2728637700691368 -0.24311482999469214 -0.5075375108120976 0.15608206589358925 -0.5943711999066548 -0.2639404564246989 -0.11808933605142471 0.14346684517887975 0.256373708346851 -0.25377351563522826 -0.32413902057592536 -0.10469563670188879 -0.3427756830746644 0.12989832765394496 0.18220630687630415 -0.04921567504196267 0.2705003234447486 -0.16464958377047023 0.27369018018827973 -0.1372319619559673 0.04234674800829408 -0.36257079357951516 
: -0.05395194090443879 0.09287203575975579 0.4711642090634031 0.128521336074636 0.38771982770863594 -0.18256686786389004 -0.15991083361572833 -0.17936180179162256 0.3713623223918511 0.03327296944729697 -0.5644895075646853 -0.40799304762570054 -0.23016058874874729 -0.04018167921727349 0.14370730195576087 -0.42680539217428654 0.3035381514916751 0.06877731577477732 0.14421207850220122 0.15378019193797549 0.20005012241964767 -0.17130463816098396 -0.4944925200446534 -0.31133422715641035 0.2553628248698715 -0.5436736251339054 0.585646512330974 0.4944253295439865 0.3184440007198626 -0.11498416251590905 0.10029446626728253 0.26859604268356363 0.21463731986165357 0.18531382331119603 0.04466044997198165 0.0064314625155566804 -0.1098678547570934 -0.09750108589868915 0.17705533815687727 0.27382963450408226 0.40461768051614194 0.2968807047028711 -0.44265760054815195 -0.03364372177798755 -0.43031152298662684 -0.15157794503983776 0.0488368774776325 0.27289847982891624 0.16120600163446655 -0.10959048222246182 -0.0003811988688251951 0.0038485273247148826 0.24719248452954434 0.1819661642905314 0.05229007377021306 -0.17344565735374734 0.2947315148789169 0.08870304876382577 -0.22121801934250385 0.22035490503470256 0.4618009947846762 0.36645686440753444 -0.07498091313379494 0.3124417339710523 0.3747987264786835 0.1341135730081591 -0.18956105369351997 0.11921369546735265 -0.23152659289849287 0.19402369068212874 -0.06356141922498125 -0.11183567494588315 0.22039187519502254 0.09356394438812016 0.29338273287798433 0.08975492031158352 -0.40407655673559123 0.43062016720778457 -0.2897300650297183 0.14211709526108754 -0.4869266404593336 -0.251059353578719 -0.008965768806812286 0.12485315715612494 0.03557840647783117 -0.2739630961942248 -0.15563334013409003 0.21503290480094656 -0.1835731316929421 -0.02934558812130833 -0.3209171114644361 -0.14576072757682268 0.09495336144440561 0.2307788767866244 0.036695896510399194 0.04381846739973106 -0.1344506960472852 -0.6326967707392553 0.05020962374418796 -0.08681459310574637 
be -1.0667145111549154 0.4187096322105038 -0.06860115699154407 -0.3804396355620288 0.6233744027306114 -0.8492863492377384 0.4208887960953081 -0.5781775134132014 0.16876887983921657 -0.04882951484424158 -0.19054049038095197 -0.07636290102612485 -0.03094927077534553 -0.39702430081083884 -0.16451195451390738 0.6848361761147259 0.3569759057624382 -0.0381546515307184 -0.1613109821263078 0.4902081511781044 -0.23376230722440106 0.49182437322407246 -0.5849602464612943 -0.08376572666145082 0.3930200787460503 0.9786246890518113 -0.5625040932397054 0.494866904818925 -0.6354196992481254 -0.46744301808410604 0.44631569183811387 0.9300642058161775 -0.09131967443339498 -0.5036617950803877 -0.368523158486229 -0.08060363858003002 0.5091426446184573 0.03786128000461032 0.06393375791963478 -0.1987138531047672 0.0630834471109121 -0.24377944967578355 -0.08179713116568768 0.37260937236821196 -0.10510361860195572 0.2728860648291526 0.6196266565222914 -0.4709661603776707 -0.10996339106827335 -0.027030905051576265 0.022893547201457344 0.2653254257368592 -0.003412815378780156 -0.262330134177273 -0.2544194014352707 0.06823537392777862 -0.25177756395470624 -0.0096493990737717 -0.09227175811586677 -0.9130514469161108 0.24025524504115547 -0.3979839947884495 -0.20509870303058625 0.38920174382280387 0.35707923193765323 0.8016025088460541 -0.42913649462057274 -0.1997739262345824 -0.16159865855719086 -0.7180890011820097 -0.4359545598228804 0.36701333048504897 0.18674930931566563 -0.589108458388319 -0.27645363171593174 0.27964396837910227 -0.8626480868579155 0.17514475128815324 0.2939031845582146 0.014076569557293417 -0.5747800493373367 0.24281339481729328 0.5707941431930869 0.05078169427137365 -0.4834573747590478 -0.03937777239793241 0.5008661224193833 -0.05961257449136641 0.3671384171142267 -0.5607990789707986 -0.4902334414158771 -0.14745084793331806 0.32838939722227745 0.15163706493107565 -0.5551388934114906 -0.012216322758103412 -0.12666659027020433 -0.6744965197785863 0.19294120164712875 -0.18830246314963997 
fore -0.2507717403239294 0.41282347124255425 -0.5958528591415446 -0.4179970696925906 -0.38157480219146983 -0.5426739742164162 -0.008495350509079298 -0.14335151785317396 0.02666470247913344 -0.09502276186261131 -0.002901135272033801 -0.3377179451748483 0.10135653683442729 0.1850369447979911 0.16786816935216015 -0.19240588294451727 -0.20391147342834348 -0.4139507243393933 0.19551187136763368 -0.10034253815262058 -0.85453297183276 0.4666346764506796 0.10081128580080215 -0.07034880568434594 0.37273333391101093 0.6334529899460819 -0.6370658603372068 0.45870584736985726 -0.4530720212880613 -0.6013525029749553 0.4321764865643614 -0.12893633182901576 0.13449974868612488 -0.3221488070722692 0.25052876741630115 0.3535585039116904 -0.18198346615740907 0.030841022453410936 0.24791384570103503 -0.36470433478879544 -0.07399797533894681 -0.21970671062013467 -0.002669203900226208 0.12968971528418458 0.2402450132870072 -0.0012092592691344516 0.34705021906854155 -0.42645799986072563 0.003900926337212552 -0.41096962678284554 -0.2881580707725998 0.45127653327352935 -0.34114781921495535 0.1828690206195626 -0.30184038666390145 0.25950665452148974 -0.5974586781441162 -0.28493126620192394 0.013496819997663015 -0.47331228585077884 0.1297812363145256 -0.1397572360480404 -0.22619785706414985 0.6920451608078502 0.05087037187878704 0.20535580653492264 -0.11549161673320156 -0.48479349937115906 0.06917378041750946 -0.4052414438793006 -0.05371866791841817 0.3202853876354612 0.2926063528409746 -0.6905328141061899 0.3180100707435935 0.37982926431385167 -0.5917282770493852 -0.24539146636714862 0.3384191061272361 0.019561433091359146 -0.02029920438322279 0.24632203075631848 -0.43993774236839506 -0.30160670434295317 0.06334345067295709 0.06004526412267236 -0.3844702634908677 -0.627674476685647 0.567266595828587 -0.5799470560394507 -0.6439385901638042 -0.05877579761213375 0.2137786555553173 0.5081971687208643 -0.5473942069293155 0.19621819008997113 -0.15727570596864476 -0.2201197108416005 0.12421854049607899 0.17538717661344555 
we -0.8635362967167163 -0.5528778571926736 0.11039598653256572 -0.723203826281182 -0.4179324174673373 -0.3490086743765354 0.027554343544525628 -0.24200920915592428 -0.22264069732406055 -0.6905087342522112 -0.8086557018366979 -0.1861925920222642 0.6220487100120872 0.1633173779780705 0.5487279116509686 -0.4406007210434121 0.6498361052055566 0.002940300457554546 -0.23159405816379394 0.7397291370810768 0.19600746455867435 -0.2573243024335758 0.3491639543475982 1.0333929594304376 0.1372120325414078 1.078035813961373 0.09034387169857962 0.16706966491897907 0.2508023661885077 -0.21357246678935096 -0.3195822086830354 0.6592755546622578 0.6509101709551998 -0.3974034660609601 0.04788574248883086 -0.2738596637383207 -0.18957989614125742 -1.14128606460069 -0.41006845075912784 0.004257410301007888 -0.143890442512293 0.18512734389532162 0.04438985434669479 0.35531649848005303 0.3018836214976196 -0.28666826872366813 0.026097810284684348 -0.7930218632928391 -0.12897779919652275 -0.03134684714718621 -0.3014812688139019 -0.3180057652323215 0.3554923020443447 0.13898237635073568 -0.7643213793513866 0.1409764590422724 0.6999099593789163 -0.015151457900134196 0.042179937184979116 -0.4573679867644571 -0.6891508322716325 -0.44487883173770765 0.17787552245903776 0.12464597189782456 0.6240719730345382 0.1234328716679817 0.2192442004118887 -0.17730625936919747 0.20601299335153783 -0.5711399692691599 -0.14058052445620717 -1.650107637908922 -0.3537769756062402 -0.6817629130015347 -0.3926300764470834 -0.6877491815590686 -0.6816838834940787 -0.14683439944292456 0.04385859642433911 -0.20541952795442237 -0.2874361388786912 0.12253609993464115 0.1710428305563273 -0.8670375207117024 0.9601922814150381 -0.9781856555215441 -0.2317617564251385 -0.25033136047808985 -0.5766457297611414 -0.7601458353965107 -0.3992071659403508 -0.6001683459251678 0.26238889317297265 -0.1031901092750003 -0.5878028562615841 -0.14281602265472187 0.5435302576377945 -0.720071850119326 0.2952998740086309 -0.37649544718626354 
pro 0.7025577700873095 0.18033030168842662 -0.12257531557773571 0.14978186830369208 0.05754237253062523 0.18600571308545008 0.09318928720508993 -0.3015764307263562 0.293113810882066 0.06966089224013813 -0.0979385727318054 -0.017788194665179474 -0.14413054055679358 0.3040647433619358 0.10042348193081316 0.3373795975085011 -0.8007492661689715 -0.3622595277469003 -0.5831191685527549 -0.21815307401640394 0.46876114588856066 -0.5471095317368425 0.7306884080738654 0.6392664725266797 -0.8799045832448065 -0.5814790609046323 -0.18210330410474185 0.08613942853899312 0.7243520112462984 0.13937640188702055 0.6495417225318622 0.21698018494482074 -0.6419782636787862 -0.48093778159686995 0.261008918903155 0.3350260364659444 -0.15026555131983382 -0.03229448920756745 -0.20274690882355242 -0.7486787664349909 0.29535634115252607 0.5513694677993961 0.5086883720525945 -0.13727124396477924 0.4442624687133898 0.7816484339275341 0.6097782985797009 0.06994983537770366 0.5743911644377205 0.2550611637257838 0.4502433323257676 0.44998103830228814 0.2981376070981802 0.26400804689481194 -0.6569606227024192 -0.10986663691443413 -0.1312337256328761 -0.7446966682150468 0.15643012943414802 -0.4553931258834988 -0.2549213891954694 -0.1660008433299942 -0.14381422172764147 -0.3889748883731532 0.07742017631130313 0.1691040321966504 -0.06482967112390112 -0.2523342852286983 0.46198099571452883 -0.2903914803467968 0.14028620336993197 0.34740037948302405 0.45507353381241455 0.31257400553520737 -0.48331057574256486 -0.7383027757760475 0.4452697840440989 -0.06316913156516138 0.343346726513137 -0.17396091475418624 0.39812510077553337 0.7612023861153501 -0.31161398307139676 -0.5111177188672033 0.5816754717134895 -0.4424086291546312 -0.2574271479088338 -0.8510004489071924 -0.04378082105387658 -0.09303172708193838 -0.41086700899325257 -0.41812078101101624 0.2916291451694547 1.2823116040239313 -0.709791327301987 0.5363819762618253 0.0626744962159885 0.6762283176474838 0.07731572749034471 0.12203477454536348 
ce 0.04168316541711241 0.35134650119190813 -0.13369872486981282 -0.6845720725361943 0.1697809302116627 0.06367398415282999 -0.9486652770118659 0.4603559873377698 -0.006674193095046577 -0.37014702848612335 0.20478074824803966 -0.21123667856985934 -1.1208024509519348 0.48506319855173197 0.8995198448781995 -0.474874607627794 -0.1341544471438618 -0.7064924915620291 -0.17928623313428235 -0.8228772235517694 -0.7166429488872711 -0.04674844593250764 -0.5869316359097567 -0.3682506879493815 -0.2534127540207828 0.2956437384399075 0.006790112219988181 -0.288284322507059 -0.3085048196734737 0.15106790423257133 -0.4212732274730164 1.1207948152523812 -0.45032954010005416 0.371254285096099 0.23235905751862707 1.370874200009051 -0.49248547686017063 -0.37937491467820195 -0.892851693272196 0.36638747637149377 0.44931581863890846 0.816139565605776 -0.8708878686878302 -0.3682851547128411 -0.02052377182579923 0.4542668199582259 1.0245275795719815 0.4333238332949113 -0.24042887990176348 0.09606524556740684 0.15780035016261734 0.8540528978207735 -0.32875456867905284 0.2527549513703447 -0.4632060935755063 -1.3299557236422663 0.1281694320535812 0.545338397972974 0.2731919590375649 -0.236315895887745 0.34335511964944543 0.6942362797892574 0.11429318775655865 -0.20166058069242854 -0.6176963549743917 0.5266533744724746 -0.25622286484290213 -0.6800195050993602 -0.35435563107725193 -0.00907964164999696 0.028705277544968433 -0.75833728132156 0.896370402514508 -0.42392165967031237 -0.6000237711555855 -0.41149374010978546 0.2921489883037828 -0.5624345567330771 0.27965566817677634 0.8663035995056173 0.2713850634770989 0.7862531079212469 -0.20031704116878168 -0.5949780333583058 -0.49592154891573154 -0.4143883942878479 0.256125031650154 -0.22660810254743022 0.6019130006373957 0.6743340205866657 -0.8533655169488152 0.32598095620485024 -0.3022036202500459 0.3687166071893551 0.1653525826270769 0.04585373665051444 0.050818285280284224 0.10612275695064981 -1.2976344823906787 -0.6266445082109605 
ed 0.10718683974573474 -0.040286754082427836 -0.5027616386588876 -0.08329075857498727 0.18996144606459822 -0.46149553359854983 0.5249790010323372 0.395185663382366 0.06763550242169308 -0.2573402663913468 -0.24642686191333077 -0.10085288358804163 -0.7992694819240159 0.21332099001997407 0.4410337112052275 0.42685155620837895 -0.3125923806346886 -0.24728832020316263 -0.16481525531259916 -0.25883384095357775 1.0007492109012022 -0.15627452154839272 -0.44221801351153794 -0.33299065581277765 0.2780033096843926 -0.5312354751542416 -0.01894673920830385 0.09144327984885309 0.49764798018210604 0.23149162600047948 0.05600053201415012 -0.2303302065986781 -0.12386366035617101 -0.13427588314000793 0.33848317533379374 -0.127569813884715 0.6227828789699531 -0.09985298966969068 0.27726086079827295 0.47479107751194893 -0.4155181318553518 0.6602655412380982 -0.06752780936403961 -0.24085022989853386 -0.0010007149520432634 -0.002562213797682362 0.14512663551425448 0.563953648242034 0.5049248637928969 0.061673857901244675 0.3639128288824435 -0.2699391152307711 -0.1685571294729296 -0.1956980091911746 0.27451639441777337 -1.0330115316707484 -0.0013969735984049499 0.30463158660720235 -0.5495859587235548 -0.16474003673974097 -0.39113743020925457 -0.2550581339611452 -0.25093180202951104 -0.23744434029992115 -0.012322130181537903 -0.19547724893384844 -0.0991976987452506 0.3460956638408023 0.17576023812104818 -0.1594313497785481 -0.6336898428359685 -0.5297294808792603 0.4021221697811823 0.4991157029010873 0.15302832590331475 0.5917745449140014 0.0015701950318942337 -0.035692851106740184 -0.06365552255583427 0.3806312988493993 -0.08305106242886721 -0.1092799226470254 -0.14262758917341412 0.11370940872435872 0.15243584458930914 -0.02892556489950622 0.3510370426302226 -0.31517869016997574 0.2082299395667167 -0.3927212994973658 0.2485278091931873 0.3672442995745689 -0.1159785231345804 0.39029394089082253 -0.15259687765496632 0.9334923352107339 -0.16170619538996717 -0.2477981050375037 -0.16293751767747378 -0.0750255939338905 
an -0.507649232629637 0.3463949006725611 0.14140358411443313 0.11337447936241751 -0.42335913720555907 -0.19414944749271915 -0.8402716354470317 0.16522093057021803 -0.13726787858600872 -0.38004102797887074 0.23407479141514168 0.2807063512550681 -0.6119968763719063 0.5364690935863254 0.782108040817464 -1.0751567271495421 -0.15648789025209367 -0.30729739626681724 -0.5716972523696112 -0.6809595558964613 -0.13815825740373466 0.12479850003531157 -0.1347636282398273 -0.3164523204093181 -0.8794437589259448 0.11005689748240183 -0.15737781457928435 -0.14188495403510906 -0.20038732554357852 -0.021307709208740783 -0.6225105482955411 -0.8082037620371642 -0.09084222093123227 1.1087785674451407 -0.3441470454854185 -0.024586966813472645 -1.3101085907851076 -0.688592743513212 0.17214699328658817 -0.258451829255775 0.20786053631115275 0.7369612652288658 -1.1538437706018376 -0.3285315339957799 0.590176653213064 0.4853402478058915 0.8908682631782405 0.3910482154398154 -0.5747499435093302 0.7404918260355379 -0.13581385919233754 0.5828641533082072 -0.2969533832932028 1.158564736092358 0.36732016319184124 -0.15466795735486832 -0.3170299933653771 0.12393954055760491 0.27850691067041183 -0.03136918957659257 0.020524150026231258 -0.17937900624361167 -0.4259510216359817 -0.574479885324912 -0.7902135062767484 0.8122787634414049 -0.4693353504334933 -0.08911758157909694 -0.3823309383207691 0.3289995631817629 0.26175352910193667 0.34063234398224806 0.7320947396470847 -0.6060678382700199 -0.0016612887530687327 0.006518211650360782 -0.17956472047141542 -0.41187187633683076 -0.25223179460612327 0.675140894000715 0.02686844604829023 -0.011810568457292787 0.5507312887612446 -0.006160068772880954 0.07091836410283028 -0.07034665939118613 0.15750046987503083 -0.9075948108898563 0.023609294704346764 0.2440282275302974 -0.5074184945659626 -0.59797674694101 0.0901341193905182 -0.22593393270519674 -0.09769557320241701 -0.7495804177282377 -0.024570464322437365 0.9752230697823828 -0.8450514669878194 0.3201576042146666 
y 0.24914178936321055 0.03432074441786202 -0.09087001188619963 0.10226820575649834 0.5231325874564104 -0.05738393791276975 -0.703243499901863 -0.13635244547376968 -0.2951232428605153 0.43125503989476943 -0.4258050497862102 -0.6422139519495668 0.3496333049536203 -0.3365895818072031 0.5441325861409678 -0.3206573564016774 0.024403305064556974 0.5877223496952996 -0.036022658255722644 -0.09974738778599038 -0.27234445676360436 -0.3229087284832747 -0.4257726764085157 -0.19505041450670593 0.5827804255151547 0.1361739062564969 -0.16267306375945406 0.09095914783381918 -0.5219153317242623 -0.34146280732970785 -0.4010367049234046 0.11139205243355846 0.5905430643761928 0.4184959393535504 -0.10427051579676899 -0.17648567944335367 0.005485075756506426 0.14819021268851743 -0.2996115814535671 0.16479893108726681 0.09547577194825527 -0.3538249575214861 0.20735378527496146 -0.3187867229569202 -0.5100954463452103 -0.4276996910933789 0.23810103196598456 0.10373678930981153 0.16373076902034392 -0.05422185457393755 -0.4481885933841995 0.3985034471837818 -0.24880847164212333 0.37510650629809567 0.2803828851382601 0.5482775248165745 0.14117895484392268 0.005618513732625438 -0.3235284285527624 0.44166146256422883 0.6691161818242675 -0.1811916669417944 0.5575723584365464 -0.6665445596843127 -0.400711757460919 -0.2822396762165129 0.09358587550072185 0.3441986945987725 -0.5114023405580198 -0.3528588389857513 -0.31917554914040513 -0.22154692203324405 -0.5298823880774661 0.34861095534481173 -0.05901852152729263 -0.44555488226990325 0.027674345986002935 0.6192885929688876 -0.28265575488029143 -0.6555803089779617 -0.48560157331119586 -0.4860212603804634 0.2650722788866018 -0.27504604890170964 -0.056768542788650886 -0.3094000145666568 -0.08930121068170793 -0.0781235478177634 0.4287412118620778 -0.29160690620860125 0.23230370069322676 0.20793932311613986 -0.1857079234904933 0.016949126941453382 0.7996496782918516 -0.0028769578374803866 0.0303427268738901 0.2258938834921062 0.3004381012485374 -0.0771550431515782 
f 0.175675130277389 0.19932029288170597 0.1318065735109222 0.39312108606245616 -0.034508667623777994 -0.37147900996223526 0.28681638991754943 -0.5033668272942236 -0.26980548654439523 -0.8778457429846678 0.5812173759428904 -0.17589930899617726 0.05053385034330117 0.3536888763799351 0.33943014525243864 0.4543971491190836 0.11188707226892641 -0.21845131243981372 -0.21619228996931844 -0.36738646423822113 -0.14650735957422326 -0.11742769586070788 -0.49637526552200906 0.038168793531774 0.6784769669990935 0.5297281372318956 -0.2933809922626189 0.07510453848023574 0.0961557734819399 0.0722573278869373 -0.32852856380029133 -0.3447040267826326 0.16788172664378084 -0.4360277540724532 -1.456391032194749 -0.5434105702207886 0.014783664961842323 0.6794346376148133 0.9831567421598013 0.4134024123507934 0.4945565787890014 -0.030070386134880077 -0.16482406489363047 0.8119404225898652 -0.08671467344644274 -0.3806485973400361 -0.011648605839717751 -0.25066949555099877 -0.2427673028986391 -0.2521895727424775 -0.004194641394904133 -0.04929926366471849 -0.30536726163764916 -0.5709425152119715 0.11095403741644583 -0.24509147831202996 0.1695228826329486 -0.04670560593156719 -0.09858636643794393 -0.29297702722729363 -0.5067543177591366 0.31029992168080445 0.029116721606991632 -0.07725511239969926 -0.08120846290062064 -0.12239098733552206 0.18049171840871214 0.586405857544379 -0.33640973767454946 0.8502749774792198 -0.15501255452111246 -0.3168314442826385 -0.007022406813197251 -0.21450090069270755 0.29043315476244363 -0.030583140513397958 0.24670320029212628 0.4319011938503321 -0.36507796008573784 0.35621472402446996 0.0974121227504806 0.690611215934866 -0.09085759115914303 -0.04890213047914716 0.0889896504870226 -1.04482279703421 -0.2468402606613913 0.6947017485310865 -0.42612553010779763 0.21159811145506646 0.23142993961260588 0.12115171114733735 -0.5251701309268887 0.0031077821934932387 -0.3270464670153288 0.5096916903648722 -0.05906927752148564 0.20085202283542822 0.34576133587867647 -0.29331572600922273 
ur 0.4390414913870109 -0.26110463413736645 0.3755286072932306 -0.11099167912292086 0.3604284733752256 0.6718533103868513 -0.3803859617826354 0.19594650819995377 -0.03440330086121608 0.5249643368529948 0.19071955640434693 -0.8551608029852059 0.7521263835104983 -0.40847336156460007 0.16769907082907762 -0.5221316830022679 -0.5441513657225785 -0.1956530174117459 -0.5123596371015455 0.21391799184341964 0.657327317548525 1.2914651378004394 0.9211560037570535 -0.19868914047843703 -0.10011632572736809 -0.18232519342383907 0.25498715388147203 -0.49681403980301203 0.005686223978909961 0.46043054548306983 -0.740015247561626 0.11094985685552032 0.12423808228132348 0.4016555057568791 -0.5510600307331844 0.17393515249027236 -0.09534432453865395 -0.09467095811261758 -0.32655153478514154 -0.7344084249298422 -0.11117523133100135 -0.15933284906442788 -0.3179572099021927 -0.07756868251694217 -0.006050311977968889 0.49872642708457654 -0.20907725286206574 0.012637939472938998 -0.7841921965033638 0.3803335998759296 0.29092009685808856 0.6558130274111368 0.8011829810780605 0.436618281735414 0.11614750492239659 0.36956770716955617 -0.4507720876566849 0.8650752666111542 0.1917006055262434 0.7806245207151664 -0.23178123671918027 -0.31650812890272184 -0.1909192276333688 -0.09853005725708949 0.15049614470542239 -0.8748391887816293 0.4314810950178647 -0.08736230504780665 -0.7704998589953547 0.0773188835543047 0.21094686834096776 0.5057177069693211 -0.1631093678577049 0.04450863965760291 0.29732275828360766 -0.3240732917843606 -0.18481214215115396 0.5248174948728239 -0.34053465730885946 -0.4545218927282725 1.053018749558392 -0.33956800677545584 -0.4390797716165323 0.5032948191094264 0.3895409598055454 0.2939115349977855 -0.22757911296719885 -0.6399109932684608 -0.3003221905259794 -0.3054072099287924 0.8610446604370998 0.06134763729690935 0.18188348723746714 -0.07377236868480572 -0.048498839310769204 -0.2653440886186975 0.6776935262134517 0.9062834172445445 -0.3994773704770145 -0.7035141480519352 
ther -0.0599410031816624 0.12324730907354602 0.2559000913407435 -0.956458425360337 -0.5007462095662851 -0.5931232486604219 -0.43394660459608364 -0.11372095526370743 0.10342885062552529 -0.19089696736191997 0.012674950686442777 0.07362315237349223 -0.23967656916010416 -0.20409379912824668 -0.5239542570404503 0.09118019024004909 0.8763869698437419 -0.18797119941445584 -0.12842726590434234 0.45527007900654687 0.1309508647208544 -0.4095361479325447 -0.01973349236444759 0.3812047682700818 0.29673568104936754 0.9350911025599548 0.10027502234065813 0.5240837390166472 0.42570096044043837 -0.23365689158585576 0.8042477634692515 0.14865397510050216 -0.0026476840595631088 0.19954619077275992 0.5782110056918967 -0.28504282524762614 0.2234317629738356 -0.37161717172229375 0.6179157332702944 0.38086142103444115 0.7189420663939494 0.06396969150643222 0.2522978270783154 -0.8191553709481071 -0.15835608027277992 -0.7145972184148386 -0.6990665572288836 -0.6135676152576436 -0.3377953854890189 -0.36749535197500277 0.24139279178352185 0.12257568871810534 -0.1962728015015363 -0.47130669208918796 0.3525910655502241 -0.2587227929650654 -0.4064810641297696 -0.24207760274622514 -0.22000593019125358 0.5002185601181818 0.6242921580092491 0.6497332423686459 -0.0824871038402182 -0.22385962296494905 0.430265979538186 -0.021727016999528358 -0.3650730527069652 -0.47815241245230494 -0.5714458559288198 -0.41037104168244287 0.48527285429575595 0.08975993779526412 0.4490875171955159 -0.5890500920411028 -0.14994734154546066 -0.10139481406559797 -0.5375104293557023 -0.1220099113277365 -0.8102721601795998 -0.3456310788662689 0.2831761187019991 0.7495136479864416 -0.40127253376733396 -0.2823949549040965 0.41636073219559533 0.04084071957391722 0.13732242910663728 0.4991547534901185 0.433636499061556 -0.2758795116879135 -0.9768357738141404 -0.6052318265832777 -0.13736419627219676 0.3135269783325646 -0.5198504605825766 0.5474088352636578 -0.6787249062445895 -0.552589409970623 -0.627915835012266 0.5273824876453423 
, -0.5382974972731974 0.317959584477794 0.2963718981257627 -0.19840216894108625 -0.2912104853273537 0.10217915375722872 0.3692262905658581 0.39732156779127425 -0.4100335861697452 0.44523881917543867 -0.19304163491074836 0.027316800114989076 0.08419127638789319 -0.11255477096516509 -0.46473420335095184 0.03071957533126911 0.6007084343507739 0.36089148922513714 -0.1868334217345468 0.2384577132176598 -0.2536205247016119 -0.015351321045343348 -0.1372624176779838 0.8233211155274001 -0.5105144738668163 0.12269278008782049 -0.1840486443805214 -0.2796984265416129 -0.1532627338567815 -0.1710124965223483 0.7805049264008938 -0.2927452442370316 -0.2690555436859436 -0.21585930124525932 0.05799718277874874 -0.6354949230573776 0.1851734281235818 -0.14719432303660976 -0.012389201538027084 0.5837927698238088 0.16127793931797238 -0.4509298205779889 0.3130564088577417 0.2166483120497796 0.15796187056236233 -0.17215883995755182 -0.031374922168888354 -0.06173993312336219 0.1582423299776517 0.09894373561125992 0.14406231104048173 0.2191139954272142 0.13523700817157988 -0.04010511552562947 -0.023270679213940944 0.10626642492701663 0.3193762870664564 0.22323768248675546 0.3113621362863724 0.22921876351213744 0.1971489107132558 -0.02518724264422416 -0.6160271576448824 -0.3390269179415639 0.10472607372618159 -0.23814822881175524 -0.43894209356897806 -0.5447012612896401 0.2665068503884379 0.446405522441492 0.13977952755529344 0.015339167083998767 0.05034453269491614 0.7917166789687764 -0.2178040303069699 0.1814240826659817 -0.33557648803900236 -0.6348602527311259 0.139831601007799 0.19441093633429743 -0.6137459295885814 0.1572116013460652 -0.5236119077157262 -0.07915332782633615 -0.3238480920439229 0.45015700612966136 -0.20149202765082827 0.21792551471509872 -0.5298051097661443 -0.24988550181539215 -0.28717411171028007 -0.1344496411750953 0.13792320063011376 0.6654674917113355 0.11353470603974868 -0.3713885339711464 0.2116893849579765 -0.07387287394016023 -0.09560953943151647 -0.7562202967739766 
hear 0.21520493694901985 0.12142894292205965 -0.20901794251694752 0.31790404105045195 0.22527651483111005 -0.08697791670072841 -0.3289888625799037 -0.34516188248052165 -0.2128036372166276 -0.06295459998093016 -0.06185740999146812 -0.11457503407270518 -0.4620663334018477 0.11719697757518338 0.06427368359924193 0.17203500940805502 0.1559530756069889 0.40994718280115666 -0.01447494847261695 -0.21599575147677827 -0.30687666604850133 0.7403152959123465 0.06330678675102162 0.12546335787920154 -0.01991252032836703 0.5058118819337707 -0.07303380622371222 -0.009085594333130081 0.5999131233982237 0.7389254890716439 -0.40724193611299664 0.03242206159437668 -0.04209465734096853 0.14070079087927598 -0.1772416345206378 -0.1403413608547268 -0.43001150796532994 -0.4928945050199163 -0.01967042218004081 0.14123687117842273 -0.3398783061393738 -0.21307717040273652 -0.022170489918251872 -0.08072762871377873 -0.4198013735766933 -0.007452901023493469 0.03417540909878444 -0.5826301105689714 0.6009791271662032 -0.2598370545607171 0.4293016575279113 -0.10487016801936232 0.2334382648559965 0.3509953923966323 -0.1058948543290953 -0.47421887852824973 0.07113391540213054 0.16062838833020027 -0.2661553461748679 0.07994462616634056 -0.3059430263396949 0.3057834273061972 -0.2833855064603212 0.1959163983619808 0.24346524034457057 -0.2633010021039186 0.30695742388787073 -0.5352438979849035 0.2529031881704844 0.1457576392800796 0.03404249172960546 0.06365529397120955 -0.10768505246347351 0.11999104991378971 0.24356728384339263 0.0005638911906717253 -0.3670953957198989 -0.08979981919096991 -0.1121549226062945 -0.6007398675664413 0.3694593018099014 0.2222135813695743 -0.21941103348520236 0.22646688387887873 -0.058217121904646875 0.10567096949679576 0.23328819230612646 0.1270441147426864 -0.31148355743685724 0.19264282744157646 -0.658483748185752 -0.05972823050623253 -0.24354750646487155 -0.3668964401692614 -0.3329916977263144 0.2872282011407049 0.49636904196362774 -0.0784770416021679 -0.17409315897783062 -0.29039999716070386 
me -0.38122639545043246 -0.3638190233452176 -0.3447820939821052 -0.15577773436745343 -0.2619225452500247 -0.41026566301324197 -0.3702119060645397 -0.7152650725144871 -0.3061463426936615 -0.11307753906156863 0.8818957745104937 0.37670786779584053 -0.21855110120656268 -0.06577821723662278 0.7143646708709706 -0.6037656626766301 -0.29013242484436164 0.1536279325494046 0.16732789107957713 -0.11024008120369339 -0.7604829339811758 0.13777590807469836 -0.32766475767735526 -0.391593825649199 -0.2179489109890056 -0.5132619830256605 0.5856589913295345 0.14435556078441814 -0.47253916297059956 0.36060362310958877 0.14193343754321563 0.6204598540540991 -0.23275735344972126 0.14662710743834295 -0.7247904614750312 -0.027470376675172437 -0.43083931149532684 0.12759035361497983 -0.041362025322791866 -0.7571313495019816 0.28710524714996366 -0.47565464037479066 0.00510740391700993 0.19071717810055802 0.3260037707154847 -0.13074409763212186 0.4321315554994453 -0.016864872684716512 -0.3835188786944261 0.11198814784740213 -0.1815402354798553 -0.1785555659669676 0.48653664318845435 0.40891106087999113 -0.4162655571902867 -1.5453914838977412 -0.7676176852317868 0.7085187148545008 -0.8743511294135645 -0.031493132541506624 0.5895811048896973 0.36432733431717945 -0.31252759849141226 0.13839655955669278 0.07912734554782272 0.17074094557996639 0.10762189795852012 -0.3611280961734819 0.20294690318409617 -0.03461876825499895 0.3854365659388905 -0.5213461438219245 0.09351422124072352 -0.15482497093862221 0.21341531035826702 -0.3145490526370758 -0.01598442227375381 -1.1020929045806944 0.1760496032762149 -0.24306471742728653 0.24313476090326158 -0.1392098306498777 0.5911653438085751 -0.0447720725984894 -0.045066521046614696 0.5738982610515004 -0.300460463343604 0.27600123250316966 0.2536703466424748 0.056934997614153576 -0.14293264049831875 0.4527387565407808 -0.5014861479996533 -0.3775512328594396 -0.22263947069840936 -0.29931455541735785 0.8478074377581822 0.6723147820776985 0.18666140155816435 -0.12918497211343116 
speak -0.10442680800809064 0.11245760625968752 0.02885972618835327 0.24519230261959268 -0.2400489927217967 0.3716525730251651 0.28787522253615416 -0.24202357919839285 -0.29853448610309063 -0.03264343794223029 0.20713035316062653 0.4879300248666485 0.13700370586030425 0.0448837116847952 0.11272955014401617 -0.35496630423742714 -0.036755526671102975 -0.13931531310027695 -0.22604029440512732 0.4839755034211094 -0.28947004651624914 -0.24283130802279954 -0.1831258172464431 0.30422058713747524 -0.13880846084842935 -0.11631595467638126 0.36031155510566065 0.19259206221868524 0.020637561283771238 0.4468575342769594 0.2544755902570218 -0.4989448126293256 0.0499491170852522 -0.22933595911302593 0.561007102130941 0.0538005669416118 0.17528474258817556 0.12145612301595785 0.07014643824252775 0.33552357505377733 0.49819793155233494 -0.1355557462616827 0.20062104842544834 0.08722787068487362 0.3153616730719764 -4.993687495487287e-05 0.3414319361155835 0.35055572804166135 -0.3390459570675432 -0.2753187622892531 -0.22188649920772968 -0.5138912544080324 0.3713272446847446 0.4721239119895326 -0.02391556631499834 -0.4635749221225305 -0.2189533663378328 -0.1961250877200107 0.13180319992798195 -0.04368735267429997 -0.2532105985924744 -0.22832186167660454 -0.3257646100405938 0.0023657040214994443 -0.3125781122177792 -0.008735186593073617 -0.5230216969163107 -0.37353148317488816 -0.49125052881110787 0.01948728532007278 0.376563510551794 0.3755649467168329 -0.22639732983917282 -0.21256856054807105 -0.19047512286332086 -0.07718452315678033 -0.14635010333126794 0.27887185018519167 0.16261986417442173 0.5070040793804452 0.3736447788235846 0.436736730771529 -0.14324036778174776 -0.00287446341170374 0.25775857070722236 -0.22911282335326089 -0.3304350480296053 -0.1476850061240547 0.018201791954469596 0.16274262876342838 -0.21492292212065783 0.39534167285155236 -0.1978844465022246 0.22473650619960273 0.04338645809997961 0.24699784534861746 -0.5511295608218256 0.03884322961163702 0.45354041620893887 0.3870486310968886 
. -0.3776867191503354 -0.12019257828834115 0.06579491304564535 0.3320997803840494 0.16172477380317712 0.02342966502140098 -0.18664768415786892 0.03179281617771765 0.7252175300489031 0.2234747352945312 0.35075704714192196 -0.18638891268525049 -0.5705606474510523 -0.0825195104974592 -0.4055400465503968 -0.05789162425324988 0.06921266676662426 0.10276555915684052 0.3958816546886963 -0.22662705016895723 0.13632085824506673 -0.1691673851436299 -0.26314083461739707 -0.05780512299363845 -0.016000389509996403 0.13760891767776698 0.6617246436485391 0.474504039036887 -0.22205477356083755 -0.3230534467084014 0.24833509735310993 0.2417280991547426 -0.32869265315999585 -0.053082742058694066 0.3327184453213111 0.07812449769365787 0.22851537372463093 0.1889176405229805 0.23805463899571788 0.30173186657732753 0.2874022379366759 0.17208495377826843 0.5228597816306698 0.5104945206432424 0.25349780266755984 -0.1497963604843051 -0.16584908095792553 0.0006319045085479424 0.26614514073730505 -0.05913146186136367 0.08015292226683488 0.6282372807225648 -0.425642196699305 -0.3261791714545493 0.4068493017958081 -0.21897554876160347 0.18173599577429123 0.535306468207682 -0.536078353060371 -0.4526182246420318 -0.11755271964372516 -0.2935092008665344 -0.001473865659855099 -0.03815349667546364 -0.09933172856771234 -0.29450004675270736 -0.07110667462699308 -0.25081879344462193 -0.3748940094435902 0.191664711731428 -0.3485382002603779 -0.09665792359184133 0.5378878015688691 -0.12389533401759184 -0.1886234792099016 0.017242510477345166 -0.12658077911103263 0.05770659684489704 0.11214515204241297 0.018326966865472777 -0.17013476950355444 0.21890213060550587 -0.05950514162840889 -0.1556022864517758 0.08049022140375595 -0.21384504135285398 0.6192930796711897 0.11901761477947437 -0.1990035772724158 -0.03129015063746465 0.26784608342302074 -0.009894468372324702 0.17170870830188134 -0.029436127946059876 -0.34066966059305237 0.3500921123853503 -0.10591341341022799 -0.5208941813416942 -0.08438448200381259 -0.2445382586025886 
a -0.9216232393372532 0.7031258755026225 0.08351273322031952 -0.9937718581132429 -0.28147460168054683 0.48282084153706617 0.043385424143979695 -0.577314286668095 0.5502552730802779 -0.22359661765747624 -0.12962619456909064 0.3083311367896635 -0.07145507354111041 -0.05657905896123497 -0.046382206429167155 0.14334595403407793 -0.18288443486657674 -0.080544399417792 0.175923299798037 -0.034396011977101446 -0.05336282385369026 0.3984656211338092 -0.00913890402912243 0.48028699053379825 0.3697758388846007 -0.3748279415284491 0.08323798242549649 0.15732442715516481 -0.22987157454993143 0.1708154201562232 0.2809279036755321 0.6421480028272426 -0.3026437172098424 -0.04094266866685266 0.5106446957148579 0.32848727174604214 -0.5352766122419057 -0.6656396454241988 -0.29371982404929925 0.19464261284457854 0.08786706857491164 0.5856478760599009 0.21675262729424033 0.5812786110853005 0.01934599529558989 -0.37584968224076093 0.26876300027458894 -0.12283048008719316 0.4679178484954887 -0.33668941221332066 -0.31201596425767114 0.677258176277409 -0.0367743315816611 -0.4269745431711852 -0.3760783031989569 -0.47619566694818666 0.35197837588430453 -0.042005734709775894 -0.25802930278253144 0.20087710615734916 0.7749695688050563 -0.6923862319339096 -0.02701943137736596 0.5244893066092006 -0.13639580971460152 -0.3150735642547742 0.5108550147408373 -0.4906832080300193 -0.359525165641808 -0.674126479406531 -0.5248712863138603 -0.028583932063333317 -0.04730039511754426 0.30633009396383265 -0.012756333124217322 -0.20416099005189509 -0.2686348128853102 -0.4280057970418181 -0.5612398554659561 -0.33506588924727554 0.6546020359925933 0.5398653396323995 -0.4150112500328613 -0.7322879067748732 0.03651002197730567 0.1885431016422874 0.38437457316072116 0.5264675392696798 -0.2640188194037808 -0.5760368042987284 -0.47706268841145205 -0.27600122229577717 0.013434330258684471 0.6344213601739489 -0.6354930061184145 -0.2978813437315702 -0.02543549769848858 0.4733196558485778 0.2043835094699031 0.36781493408702387 
ll 0.22978778060316654 0.7083861892456529 -0.3955307456205131 0.11242504332262435 -0.33334320959521824 -0.25362804713988096 -0.7401609214899237 -0.2544192433876322 0.3122524943512993 -0.26908919435294276 0.11360317453150148 -0.08949921088838846 0.0568102451917175 -0.31170842961432016 0.24642823071416 0.27789055201506585 0.29534933649306994 0.29644547845795355 -1.0313780607647691 -0.1887749633928361 -0.6628140130612664 -0.6665358914723444 -0.17981982837389238 0.5067983601963856 -0.4671220438854494 0.7907736188026033 0.16260795441954817 -0.19187597484431357 -0.36121873708539504 -0.4367898244564178 0.07154649888858454 0.37609091611911877 -0.11733460339983316 0.22422179777858575 -0.5545172877450701 0.24075481915367056 0.7526046162655892 0.005134977639051258 0.45154535537636004 0.015239760881636784 0.42618253345303836 0.5331694163136964 0.3017110388924658 0.21823924584297336 0.35468623178707875 -0.798873035064259 0.9871563657815952 -0.34759765910938956 -0.2697086727389131 0.688116450329887 0.4921866322643987 0.19878646599452232 -0.4552621251632516 -0.07449395512515304 0.29702552049208586 0.06809868823198946 -0.28265577784055773 -0.39505993427916536 -1.2859936707592434 -0.12417412853403875 0.5251704209617277 -0.6844636311585631 0.2586916963259123 -0.017576500447794456 -0.0292464786553425 0.5960436204355302 -0.08282952480780108 -0.19945474791494092 -1.2328757426052035 -0.2707294373272339 0.4215122792620036 -0.3214053874504044 -0.20594093763519625 0.6320424365438879 0.010866732911292209 -0.11557860642118296 0.9312867346295028 0.652130205976807 -0.522144138681301 -0.21291274517533115 -0.15332437204820334 0.5072555450590409 0.18154783489225632 0.19694486294142918 0.7203538330975952 -0.22466315343294302 -0.6584242436014367 0.6286195712654801 0.3897165241972693 -0.3958751431580937 -0.045666491724543616 0.45541422804552145 0.16381053142412105 -0.35347709114947656 0.7441616595968655 -0.12154246487962309 -0.17789074529122942 -0.5584340252507675 -0.6285597100442895 0.562509897993015 
s -0.04185450345834822 -0.5335907725329907 -0.1610042168644801 0.3555246616112495 0.06014922080904757 -0.2560220142391499 0.05168438384297942 0.3913640647914436 0.13496101536116534 0.12680215181900512 -0.10285828171959298 0.18726366926237104 0.49405598096691833 -0.1466047562082327 -0.6694212666189534 0.2051819057511894 -0.04841401488969217 0.022014901498864543 0.23611861934913156 -0.31542322853264637 0.35959057532848016 0.1781734498298957 0.7172960079321404 -0.3271917839108127 -0.40074879717316 0.32825199756447565 -0.09703295334453194 -0.025601407656097468 0.26108261949734024 -0.6565830235067401 0.582867047348208 -0.3323579505941003 0.34716600224199556 -0.11394095242529184 -0.05313709109850788 0.17989602208468655 -0.1282768703376395 0.0866139679853779 0.13626467856563165 0.10423983772726785 0.2908596901224997 -0.7289451348972253 0.26112557243091117 -0.13141696698458097 0.20701711720814006 0.4246484998699651 -0.7129180194382032 0.20590135292241782 -0.18720844591936772 0.44292442226351236 0.06930657294473566 0.43676259704911685 0.012374462409184238 0.1395726282460819 0.3099308954808521 0.2460281403859324 -0.04417860936161706 0.3221177631449203 -0.4652650091085908 0.04910271294715916 0.05578835449958518 -0.19854793288105044 -0.045063122450521784 -0.24629693482884896 0.3093230031483897 -0.3257736395240268 -0.311332083116932 -0.3147604305275158 -0.010892365776551394 0.26990501713189374 0.034757068182195205 0.17647061032882105 0.2988457734665848 -0.6369799688085854 0.36769258529478177 0.17747595791382453 -0.0834256569251103 0.156854983185789 0.36396119799648735 0.2431060619577173 -0.18238427636139687 0.019729083938623396 0.13179838190197393 0.160064308793602 0.06511192791407788 -0.006479548047311337 -0.2131595923528457 -0.5677886443107977 0.18076480143066595 -0.0014473572980132077 0.09881429450921353 -0.20299573730945467 -0.06999159474445171 0.06701859932610758 0.3332325244803017 -0.3874255460686154 -0.030773956460607814 0.2772263758451887 -0.0023819786584047334 -0.4233684638660128 
pe 0.399510997387547 -0.12720949503910267 0.4405667936486391 -0.590381843955794 -0.10412029999887248 0.5383012224938849 -0.2628602862264585 0.254676017779769 0.6007806190013235 -0.3004377254937479 0.11257005112630854 0.5159724444909877 -0.14375869809288278 0.5337747010099284 -0.32391114400149507 0.0974647931939505 -0.14828482258736797 0.38286145268159966 0.27131009272161605 -0.33173329276929664 0.05040451631703613 -0.4414925413030689 0.4377277005164977 0.27779673502399554 0.13101103171854014 0.059825653108508986 -0.6619233494473143 0.12790772832868666 0.46553680914376605 0.8628381067147923 -0.47281899398148236 0.6177745140589193 -0.8790084203131768 -0.37860772247135 -0.027556030318834336 0.30390350174490477 0.3953111221997932 0.32350468892755363 -0.9493283108138112 0.5264694267298333 0.6255102184701486 0.18187783405832242 0.014285784318929922 0.5847579970277336 0.24961898334940763 0.2476499212554495 0.6322428018650841 -0.338184581683909 0.06099149268696461 -0.4852404870700428 0.29780346046843476 0.3647515706155614 -0.1622699668284042 0.04436390143998544 -0.4783319974015567 0.04302753167836991 0.3787811329515059 -0.6632887308581499 -0.6289629917143951 -0.541281542147537 0.03431565019067386 -0.7226548819094157 -0.04530381938314714 -0.1765156694313259 0.6427251980985642 0.3827227833504813 0.19537423704463425 0.1748678050938395 -0.006346065724269201 -1.2139320079819729 0.3597833630932655 -0.23339803515757865 -0.7915254023491927 0.40389663127978703 -0.797834154910587 -0.4951350395105739 -0.251857648592752 0.34479094362957485 0.10884220980200547 -0.03552075726143031 0.18598422061375783 -0.10956424429492956 0.83928404168333 0.5938766266121848 -0.05983062558304143 -0.3379094658869171 -0.17614642092970487 -0.501600412492586 -0.02613686174251811 -0.4181195077183766 -0.27734771029466004 -0.12797819634340826 0.2921868018204923 0.5529461693943816 -0.5768086963687536 0.3027411779449701 0.3375383445699025 -0.2870456404524792 -0.28921001239508437 -0.5453605297221737 
ak -0.10770583170570189 -0.03185233275940914 -0.16812097908862667 -0.09076872542987559 -0.6812572224834988 0.13980028094876532 0.15795010243112304 0.36930543323498055 -0.035647443635127646 -0.3986392428358004 -0.10256353673627062 -0.24311979394608893 0.38264484488984696 0.04570072646512871 -0.13732408002955496 0.16810403370959992 -0.3855717064006694 0.009857973101898045 0.43951460347481836 0.20517555598000436 -0.560118240274624 0.36093567234935947 -0.4979132386151869 0.3904110957021426 0.8008057018502007 0.26948376439531946 -0.12522333542730196 -0.005027572947089899 0.7179365243587946 -0.4856891686137841 0.3372902567442133 0.36907465120756694 0.6058786241238155 0.01240941327197239 -0.23049921848730257 0.11471382924157361 0.19580292172501135 -0.07241625941656021 -0.7835498409088968 -0.06651360653344644 -0.1781106289019871 -0.12937637218678322 -0.008817936990003057 0.17984541901354514 -0.4465859830657183 -0.6286726528603945 -0.8969936033833736 -0.9778120969531391 0.7920511522020965 0.008345407818088055 -0.15223694234129173 -0.38530411898404565 -0.30003651529350767 0.07640533502303122 0.16838535004770183 -0.67005752165125 -0.2419231115967617 0.0235826750331374 0.1466481614790731 -0.02098529766619281 -0.2849884930982274 -0.7604990185622187 -0.094798272057205 -0.69983193704899 0.29098256451123183 -0.20395887585958772 -0.35218966500146665 -0.38925419223815183 -0.7126904950783616 -0.17938869157794063 0.34886395579178886 -0.07143921313135729 0.09444937948574073 0.5445519429004344 0.24424566781315085 0.1671617635465078 -0.2510116585330688 0.3215444628052898 0.41673453156240664 -0.5213947793502207 0.2498350008393314 0.12621381473764937 -0.0439829742835121 -0.42014081323241526 0.8168017973500887 -0.3409244093710182 -0.2771304087196467 0.1434918317378456 -0.40293530813437256 -0.12192800451917322 -0.36841440900311806 -0.0435786912323186 -0.1362257232010325 0.03457007544691233 -0.16278958094476403 1.041063709015679 0.4252044112233442 0.2095009771879386 0.2624506184555956 0.7105440731734366 
you -0.34438043443860233 0.4463108446881587 -0.10667878769531287 -0.33549697951704305 -0.44358029292539397 -0.18065537681214017 -0.1927938807851199 -0.0647576151080659 -0.6240808742980011 -0.2362965066993527 -0.12449676472681483 0.03828481790673441 0.1935933834829028 -0.5779869251994406 -0.13052905260601952 -0.3524235904744784 -0.31041641465208847 -0.24493161098183627 0.2939893836472474 0.28232730670511585 -0.07422435192183208 0.48617836162297867 -0.09085509061951318 0.6143166347791195 0.3286736026065132 0.03509720432631324 -0.5163273678057246 0.3350829437079758 -0.22674849085343962 -0.603381157722798 0.626108448872337 0.11550132825194603 0.0776209902437909 0.41217090320140026 -0.3041206647263888 0.3839424933894374 -0.4693504580205495 -0.4404473538081493 0.39311534120064945 -0.27380713143787083 0.3879879398373952 -0.23703772978464446 -0.1399497347817342 0.75459903463748 -0.3481348351941252 0.05480356394921132 -0.4145568785141962 -0.5950576546576224 0.5723898491186136 0.30140025992302355 -0.1332641244372766 -0.3138630798491864 -0.11618250299029216 -0.250569328538812 -0.1914708883571542 -0.032003767473766744 -0.060297408492077466 -0.10596587006493777 0.35784032952836364 0.7812678523542818 0.05538084052345432 0.6047050222532399 -0.23277888384905698 0.21601614922917867 0.39055695299524257 -0.25807065866910867 0.08950002053249928 0.0006952707520020696 -0.36906615064665305 -0.36487209311915453 0.29849753393977946 -0.4749565047904903 0.10903494768152731 -1.0564262792574335 -0.586535073899639 0.5758848048290917 -0.9310321550563647 0.3232413224741334 -0.062051105106621776 0.4782057926225402 0.9133731937169371 0.5419334305651271 0.26424901671761186 0.4072998451943542 0.2225089536647953 -0.06735866215008621 -0.07111581486455622 -0.3722064834515224 0.11034565311080291 -0.8217432681834458 0.5840332363701817 0.757753108073487 0.2210413484395518 -0.0914455979121207 -0.7001050293394411 0.7394766073338964 0.7996825472346601 0.04195701813601557 0.4195913054932838 -0.012750318047335146 
are -0.04979678964690761 -0.09104919346231911 -0.10250107391986955 0.20578988004914694 -0.43415055151021026 -0.17242297181078342 -0.67406445090156 -0.7120876254060896 -0.008405697671678251 -0.35651737960271845 0.21997857066050897 0.23134663157613436 0.2809506962743112 -0.34461312441652614 0.6340879902957612 0.524257287999428 -0.4728645091905632 -0.4969801476281242 0.09571483291445632 -0.03337473043046277 0.16071016933372437 -0.2721941717756898 0.2719357378745932 0.5736901667340069 0.22433468092041262 0.4745387934819374 -0.26965922383444263 0.08031248872992582 -0.0015577180562030106 -0.3088794736804237 -0.4615031105517007 0.24081741636216591 -0.9931496656429211 -0.7532559361085128 -0.22396342665663108 0.5568800630855256 -0.019517953477895547 0.3339722128477522 0.22273436579179084 -0.3862728375844468 0.6413594003260806 -0.9868691362281097 0.10337866968857978 0.27074911870989204 -0.3711906342914617 -0.64891284190834 0.29104114563625233 -0.23460555452154058 -0.285025511840907 -0.7713594016718431 0.7233592757677783 -0.35281500249317205 -0.11758614399868274 -0.41586531907616114 0.35219250609140135 -0.1583778105735809 0.39241157091778905 -0.3016828460038854 -0.3187651013163437 0.39182761971385377 0.4142769355909823 0.26021437995198315 0.36085684772640264 0.3237469093464218 -0.9127969764354752 -0.04327950499975253 -0.06264431236871011 -0.45042699842076156 0.10787777053131774 0.08139270815523517 0.7798022619071285 -0.03649992825668676 0.0011823611801853907 0.05671289416820599 -0.1364312713504224 -0.7281836322389985 0.21396843175333646 -0.1202844924426544 -0.15639108392985315 -0.1704952853918642 0.3656184958831246 0.12590632807819635 -0.3854224777265376 0.8803979660207847 -0.3382587909170387 -0.5501434565167462 -0.22368278082612078 -0.5120435592099324 -0.04063580729003241 -0.27837990522765904 0.04943512244766235 -0.1915410692563439 0.00740697176107654 0.8565505178709152 -0.03522929881461776 0.08223431007544459 0.5741079476146403 -0.0059299554049310615 0.26056196296031114 0.2667683435480373 
all 0.002869924776884039 0.1486301701385175 0.4126769651385306 0.291638972011591 -0.23097416489431163 0.008833309399211675 0.1566505109479455 -0.10480276692181105 -1.0663203001927801 -0.8502469612409441 -0.5413548025998896 -0.35490298840904355 0.7840598751657766 -0.13754461864065515 -0.04593381942704764 0.8160142923383792 -0.1283768734711235 0.06043258605387332 0.2260473855675397 -0.7308259833798069 -0.18648728842882828 0.11755628456794405 0.19918693515570873 -0.2163589708637237 0.05790434912340957 0.4290020809287523 -0.5324896742701819 0.30318137569360737 -0.3409671067849292 -0.14746674726593936 0.09152619051802563 -0.48150904926907556 -0.4279780569124096 0.13018255017316507 -0.5012853475030725 -0.5168267373609801 0.1129148144663232 0.7407104765561968 -0.060385092936480284 0.2556484292954212 -0.6258464833394919 -0.14998841830530296 -0.4887710165003506 0.12151272701310059 0.11446140870053167 0.06663150875436402 0.23539896773380412 -0.501337086723529 0.2877355427061989 -0.19646827229299207 0.9863204150869009 -0.6904043807348574 0.08711167861532428 -0.018793201301567412 0.4161432937774456 0.05363669219865255 -0.5528207254437792 0.0453126061412159 0.08204496635667459 0.4842339292068866 1.1549987393331562 -0.6721826295904053 0.30877782329843617 0.1677172411366054 0.19752478484759137 0.10025320809140331 -0.2732438963296701 0.009136535188169717 -0.008042260400116588 -0.6337534776018341 0.12637008502951608 0.6142360864004925 -0.23637536759036953 -0.1540792187420113 0.06925779000023317 0.7168133677464644 0.014597464552379369 0.18311211836247293 -0.1260180188786152 0.10425823598350797 0.3141165488715603 0.22938054783980166 -0.14388473353112885 -0.2918108154791753 0.5357655841537409 0.3940312008646701 -0.02263874863167016 -0.4312606765374973 0.4577436338870218 -0.35648495699281385 0.4445456624660314 -0.2707557466454327 -0.46785751388754687 -0.28699804293598874 0.8297711299580035 0.23586379406468858 0.09365834733715284 0.44010537695012153 0.17393657564606588 0.4629638559410988 
r -0.44219916483817845 0.06902680190831616 0.1997981059952707 0.40401934420258107 -0.002899026952525686 -0.019499337727693945 0.20258879218694145 -0.07819904181468738 -0.6737217801267206 0.09914381274651263 0.6564518288075121 -0.17549596794120972 0.8757164880555585 0.30771110111559613 -0.4967365122567442 0.022463193710969748 -0.06531506908141413 0.4589491102619566 0.6889572012615132 -0.12230791073360844 0.6954494342416468 0.263354813278222 0.19642359261462194 -0.44775502084439767 0.7239922313869992 0.12978294279127345 -0.13999350226901935 0.14405741667773808 -0.4195524297003269 0.25487305142712324 0.10605210240051692 -0.05572667768191306 -0.0892142727040336 0.17994289724074713 -0.40412085978387796 -0.6660632721259521 0.20441144786533683 -0.019707025325283383 0.21787218034569994 -0.7680304073881302 -0.19055619945976157 -0.17590087664602572 0.16610400556385826 -0.21435045495724273 0.2607127482649778 0.8651008910811038 -0.1417718395508097 -0.6999981884916836 0.13871169983521459 -0.13514694024822393 -0.23865291199914984 0.44631912689324826 -0.4883580910431665 -0.28100642881911975 0.5154096389557324 0.016040748565279803 0.05259243829209091 -0.606521348512694 0.012638563198707722 -0.005092294815899975 -0.2196050068193553 -0.6896443686661478 -0.7720180998741751 0.27367696282149573 0.12212193449935613 -0.20336623154868583 -0.08029504985926797 -0.12213708315350444 0.20495524007331675 0.22474347811414727 0.5536970575978716 0.555028130001834 -0.5071808330218225 -0.660163358826108 -0.016190802768815644 -0.2787246477305431 -0.19386574360743275 -0.09433099718772572 0.44629544482754424 -0.5405476700821523 -0.22568930916780564 -0.3221746357248153 -0.8141689085835364 -0.41540957951401164 0.6709140830257306 -0.7955668881563196 0.1896512648769391 -0.7358672824954492 -0.13954092407693847 0.4784260595677527 0.2227055248909521 -0.10172325547069205 0.8973521252587253 -0.06265507072642226 -0.31348677731027125 0.18943963603348093 -0.3125183763568523 -0.6106628444023378 0.33166128867073996 -0.5154402490367362 
es -0.06573390826776736 0.15226773998886964 -0.586405516683235 0.6502671753118635 -0.37471186576221566 0.7252588498563673 -0.01641133494943317 0.21884786996128155 -0.48038915007157995 -0.2307315723651632 0.22805484285244126 -0.516791834015463 -0.37896711736498895 0.1991179859907154 -0.4621386886622247 0.268957125338137 -0.3576111012777987 0.5340955997365012 0.4453719149032152 0.044093738231200795 0.6386506492268749 -0.45665902460383556 0.11908534635119006 -0.2876683615705419 0.17023039014772517 -0.30806310309097223 0.008761518924050101 0.5210527620798652 0.17460837513755298 0.27191759100384605 -0.10980227435312384 -0.03380875224235348 -0.38596631521403846 0.33442003983439506 0.3445033883028866 -0.1600999072269822 -0.4068008654895228 -0.34123465976865036 0.0434994261196255 -0.3387945309873535 0.7542817410771137 -0.43497081136496163 -0.05951840039233799 0.026449410667837552 0.32301338901621174 0.26674188017902595 -0.19390177238589487 -0.442243492946155 -0.6978033917815049 -0.9616114632221265 0.3990053672737383 0.7124194252836037 -0.006882803710850212 0.151093647104701 0.2779111159237933 -0.10343652514893596 -0.04705112234697577 0.20846148394546404 -0.20172730428538188 -0.281594277390886 -0.3044023155834673 -0.0409069013754304 -0.11509701429337578 0.23324115999657397 0.14383953888079273 -0.46655902122408877 0.5707318269745315 0.3907563621505748 -0.2140236188435457 -0.30097003005106465 0.2370578670411134 0.7462719539909562 0.45503923151616976 -0.413317461315096 0.07874026744649346 0.10562145818677006 0.30280881167539864 -0.18542443009020768 0.483166669877428 0.3951271090079656 -0.13579615347486554 -0.7758591816923645 0.08141623267739148 1.0035692379206833 0.565528784180281 -0.44841280848658677 -0.039830588291516277 -0.5586464191309617 -0.6336444783071682 0.6387494237615481 0.7178223048988142 -0.1590997047297463 0.8564296985593318 -0.4546273340845803 0.14498605264343042 -0.03768250883901694 0.02137635386918017 -0.2451047030402048 0.34609263774607996 -0.18862774412752026 
ol -0.5354033211704372 0.41352656421619705 -0.10336512545821354 -0.9379488340292698 -0.5167499256883915 0.09152547357979396 -0.7393864282724495 -0.2794975540281451 -0.6163404734168991 -0.6934338497905717 0.24029377343278954 0.771994172355546 -0.05460917151250903 0.4005471613888898 -0.10185764100588665 0.5637881142081905 0.059923663766448525 0.660403759565247 -0.32623072250489515 -0.7774116091095389 -0.5530314008186887 -0.1277855219206952 -0.09699846390024204 -0.5396822816439609 -0.39897211728401055 -0.37309566550102896 0.5897222607242361 0.19069646940030208 -0.15927319846396149 -0.686027854049375 -0.5481266081265173 0.3420001487958156 -0.05898817942439016 0.282713933014965 0.20629922310527185 0.055789832040622975 0.08391059352177269 0.27940033982946 -0.14110594193778636 0.10258723799493659 -0.1397967060822406 0.08299972604860183 0.13957524153662237 0.10680506520615751 -0.1411958272850931 -0.4941004872110741 0.03140192276771611 -0.14079094233401285 -0.5335698507412757 -0.34682246497595015 -0.6785291300719158 -0.4584738120219916 -0.1983085587456934 0.36692240162648615 1.3548362498495854 0.1697973370853024 -0.23546820938079763 -0.5538024297111844 0.018526715248258385 -0.5036096764164305 0.9629033296350673 -0.37461530931988907 1.0851618131525707 0.11219418322105498 -0.2806071749590481 -0.27000631912931705 0.20662184698278402 0.7937194040170861 0.25710401858654086 -0.023469046312567222 0.5673707720169234 1.1116103986254746 0.4699243353546236 -0.5241804443807565 0.8269542784595832 -0.6590179233979556 0.27433878955603735 -0.6646038878318173 0.03848478448495959 0.18422589246543025 0.15209925444282402 -0.15123101753439355 0.12235400011270874 0.5437446459908465 -0.3061646542551682 -0.6877280275569297 -0.27893830869350317 -0.2853854180971012 0.114154194390108 -0.6883702322375608 0.5151210923207278 0.17233905977614605 0.28315490997325965 -0.1830718412730934 -0.659344272884519 -0.3452731136512541 -0.001198190080581349 0.5137863928226096 0.7721539816652856 -0.285769056942861 
ve 0.9992447367739107 -0.014980366206570686 -1.6085374774666936 -0.5969521918103932 0.6494104880403412 0.30468712055875186 0.03684699808363149 -0.8056101620760978 0.1667743088168235 0.12598181423837393 0.4959426741862509 0.08813940768432516 -0.3207305108536281 0.3781821376662052 0.0001303166295452112 0.7807592407619994 0.606624659117486 -0.7024252226242318 -0.26620559624705586 0.10026752728718093 -0.5950865856879781 -0.5988252889107959 -0.23428472091464256 1.0534762623349605 -0.06450897218133268 -0.07934446104420098 0.8195602043448615 0.6330853233525386 -0.3066362201799621 -0.734126111286571 0.3285970307756997 1.08098151998197 -0.1340229260895301 0.02238380002520885 -0.0657192155536291 -0.5979162971851095 0.15293817213365377 0.4992475672734525 -0.45193144686576353 -0.7128085162837694 0.7261164218205338 -0.3076966260837537 -0.6025409011309061 0.055241861613285544 0.5521320335451958 -0.3111580107079951 1.0703175472244146 -0.6705777832129617 -0.7022556599684772 -0.1912214770965503 -0.3931010490062507 0.33294792950467383 0.022906728276887445 0.06946131250457975 -0.2493873409111189 -0.4047446526885341 0.965802600550791 -0.2181577392029471 0.5608075560070103 -0.6848679615311556 -0.10987765041030913 0.17488993586206977 0.004556398073117678 -0.48480877888920826 0.07658395238505739 -0.127319532346641 0.3668079310696166 0.10493408849639574 -0.34567221040548696 -0.5329911472439769 0.19746083478234921 -0.8587774127508474 0.026541434862647265 -0.3102518432791356 -0.5168629797596312 -0.696429532731368 0.30360630795467936 0.0724602407645035 -0.37340038970655876 0.6234136632472292 -1.161296744563165 0.9004558646431366 0.5860144432957276 0.3825679947602325 -0.11558776506627721 0.10668936639276291 0.10214569679666978 0.032135122475537244 0.45781389117014026 -0.41183417520607 -0.24433806461391647 0.06643273317746967 -0.014672876836212854 1.031496586466881 -0.24497285762313492 -0.005655743060284555 -1.1832488710217235 -0.44045950176875676 1.0685701954783968 0.500201903858325 
d -0.3090954881353422 0.048042405976014675 -0.5863125876970245 0.31641509340785273 0.11202105358610862 0.3832467639017471 -0.25667902911242907 -0.634050339412998 0.11546639375111165 0.15424293526523775 0.4117092765994818 -0.3505276112456414 -0.3791683279034819 -0.036975305330137 0.34623861224949415 -0.6533191516154311 0.3885677344400586 -0.23394926195399918 0.08493556318041398 -0.09608136713540215 0.15481604386012437 0.44763168111510965 -0.04808241812159499 -0.5277950642972526 0.2117992295547418 -0.1707902194834378 0.37795522788201863 0.47790713527889433 -0.4096056267744112 0.3186425130535691 0.2058031614531445 0.5520921630075836 0.42930663172548555 -0.24787994685304188 0.0804210164277517 0.7564784083934574 -0.3252780598841829 0.003502307435456928 0.10352853704540142 0.12775990650008742 -0.39317602550634284 0.1067506414057327 -0.3922895302344893 -0.1181978321897936 0.3416469796358417 -0.3913294386710453 0.7691694915319306 -0.5643297808473178 0.5394738128917972 -0.6821980801873683 -0.17329312044127534 -0.12054896104052452 -0.3675643252426594 -0.07756463925604766 -0.37729853629662136 0.09872941104078398 0.0019135309346223024 -0.1327628414775761 -0.027422358879283883 -0.1630025154662303 0.5624821545690453 0.43078932718202645 0.0617291947044583 0.30396585691692773 -0.34046904731653327 -0.2168126953091076 -0.020957356280707877 0.01003464628222761 -0.29335447518202734 0.4019150202929114 -0.014627972463567191 0.27683207573886487 0.345897644208155 -0.04297660682474202 -0.17929209367360016 -0.4504960937859507 -0.09531638919909713 -0.5336273731741401 -0.5352176746927915 -0.29677293062618204 -0.30919640718581304 0.1971924629990184 0.5579445113041579 -0.6992546220041568 0.2514678389407744 0.0029948681664910947 0.4367365020425739 0.8508167904247327 0.0441664625896252 0.12208900090962858 -0.6159841888666306 0.5594000345970337 0.6625135086865142 -0.08130158847668108 0.05539746491567059 0.5744364309116883 -0.2742679501275976 0.4859600428781814 -0.08582045130469866 -0.10255014094702906 
ra 0.3093810840546132 -0.09161215821050081 -0.25212263050416417 0.6857156153197524 0.8205162777884417 -0.3914522484607885 0.4043827817311224 -0.8188781870261611 -0.5502618070562078 -0.4373933872919142 1.1179783084019206 0.2909153479934782 0.06187574931879403 0.8400349842896585 0.8445839330424035 0.27139688580686705 0.01258779301497663 -0.6896833395669605 -0.35650022059388675 -0.008840598708684661 -0.098309636254066 0.4400387552980226 -0.6933185769749706 1.111891671457062 -0.16479558302271904 -0.7878641366207001 0.04912014121226049 -0.29389787901420106 -0.28487220506685124 0.3069322844205989 -0.4565575420124298 -0.15085205335642818 1.4672335377564876 -0.4039910255991044 0.4327123927975906 -0.477509457572611 -0.3456050673679239 -0.04928522137939263 -0.2467621237265561 -0.7330342430094601 -0.3179722840283564 -0.4066797859788226 -0.39093393023417267 -0.35009361089728475 -0.026965837768863285 0.11065247975392863 0.12715018507141743 -0.1775544537591497 0.3152401509578578 0.028599677077014517 0.3648238706304142 0.32306171497986924 0.11243415273052432 -0.07440362070436615 -0.049705860879116874 -0.23693980809352785 -0.22550586644407333 -0.3476226039623418 -0.6630680032209683 0.4671839114382631 0.24910138406917443 -0.5839406701965679 -0.4831201632709529 -0.04640615051107612 0.0703043205110798 -0.07945587232151673 -0.5540942585219195 -0.23595470666298501 0.1683394929036971 -0.47356006673677337 -0.8081221686686507 -0.06682687620227395 0.33431470741512553 -0.3692565142776496 -0.2989022882266435 0.2476171311443245 0.07413172788346606 -0.0019197848787150251 0.14139164614402763 0.2893943871925313 0.9738146126791533 -0.5142309233903053 -0.592094988734489 0.7515938851297169 -0.392308784816412 0.4737724773491192 0.4219916448985613 -0.4020673494916082 -0.09628428580602114 0.5796550895820733 -0.34524898795990394 -0.016004457326223284 -0.5022092619186347 0.5286885307369348 -0.4356009332980767 0.05101261638396241 -0.4194144586796691 0.5188935868085389 0.27462460204287714 0.4245363864606052 
to -0.14921526427589366 -0.2944931471564092 0.5166055658186158 -0.06730775468763522 0.2474723710968202 0.008294330769072579 0.614850491791936 -0.8669023076557765 0.015953023020471066 0.10774629569705002 0.17045630547471027 0.12647769112789564 0.42964980794072494 0.23123922958857263 0.05049227917617707 -0.5281351232763706 -0.20202399973122792 -0.6371214637094715 0.37318606337050125 -0.3651925555565927 -0.31766673077956825 -0.08207079362291388 -0.20531371183301922 -0.35466047876662965 -0.7145506076565955 0.6263546154631933 -0.6021854028419366 -0.2915028573356253 0.005348063803888367 -0.7943347621427959 1.064092307311671 -0.458355211998891 -0.00852022456257228 -0.2390554267032485 0.1937377820262331 0.08751289706559327 -0.5314852133443874 0.11455861023073441 0.3878290279514103 0.31775176029124913 0.751416045951974 -0.018941055987032045 0.24996363414780115 0.04221646106379045 -0.20615415572606724 0.17579987740440992 -0.6858226879067304 -0.9397249894084961 -0.19301209019344268 0.024959287835158717 0.024261394368824515 -0.22201086480023047 -0.0853904441077803 -0.36692277712676236 -0.5660915916286261 -0.48154051112108653 -0.46459124303130905 -1.1640581931040141 -0.6001171328338203 0.12156024910471377 0.17516281290350405 0.5383220346805176 -0.27367204527173167 0.6006376117095333 -0.26327181252107484 -0.18041264586060457 -0.3373606341449895 0.20250433792025319 0.014184515780018475 -0.8968379186637401 -0.385701766209179 -0.0494316537307362 -0.10073143224309372 -0.5328224879674507 -0.06892430040029024 0.08093739226807434 -0.06207631037148486 0.4520792756376035 -0.8255623297576701 -0.09229977179586091 1.0643948231561842 -0.41532924651883596 -1.0830702816814708 -0.37360593361940775 0.13666378579733518 0.4048935519333006 0.4341403289585889 -0.4734547444748734 0.10150937443607032 -0.8729237121808533 -0.78668021972755 -0.7865101369126387 -0.2396678500571888 0.2028857331457641 -0.2401324347481305 0.017966681109310156 -0.21204298708822605 -0.4471638733457265 0.18415011346846283 -0.6462976074940021 
di -0.7575044893862753 0.2609979696053305 -0.5794924795377256 -0.44347564099384296 -0.5859554194395866 0.5531062362337451 -0.004118179561240824 -0.9915620028490991 0.3539692056264485 -0.07912564677853677 -0.08583205330686956 -0.037464450302218656 -0.6490821460954027 0.023367957544034028 0.4007227958472729 0.36947231306690875 -1.1908178653916417 0.8142325457638702 -0.4981175563157716 -0.6361359714378704 -0.044546495358583876 -0.14337302661967197 -0.5752850674868788 0.09334785361882308 0.11335391101787466 0.39774648466178564 -0.3466003397200961 -0.24525903710013824 0.2635839988902591 -0.5672374985926333 0.16251288052416235 0.10776539166038764 -0.7960426697487689 0.09040888862250837 -0.06276690527600995 -0.6192409218536652 0.1816869543642372 -0.3440005904165586 -0.6401340218263947 0.00655788484527059 0.17483369009435099 0.05662202783413331 -0.21188069716063873 1.1329564638545697 0.03665256053110355 -0.4004871785075599 0.2071837262910408 -0.23033774873008173 0.9221544667854875 -0.08933094338344985 -0.35254748172417694 0.37793795769084415 -0.6842389592696844 0.5085672499772905 -0.12388269591542131 -0.12098900491213362 -0.15246055250162252 -0.6488335109825277 -0.6306907973663165 0.1460321800093191 0.3866140895097021 -1.0786406209454669 0.35127488369206655 -0.08747341356096117 0.2552955729218035 -0.13511660287894292 -0.9020809265312055 0.6158282984079226 -0.5223778207910623 -0.2944587636204181 0.09714289981865004 0.08840938249111213 -0.19495993300279382 -0.3450240075593902 -0.2695357273332752 0.2610070029351581 0.08639948509061743 -0.008241548518151405 0.6165858401430488 0.26155615903835383 0.2185436077969147 0.2502456214280989 0.30905543679024317 0.0586351349039502 -0.03856356154442475 0.25847607711888326 0.013295081957031454 -0.45759065061744564 -0.0025194083687744284 0.39423017958546935 -0.0304352318759456 0.7261718529203143 -0.27751878153852694 -0.25996332922650783 -0.2175149958288289 0.6119658831924767 0.6803005636117649 0.07516014305918146 -0.21464658982578272 -0.11473159851148187 
e -0.39534067241936616 0.4249177304820195 -0.08035901452529429 0.1606602113066166 -0.2860482664579071 0.23318543875253278 0.6821679623546779 -0.2840714030946755 0.0688282424630508 -0.8511865115347467 0.027437297738156757 -0.04175471595054539 0.009583970188301039 0.09922137163014311 -0.06124833959109667 0.07330478206490598 0.17403527944916114 -0.321074317997478 -0.25818760538853563 0.14015462654618682 0.03342428905371108 0.16506483353525986 0.38595437102667096 -0.7770562600677006 0.4549471080611246 0.15135651229183894 0.40539383525496175 -0.6256834842558077 -0.24276840529161697 -0.0716723918629038 -0.31894705074744556 0.8244827260815741 -0.16332831888036903 0.15324058806491636 0.3122364963873623 -0.08110468842719663 -0.13407856362306542 -0.3276736689758683 -0.0925624068903421 -0.13555003674224625 0.38587321381881695 0.01501554968323307 0.666695696046409 0.13618991260458568 0.11265166639720492 0.11987735617144789 0.06688529092209698 0.2259676710121577 -0.21079467511603803 0.8289092507378167 0.3546631310507542 -0.01616965372619536 -0.5873920522033275 0.4497249719788535 0.41136012877536493 -0.40143686513989374 0.2654539744067797 -0.32902165134727196 -0.2700937247680255 0.5376734703830777 -0.39591812570477325 0.35011838731254386 0.4988981573325473 -0.3832361447706533 0.6140026089757897 0.3329190462656926 0.18430891819453593 0.05687924367821261 -0.20141885257214354 -0.7552977499928537 0.04478534866438032 0.49103234370589777 -0.34350294156172745 -0.07150186671952015 -0.35305443737142334 0.8586613130993772 0.5740133269544365 -0.2733750110697304 -0.402791977364739 -0.13557268730414018 -0.09215576817985391 0.27845334377646175 -0.11677217678520899 0.06609740245032798 -0.19145365328604236 0.1484088542214288 0.03182065020827727 0.3666749769825502 -0.027920391837462005 0.2604218263858102 -0.36826332250865734 -0.45527647792574016 -0.5023307770731094 -0.068076526067953 -0.8099100675110534 0.3723196055706347 -0.34091020603637706 -0.7101510717634305 0.45329891560905805 -0.5740000920673654 
than -0.34543059415901406 -0.2752241649652018 0.0015605536078546565 -0.02294020029299515 -0.14303049602659038 0.3904600377712292 -0.3226478131175537 0.18539708478489125 0.02796814475613046 0.08512859523281063 0.12568966837209716 0.39656524757632294 0.28120139078128076 -0.036038453959905216 0.30990028511856454 0.47044509503490617 -0.1456108635478497 0.3490686781054405 -0.03849982653431963 -0.43415378959719675 -0.2258286953216317 0.30336702493693946 -0.21536490278418882 0.03110783648792477 0.38963915266560156 -0.25579054865170653 0.08032307633740288 -0.34332334226333966 0.7805872277301503 -0.3787248967474328 -0.0588515902544835 0.06250652544030269 0.6522625497611146 -0.15571072922028248 -0.09696747774124423 -0.3683041711474013 0.2738838109500232 -0.004847613494540812 -0.33683031797574725 -0.05747550959908482 -0.45851418140707784 0.1564466297152814 -0.32286808070037476 -0.10923731379753979 0.4144605919231683 0.209055018245207 0.17904183762652617 -0.22857808866586987 -0.10322323511460764 -0.04110517416937392 -0.18306741302818844 -0.006330374413581252 -0.024625784891530212 0.2826018385094954 0.029719976299720258 -0.1604945533580257 -0.718757642177882 -0.20791352920898978 -0.3023881314628491 0.008745799853774671 -0.18050383601217299 -0.02996774659197074 -0.7553605792132743 0.18420957243993238 0.28607132621730447 0.32053431744069144 -0.46069519502188366 -0.44504420389698607 -0.04720425805675456 0.09230970171487594 0.29476728994043544 -0.29525579626326826 0.33707077873220936 -0.508593623027371 0.0604034346339405 0.13934851691545586 -0.3004015656637732 -0.08094771972407679 -0.20244209101605826 -0.06752257197409671 0.2235238148267884 0.23201150924055564 -0.08050590264361973 0.1857715649946835 0.5438447606182346 -0.016154940325058376 -0.5561754617801733 0.16418007286197117 -0.41152738914977194 -0.6654181087617828 0.010977345701735638 -0.2206579777839867 -0.1785871304999983 0.20912775706893183 -0.1799919929050442 -0.2996163269060242 -0.39082502412253073 0.25182130157925464 0.09565036554445532 0.19475826497024773 
fa 0.020652936149835877 0.10098315664327674 -0.7681901907748531 -0.1975368393732813 -0.09191010757852579 0.05030022840098246 -0.27023802245448936 -0.694174593865029 -0.25821843303197467 -0.43305235081612015 -0.05764574278920813 0.5606166239483158 -0.6198802467619859 -0.11487762098851098 0.8950997098632919 0.16346723926050716 -0.13702545636863286 0.03473803290505856 0.5881213296675446 -0.5586119699952272 0.2202868168697531 -0.043174313759056136 0.3671575370476844 0.4054803012820366 0.02017696422461987 -0.04376923904515048 0.32493240824861885 -0.6439313486902676 0.4485270591012876 0.3330188757407151 -0.11406650029207131 -0.6491349241985731 0.800159715628716 -0.12500406557429278 0.18842500338468998 -0.08447102482141973 -1.0776854947229821 -0.06333548718979895 -0.03775259388778858 -0.016993745286972756 -0.45764002213715727 -0.03740804672519266 0.35119088506416685 0.7871244326136002 -0.2034615060769803 0.2232547251781344 0.4427855966344474 0.132005913428904 0.10175921452199957 -0.12558528103151645 -0.17581894689579097 0.24893212511397417 -0.1380263542219846 0.23951246988171546 -0.6670324272452987 -0.5890162779928563 0.262386631372616 -0.642662363828229 0.11596939938646611 0.42811586845622035 0.23482507463741015 -0.41583131522269784 0.28970503867317393 0.0017341307297696479 -0.4708123266865558 -0.09892414720051475 -0.21811920042827973 -0.486453027624198 0.2690741086630214 0.4342858816528015 -0.35854916200699904 0.42662896239013665 0.20614905600731365 -0.1191878173564963 0.47918618494878357 0.10860591451119386 0.13224169662034202 0.18306914234336263 0.25429717787506656 0.9271028636975513 -0.013998800783005201 0.18892135049484016 -0.4619689039186478 -0.19459072260479104 0.060798627571407374 0.3230561626251883 -0.22141407084435535 0.042090310708076624 -0.018119239279109856 -0.6502905735300778 -0.07011256852834054 0.0007792058639365732 -0.6230735067152836 0.0044367963879537176 -0.2828108388043823 -0.5207741127177379 0.07442587740542593 0.6957609094674633 -0.4735428430892786 -0.22427544003633815 
m -0.1595235756495174 -0.25107448968247 0.19847812443825952 0.2728714871793058 -0.5651561681208412 0.3869862788392185 0.43427611544218636 0.6696529179282635 -0.3395969621828915 0.23683616475283725 -0.24337057904351792 0.023378754700068533 0.5403924022065315 -0.795604082387098 0.019407945685178445 0.21845170804655178 -0.2181475387750927 -0.3247689969923119 -0.36760974375372146 -0.19965582217630676 -0.2556547538119967 0.16548937809722294 -0.16056366797870855 -0.22155781560625376 -0.40229408274484324 0.492845536609591 0.13761983852157972 -0.1918025686797595 -0.07314290128694254 0.496938252643394 0.16047110696696604 0.5557871635941831 -0.03317813827520239 0.09309937645539632 0.4112648188941771 -0.910812922766485 -0.47136138797250454 0.3407574392338963 0.10414571683533934 0.12559762848399184 -0.43813767219755684 -0.2479394340266068 -0.05690960359208356 0.18179940087595106 0.9694693203660995 0.2383053317817982 -0.0015381880411820398 0.6346087556358373 -0.2734310024410236 0.5508366883239625 -0.3995978731308077 -0.1755433320233205 0.19822962155022367 -0.04075488054331091 -0.32876429999395906 0.1495766437422866 0.369993275097614 0.048326938845548895 0.3636593151795944 0.19889192313136386 0.9077242116672137 0.8895842527288728 0.08004481157109039 -0.05295780942701303 0.3829386879992377 -0.01802409355866627 -0.4736073458610895 -0.7571707469957452 0.5287264026539286 -0.37592191077344417 -0.4437948492531163 -0.0003336289663955494 -0.5194646938160823 -0.2662210610647616 -0.29099263789920066 0.6309926721812987 -0.39285463612399607 -0.5471361886950615 0.48057124757085895 -0.2395186060020609 0.35977484244925856 -0.0411187706126071 0.07172573503098106 -0.5489643824426377 0.2596810988629104 0.1708893980347205 0.26702481915791376 0.23360400793428598 -0.3110269659482158 0.31030275037074717 0.1564152492369745 0.0840653905452212 -0.5152375115249915 -0.36036189872691193 -0.10314187619421696 0.114112668524505 0.3949276233026716 -0.6121629485798632 -0.0351626087657054 -0.04287289475234857 
ish -0.3187044728787501 0.039641229006092085 -0.3610645287135946 -0.40963362261623076 -0.3113844234773202 0.7419990042965096 -0.08419548930260223 0.3475075744403344 -0.5304235692817986 -1.0673392610814039 0.8349002633899817 0.11665208082555964 -0.5304389085645264 0.12668366754138116 -0.010490973128656987 -0.5537252726786808 -0.5121650715849301 0.38122841733267804 -0.01603068394012831 0.4922907771585068 -0.19145262360696208 0.19396543535631058 -0.721787966053864 0.07755456600260312 -0.23246630484938577 0.2365557268631597 0.22849139107374145 0.31197973652021005 -0.5401616497573405 -0.21644398009038404 -0.0025684387279218818 0.05864651887441437 -0.40711740034733845 0.8439603721224712 -0.26054890943689585 -0.2011130017997796 0.007235007977072737 0.10802366085199225 -0.015040220906848253 -0.38780734572785724 -0.25553097143416326 -0.18048627700057357 -0.4126550822132867 0.6543638939132559 0.10298840167577983 -0.7674960534883186 -0.38110942852518 -0.09517985544877586 -0.43963036940342093 0.5341234432776749 0.7535689617125099 -0.3546605124856622 0.35904480848307874 -0.03634683371982721 0.5813466654033826 -0.2037990431572919 -0.4794154257344764 0.09923923885075933 0.1379232028208044 0.8939615221326073 0.5106718776082467 -0.1911285243250679 -0.3145048936379971 0.7721072495641843 -0.8626094108944786 0.06129808659586175 0.21986982825568302 -1.0444440294001716 0.5290744221552077 0.5317375875207638 0.0812086831383337 -0.22568618093352683 0.5571358799565926 -0.2753402703007199 0.20988549026969927 -0.2730961504675512 -0.2402592571116169 -0.2061878857966815 -0.7865205938023206 0.37177947520359333 0.167279752591138 1.0972118704908025 -0.18810551674667522 0.38831942480869985 -0.5852856642568783 -0.010373511337816353 -0.2651031766389842 -0.6023982705403993 0.5061355988334786 -0.7474309412621264 -0.7737888719281818 -0.6345195070323771 -0.11227960090122732 0.5403187200878062 0.3216661935340928 0.24183828843385347 -0.4574965987142028 0.7039687182432284 0.04006180456614392 -0.06323226293436951 
? 0.03265100428989748 -0.2782916087494008 -0.25556418291329597 0.33414793076935156 0.22896706374755807 -0.23151792296274532 -0.21442271633030166 0.26521729011111594 0.0599091061468213 0.6177147983428013 -0.2686617088862909 -0.26026301867223456 -0.1408843688673237 0.02582492572524041 0.19790119886548213 0.18894332969320177 -0.052118925840392974 -0.07442361225051937 -0.04393816709120332 -0.07975105160565607 -0.3068179852318336 -0.20947050266861117 0.2182606243581587 0.02437404463846164 -0.31470946253644394 -0.35828858597349456 0.2643286127918103 0.1423813425624587 0.10998262093577808 -0.13857552226168707 -0.17745912117549315 0.2396288804500755 0.16886720934488877 0.29322968504556285 0.2602157209601478 -0.1567794235581073 -0.20099183383009583 -0.21008726013343804 0.47525588651931344 0.5269836203933073 0.604427966378951 -0.12087324324604343 0.3357225199558782 0.005978273627719917 0.22462828019890926 -0.33561212137664964 0.041764978271275434 0.22678186211435372 -0.23978381553849282 -0.05239082938689705 -0.8335539185715856 0.29428011221161876 -0.32093813946899924 0.07034103225878144 0.25370633638374085 0.16721022510497055 -0.13530834830576338 0.5892572624689376 -0.16395015162676402 -0.6296259310528222 0.4136225498510219 0.43561001312261766 0.238947022408472 0.13464785308169214 0.21211411840046934 -0.14151139591068812 -0.08434820048603085 -0.2860896118672779 -0.16713521895739306 -0.2793134178660939 -0.18125142452587362 -0.17963495863293938 0.4700219823002202 0.09601829931942046 0.5569811870719313 0.3833092579204107 -0.2878502850804039 0.32482086987166486 0.02836076013333922 0.13900733561131962 -0.2930985296599991 -0.20452912326733128 0.16308348757684998 -0.20085465781759446 0.2875269021745973 0.3201103880536763 0.0346850276000695 -0.06917435490578522 0.16445572379748885 -0.08542845475943134 -0.20716019931155286 0.3472773801888403 -0.02686548411311063 -0.6329026214124114 0.5508530162434792 0.17832539981498677 -0.031017919233607385 -0.41092385645163376 0.31416971142418454 -0.7278400207709075 
know -0.37284739340598205 0.07414853744683653 -0.6084117554337767 -0.5053576910696983 0.14416631956838832 -0.16533683701143367 -0.38723206490780754 -0.08954502059124636 -0.31981420037255814 -0.2069451006324304 -0.3374121016687984 0.04114242354736907 0.04534523983244519 -0.3530647063320463 0.35902641324485446 0.24413472422328764 -0.19049781802708832 -0.3567153488696851 0.049698551747908604 0.24358986952951012 -0.032048363499853176 0.004395973550313665 -0.170653134870731 -0.006203347397905691 -0.27651584738157253 0.729880231944209 -0.13249019476151458 -0.017027403505730496 -0.05484448359252786 -0.39515100514641 0.17454715835887102 -0.22919180901665204 0.6002644427774583 -0.5823774319409493 0.2543294345216557 0.46971287036031967 -0.37195483121398554 -0.3363392652253975 -0.46710292781928753 0.05353384020094212 -0.03148581729896205 0.25080395664683286 -0.10756835141971112 -0.20317983140681828 -0.11064560709492359 0.18792550142234335 -0.5338549542630353 -0.11304377962490943 0.1554754045091868 -0.6239690014281337 -0.008206836861156634 -0.09733028511452863 -0.054224096108349114 0.3982676981504908 -0.41147557193765094 0.11043132122215056 -0.32915509250754316 0.28451968976274067 -0.6140885321808361 0.44753605855942086 -0.04461961771360096 0.026793900046317647 -0.6644648735319719 -0.027854030739692892 -0.16419524353394804 -0.3022695422565981 -0.10781273346587152 -0.7166987774351967 -0.2183931474159578 0.38938817500592965 0.33066816615995487 -0.33758233974352303 -0.20257103428540596 -0.6858245775391396 -0.3773373181017441 0.06078750751245205 -0.2843484882145917 -0.06819155729178644 -0.25905636000704463 0.22016133091893006 0.05043974471844522 0.743079753351948 0.029806592132878285 -0.07039270993410565 0.2999614011309314 -0.11880636263125902 -0.39022461594775226 -0.6502872285917106 -0.10368288108138388 -0.3481253384930211 -0.19781491923203817 0.2365356557099131 -0.10490030810517155 0.45334672080222516 -0.08822659186096649 0.017297358467134677 0.37580342114258336 0.46173261871272314 -0.1410578294089079 0.5947275415222791 
us 0.35713520828823164 -0.0487298142215074 0.1937545497197609 0.6556424662159889 -0.42262999075625846 -0.15500665505600142 -0.35990150547979094 0.31276195631676956 -1.06228632258397 0.7067309921488816 -0.3400882203002451 -0.37702696622406956 0.03633458337623932 0.3240136304369535 -0.14922764016026988 0.2006086124634603 -0.6305099615289959 0.36909079621981 -0.23900781504826107 -0.12759273721795586 -0.5794381526809135 0.23107352362215278 1.115668102575326 -0.019147494186865115 -0.6547553992067823 0.14946122590125635 0.31605201317173387 -0.4125443227627006 -0.24255611630309679 0.9563028028738442 -0.1529458580861153 0.20284379352407675 -0.5241167246833459 0.549695067737457 0.5933865653797264 -0.11714214023239695 -0.009354504253252181 0.19688139917828604 -0.3477934701581281 0.12033484876208818 1.0359820601822958 0.31259254223681643 0.09530224786145913 -0.4286590343672995 -0.006526102996531109 -0.6389079849470521 0.09056398651144629 0.3380582896781088 -0.57021512180709 0.1848800473940547 0.2827583327063887 0.6377590073730905 0.3916564306597146 -0.3571499185106707 0.2496400738623214 -0.11603069920586155 0.1762023593779689 0.07261217296289964 0.6154500557969866 0.46617929072819597 0.3821878983184423 -0.9709333401945565 -1.013160834382199 0.233224252295249 -0.6038405426782139 -0.4839416086359025 0.11937918342230867 -0.00038001497276746177 0.353787126730373 -0.2015042248869277 0.3601184264348372 0.580616470176615 -0.18798949900074857 -0.31471706750016604 -0.4498382296815996 0.03024335431154896 -0.05458018114639139 -0.7323279962212481 -0.10511912039660803 0.041940679820660375 0.44528713553890825 -1.078462109586765 -0.28751203776301854 0.6128882261058239 0.7915505035177121 -0.112380431637223 0.06996777111660281 -0.16765445522364486 -0.37383728723066056 0.6608430762395076 0.5590813058155251 -0.47612282548301793 -0.04544016916692475 -0.29284268772044736 0.7877248962885381 -0.529649731308344 -0.09099214856304368 -0.6086891650506876 -0.014881771904151447 -0.04700771105514837 
ar -0.37265351087575177 -0.5556114638470284 0.4608081240198317 0.030404250366485776 -0.15746456889254556 -0.4635590007391946 -0.3275556252570069 0.34355780382202494 0.5329490224406074 0.5742105254338302 0.05840597271571625 0.6036402649109197 0.5332357171182298 -0.6463517212672775 0.05795081197152132 0.41128491892822305 0.4278077568381192 0.26177817077837956 -0.22853509741469183 0.02613109001454418 0.40074366806525524 0.3404095207068958 0.061625151146044985 0.5394014628426054 -0.07570856803745685 0.3006650659212021 -0.9358485064217055 0.5472510755214932 0.6409857463895291 0.15400224761030187 -0.185314049111635 0.4781123741867477 0.18754980478531263 -0.3924294266106866 -0.1509087612568527 -0.6505000955462445 -0.08385806792936458 -0.5400024406930326 -0.09678461729023735 0.029767284649356598 -0.01630962359563244 0.5595040908934651 -1.0582002030910358 -0.5434306210242127 0.6245389731167896 -0.1449881463552803 0.19924171071669275 -0.4186616156653855 -0.21326344325290855 -0.5309825385004096 0.32951451612690663 -0.3789680698324369 0.4033691255228832 0.1538140634461384 0.17108129260887525 0.28363045354686167 0.5152903443388444 0.029512152720385508 -0.17147371141138168 -0.05408274212386633 0.08489549690847492 -0.8909032834974129 0.0574045697483464 0.1163279526289529 -0.07943967443009473 0.1266917924172452 0.026142311585559973 0.03736450359676611 1.0762239188075864 -0.534588883634223 0.1070663488217471 0.32991584948270075 -0.04792186235146911 0.43410243742508936 -0.3275834307755786 0.3024893699653662 -0.22417863803745555 -0.3886407898309182 -0.30438118743854264 -0.3512894927949889 0.9348638279841373 0.35536423774448395 0.48374473709276683 -0.1523032814695855 0.08364097478114615 -0.09169517341470018 0.6836439352080703 -0.03773548312044176 0.5239776875906064 -1.0885686426837908 0.3598017664756844 -0.5466436972454075 0.14765285859052935 0.5049858979462591 0.15932209633719657 0.029716237199948314 0.13429512827352752 -0.03207317402595361 -0.2579172569492967 0.29960335117235626 
ci -0.785991277796816 0.39079138367608407 -0.04087641478591742 0.08306949392634602 -0.2415477650938018 0.3229860832400332 0.08326104098652772 0.3375943403620485 -0.3338374451963659 0.3102188857378768 0.1536443656855719 0.7292345967069455 -0.00906430518238863 -0.20779387185955125 0.549446842135813 -0.10744168936687265 -0.45134313482407024 -0.3794194561255797 -0.28606755879533946 -0.741829132700471 0.7883209314269207 -0.040991979964397574 0.31217565280514986 -0.6769352873781537 0.42818571399737304 0.5351198300309088 -0.1639843418441295 -0.20169813483576973 -0.29019366004025826 -0.3738430632829972 0.2221573285241828 -0.03075655288848332 -1.1643185803212055 0.3413420064155906 0.37089419453332606 -0.1939608308843414 -0.4629596762486186 -0.11901816522537853 -0.3807044317976624 0.7005860413071663 0.8943172986276055 0.7648608381617015 -0.8475420408842667 0.2408317950399353 0.1401611337348117 0.01742107170515516 -0.20766899964571672 0.5263325089605805 -0.6396486683184646 0.4303379645541779 -0.2692416284608697 0.2264581309459241 -1.0183140565640028 -0.04329767759073551 -0.46297101133704954 -0.6203019340007749 -0.10744471691238233 1.3265874639285313 1.4403423910486748 -1.3998797049732923 0.27233522566650686 0.11604727810627714 0.056266292736286465 -0.11998167690260253 0.5622279807135782 -0.8574369212956812 0.06658295049787025 1.1194167452620416 0.15169259914012365 -0.4745942880431862 0.5032128587593944 -0.12652186533335705 -0.042207825232977024 -0.18824051573217485 0.2749759246119038 -0.6752531748671706 0.24677171973705508 -0.7061542079561116 0.3889796652174403 0.9852597082313858 0.602622568964097 0.8986546411215572 0.3878304636945498 0.029135620030061784 -0.42327257750318015 -0.5919640392794179 -0.7794513613010761 0.1241921725411964 -0.2537419609048576 0.4112105607051912 -0.06716132877615218 0.024408295044825702 -0.5493239928469711 -0.7032282902546915 0.48359794929327143 -0.47129854137764987 -0.2587289566354657 0.4518504833803875 -0.3134962899419621 -0.31383879489018973 
